tree
version=v4
num_class=1
num_tree_per_iteration=1
label_index=0
max_feature_idx=178
objective=quantile
feature_names=hour_sin hour_cos month_sin month_cos doy_sin doy_cos lead_h ldaps_g5_ws10 ldaps_g5_ws50 ldaps_g5_ws117 ldaps_g5_ws117_sq ldaps_g5_ws117_cube ldaps_g5_alpha ldaps_g5_ws50_range ldaps_g5_wd50_sin ldaps_g5_wd50_cos ldaps_g6_ws10 ldaps_g6_ws50 ldaps_g6_ws117 ldaps_g6_ws117_sq ldaps_g6_ws117_cube ldaps_g6_alpha ldaps_g6_ws50_range ldaps_g6_wd50_sin ldaps_g6_wd50_cos ldaps_g12_ws10 ldaps_g12_ws50 ldaps_g12_ws117 ldaps_g12_ws117_sq ldaps_g12_ws117_cube ldaps_g12_alpha ldaps_g12_ws50_range ldaps_g12_wd50_sin ldaps_g12_wd50_cos ldaps_g13_ws10 ldaps_g13_ws50 ldaps_g13_ws117 ldaps_g13_ws117_sq ldaps_g13_ws117_cube ldaps_g13_alpha ldaps_g13_ws50_range ldaps_g13_wd50_sin ldaps_g13_wd50_cos ldaps_ws117_mean ldaps_ws117_std ldaps_ws117_min ldaps_ws117_max ldaps_ws117_mean_cube ldaps_ws10_mean ldaps_alpha_mean ldaps_ws50_range_mean ldaps_shear_117_10 gfs_g2_ws10 gfs_g2_ws80 gfs_g2_ws100 gfs_g2_ws117 gfs_g2_alpha gfs_g2_gust gfs_g2_ws_pbl gfs_g2_ws850 gfs_g2_ws700 gfs_g2_ws500 gfs_g2_ws117_cube gfs_g2_gust_factor gfs_g2_wd100_sin gfs_g2_wd100_cos gfs_g5_ws10 gfs_g5_ws80 gfs_g5_ws100 gfs_g5_ws117 gfs_g5_alpha gfs_g5_gust gfs_g5_ws_pbl gfs_g5_ws850 gfs_g5_ws700 gfs_g5_ws500 gfs_g5_ws117_cube gfs_g5_gust_factor gfs_g5_wd100_sin gfs_g5_wd100_cos gfs_ws117_mean gfs_ws117_std gfs_ws117_min gfs_ws117_max gfs_ws117_mean_cube gfs_gust_mean gfs_ws850_mean gfs_ws500_mean src_ws117_diff src_ws117_absdiff src_ws117_ratio t2m_c t_hub_c rh spec_humidity surface_pressure rho_hub dewpoint_depression ws117_rho_corrected rho_ws117_cube blh blh_below_hub blh_ratio_hub gfs_vrate lapse_850_500 t850_c gh500 prmsl icing_score icing_flag precip_ldaps snow_ldaps gfs_prate gfs_tp icing_wet ws_hub_cal_kpx_group_1 pc_pred_kpx_group_1 pc_pred_rho_kpx_group_1 ws_hub_cal_kpx_group_2 pc_pred_kpx_group_2 pc_pred_rho_kpx_group_2 ws_hub_cal_kpx_group_3 pc_pred_kpx_group_3 pc_pred_rho_kpx_group_3 ldaps_ws117_mean_lag1 ldaps_ws117_mean_lead1 ldaps_ws117_mean_lag2 ldaps_ws117_mean_lead2 ldaps_ws117_mean_lag3 ldaps_ws117_mean_lead3 ldaps_ws117_mean_diff1 ldaps_ws117_mean_roll3_mean ldaps_ws117_mean_roll3_std ldaps_ws117_mean_roll5_mean ldaps_ws117_mean_roll5_std ldaps_g13_ws117_lag1 ldaps_g13_ws117_lead1 ldaps_g13_ws117_lag2 ldaps_g13_ws117_lead2 ldaps_g13_ws117_lag3 ldaps_g13_ws117_lead3 ldaps_g13_ws117_diff1 ldaps_g13_ws117_roll3_mean ldaps_g13_ws117_roll3_std ldaps_g13_ws117_roll5_mean ldaps_g13_ws117_roll5_std gfs_ws117_mean_lag1 gfs_ws117_mean_lead1 gfs_ws117_mean_lag2 gfs_ws117_mean_lead2 gfs_ws117_mean_lag3 gfs_ws117_mean_lead3 gfs_ws117_mean_diff1 gfs_ws117_mean_roll3_mean gfs_ws117_mean_roll3_std gfs_ws117_mean_roll5_mean gfs_ws117_mean_roll5_std t_hub_c_lag1 t_hub_c_lead1 t_hub_c_lag2 t_hub_c_lead2 t_hub_c_lag3 t_hub_c_lead3 t_hub_c_diff1 t_hub_c_roll3_mean t_hub_c_roll3_std t_hub_c_roll5_mean t_hub_c_roll5_std pc_pred_kpx_group_1_lag1 pc_pred_kpx_group_1_lead1 pc_pred_kpx_group_1_lag2 pc_pred_kpx_group_1_lead2 pc_pred_kpx_group_1_lag3 pc_pred_kpx_group_1_lead3 pc_pred_kpx_group_1_diff1 pc_pred_kpx_group_1_roll3_mean pc_pred_kpx_group_1_roll3_std pc_pred_kpx_group_1_roll5_mean pc_pred_kpx_group_1_roll5_std
feature_infos=[-1:1] [-1:1] [-1:1] [-1:1] [-0.99999073973619013:0.99999073973619013] [-0.99996295911626554:1] [12:35] [0.037558257400089542:17.220675322428377] [0.0260712023029031:26.049866422970023] [0.032575839325908539:34.002468536530827] [0.0010611853077874094:1156.1678665777688] [3.4569002081497444e-05:39312.561506258557] [0:0.59999999999999998] [0.038194321967669378:23.027509982037298] [-0.9999999999990884:0.99999998522778422] [-0.99999921687795934:0.99999991747139472] [0.038639325694456016:17.583720136881944] [0.020759366711198185:26.646846841432154] [0.02593872682336187:34.733207568096034] [0.00067281754921699256:1206.3957079684437] [1.7452030611103403e-05:41901.99253412812] [0:0.59999999999999998] [0.080057996658672775:22.330746162459988] [-0.99999999998990441:0.99999999842517306] [-0.99999815049566787:0.99999996401345137] [0.072986948134198801:17.304098389288239] [0.06412675495103895:26.947139313037404] [0.080126065591702322:34.472162730332002] [0.0064201863872057827:1188.3300033064907] [0.0005144242755722049:40964.305251317317] [0:0.59999999999999998] [0.05873878328064331:22.209264706569432] [-0.9999999998394522:0.99999999376750892] [-0.99999983320398578:0.99999996583978978] [0.034538255441076131:18.163822238688027] [0.018349274715179487:28.40814358594692] [0.022927328702523349:36.06946604256602] [0.00052566240143355099:1301.0063805958232] [1.2052034664224805e-05:46926.605466062771] [0:0.59999999999999998] [0.11810403775213425:19.715913856805873] [-0.99999999975750087:0.99999986959122356] [-0.99999996589508233:0.99999999856227206] [0.3326534929629808:34.03172605949252] [0.0548712157656722:5.5385063576208529] [0.013095272534408321:31.80450519345926] [0.54409205441525865:36.968141125686742] [0.03681088544897141:39414.128673624495] [0.3716423485156195:16.874287587242044] [0:0.59999999999999998] [0.1091601364604496:20.818955525660911] [-2.1774989712748818:17.891655741285973] [0.0045777903078673852:14.904734518377575] [0.04019553644374247:26.120574498686349] [0.02659670900715207:27.639522885973996] [0.027713577866601224:28.998883763146463] [0:0.59999999999999998] [0.20034745000000001:30.501766] [0.029113052466668399:41.094286751142313] [0.039472125629124964:46.762838367986518] [0.097184212619383994:46.473374166654494] [0.081701572931429156:68.730342895930619] [2.12852028064847e-05:24386.183842817805] [0.33613724471218936:10.0113574] [-0.99999999927111594:0.99999998797240108] [-0.99999990971897412:0.99999987349978114] [0.012521724924816607:15.305853350548647] [0.020276552774576212:25.053680583230562] [0.0014638388339156523:26.482453600699557] [0.0015253094470059076:27.491176084524863] [0:0.59999999999999998] [0.11820969000000001:29.701767] [0.0066121794754045275:37.970386492788634] [0.017596866239117066:39.887524100662219] [0.10499464422752319:45.095540304656126] [0.067553381531406873:71.030052065506865] [3.5487375361993049e-09:20776.862164651197] [0.23641938000000001:8.4000000000000004] [-0.99999999926848049:0.99999999669965189] [-0.99999999605136369:0.99999985643097311] [0.31290780259982504:21.716123727602636] [0.13101278704469674:7.4824371542987187] [0.0013238967968377971:17.04195693984224] [0.55624530969641983:33.448783706623196] [0.030637207519761667:10241.107434810101] [0.36185062888888886:26.260725999999998] [0.36842358622420651:35.85511413703675] [0.3971437823459627:70.498447382867852] [-8.9102720728780369:21.092492724957751] [0.0008670518882198941:21.092492724957751] [0.12226762224929939:10.883069326007744] [-23.287323333333319:29.128250000000037] [-24.034823333333321:28.380750000000035] [15.389539166666667:100] [0.00027540014666666669:0.020354096666666665] [87616.643333333326:91733.463333333333] [1.0130381363098582:1.2368026626761655] [-0.03714666666667199:26.539210000000082] [0.32591735470690725:32.297930701337584] [0.042409050481237831:41272.443704412348] [29.255926666666667:2936.4123333333337] [0:1] [0.25005065527065529:25.097541310541313] [0:73500] [2.0130750000000148:34.138994999999966] [-22.916699999999992:23.756090000000029] [5052.8125:5970.3056500000002] [98118.770000000004:103380.76466666667] [0:0.99999999956597219] [0:1] [0:57.698569666666664] [-2.3606099999999997e-18:5.0392659999999996] [0:0.0069394000000000001] [0:221.4375] [0:5.9691595805453002] [1.8898799138901121:19.02202829924224] [0:19999.277343749996] [0:19999.277343749996] [1.3401024936052179:21.222436254332877] [0:20558.056179775285] [0:20558.056179775285] [0.26962131786808818:19.407023217579507] [0:18410] [0:18410] [0.3326534929629808:34.03172605949252] [0.3326534929629808:34.03172605949252] [0.3326534929629808:34.03172605949252] [0.3326534929629808:34.03172605949252] [0.3326534929629808:34.03172605949252] [0.3326534929629808:34.03172605949252] [-12.460164866921401:12.168952496122028] [0.56302044731061296:32.529303755250915] [0.0037716681324845534:7.4047298221183775] [0.7756940784841454:31.108417140609525] [0.03821835491357458:9.8973882735036387] [0.022927328702523349:36.06946604256602] [0.022927328702523349:36.06946604256602] [0.022927328702523349:36.06946604256602] [0.022927328702523349:36.06946604256602] [0.022927328702523349:36.06946604256602] [0.022927328702523349:36.06946604256602] [-14.263285169284302:12.776155267742068] [0.3139995962236351:35.676655341397328] [0.0046289562520448399:9.6074218621782688] [0.49523412952687024:35.10058614193202] [0.036305078539123729:12.376880802940724] [0.31290780259982504:21.716123727602636] [0.31290780259982504:21.716123727602636] [0.31290780259982504:21.716123727602636] [0.31290780259982504:21.716123727602636] [0.31290780259982504:21.716123727602636] [0.31290780259982504:21.716123727602636] [-6.9890517645039107:5.2405915238754739] [0.40989248255330663:21.272234079575405] [0.0006767951942552292:4.5548445231127586] [0.45649040809690805:21.180255416874783] [0.0095837579206499816:5.7674614868893546] [-24.034823333333321:28.380750000000035] [-24.034823333333321:28.380750000000035] [-24.034823333333321:28.380750000000035] [-24.034823333333321:28.380750000000035] [-24.034823333333321:28.380750000000035] [-24.034823333333321:28.380750000000035] [-7.1519566666666492:4.2836433333333161] [-23.903719999999982:28.13910222222222] [1.9244647931640575e-05:4.6625078074338226] [-23.775195999999983:27.568414666666662] [0.0079681492689853469:5.1678226447816904] [0:19999.277343749996] [0:19999.277343749996] [0:19999.277343749996] [0:19999.277343749996] [0:19999.277343749996] [0:19999.277343749996] [-14513.91091204544:12653.924560889693] [0:19999.277343749996] [0:8247.908620714119] [0:19999.277343749996] [0:8156.3228685679323]
tree_sizes=6716 6913 6974 6959 6916 6943 6928 6943 6960 6958 6974 6958 6948 6978 6916 6978 6969 6940 6942 6970 6965 6990 6943 6973 6982 6967 6957 6945 6963 6961 6958 6962 6969 6977 6946 6930 6991 6983 6951 6973 7006 6946 7003 6960 6961 6977 6986 6996 6989 6935 6960 6988 7007 6968 6943 6966 6981 6966 6971 6982 6993 6972 6979 6948 6989 6952 6980 7037 6989 7002 6978 7009 6947 7012 6946 6994 6990 6976 6973 6993 7022 6967 6981 7002 7003 7009 6997 6966 7015 7021 7004 6955 7007 6952 6996 6982 7003 7012 6992 7020 6969 6993 6985 6998 7024 6997 6972 6971 6988 7028 6993 6997 7015 6966 6944 6948 7000 6990 6980 6974 7002 6997 7006 6988 6962 6968 7008 6996 7013 6944 6970 6984 6988 6992 6994 6995 6937 6969 6986 6933 7007 6999 6960 6991 6983 6983 6988 6942 6970 6980 7000 6963 6986 6981 6996 6949 6972 6964 6986 6980 6946 6931 6934 6996 6976 7006 6985 6973 6970 6938 6981 6990 7012 6941 6936 6870 6971 6980 6957 7017 6984 6923 7001 7006 7031 6942 6986 6998 6960 6978 6954 6984 6969 6900 7033 6984 6988 6971

Tree=0
num_leaves=63
num_cat=0
split_feature=177 177 177 65 44 5 14 16 44 53 86 44 86 58 4 114 100 114 177 96 154 86 44 97 65 173 95 178 15 5 86 100 155 100 63 100 4 86 173 63 173 65 86 95 173 47 60 4 5 4 129 129 97 141 148 81 176 121 116 86 3 124
split_gain=9.83665e+06 1.32683e+06 650147 594823 584948 380699 263830 233853 208195 181955 163874 263124 159365 141862 136592 123774 123692 116660 116628 90587.3 90143.8 90021.5 107209 82034.6 78357.3 71683.7 71584.9 71381.3 71247.1 70556.3 70365.3 65606.5 64998.9 64640.2 64071.6 63721.7 62902.8 61314.6 60997.9 56348.6 56102.1 55306.1 54461 71761.9 65019.6 51984.4 64756.2 51904.3 51789.8 63995 63697.5 51417.3 47417.6 47371.7 46765.7 48624.2 53947.9 46234 45340.9 43053.5 51756.3 63385.5
threshold=10063.84830468076 14419.688674138773 6598.2580451207241 -0.11159107677846965 2.5965162636400385 0.8977101403255705 -0.95534922788809051 10.491542214858249 0.93981163534007639 4.0964166805165902 17.164308837889589 2.3078589697434118 15.806159208858881 3.1478847122314009 0.80900950266415306 5.7712485820441633e-20 225.71997333333334 3.0442802004986633e-13 16385.813468025692 1.0714719380480404 0.61944726040547982 16.109374820108695 1.982841070988911 0.50237333333330991 -0.35964322057932546 11926.700044831576 89865.458666666687 1042.4225099430539 -0.41386673706713223 0.84750952922804634 6.716197598562557 373.93954500000001 3.9113623217246487 587.01087333333351 2.03940379199349 188.40471333333332 0.46735488928835739 15.806159208858881 14641.83948531534 2.2943252010868744 8405.297393272811 -0.35694642995702885 17.164308837889589 90309.718333333338 12364.805724868489 5022.9079296044265 16.947468553593207 0.77214943412548942 -0.9574497222574998 0.073094453017891456 18.651853470957086 8.3879872435778555 9.8714149999999581 0.54470775463889087 6.8653570071764083 1.1481572947885919 716.97805878696238 7.6505178872253792 6177.4818988895722 6.716197598562557 0.93301270189221952 6.2681757906350244
decision_type=2 2 2 2 2 2 2 2 2 2 2 2 2 2 2 2 2 2 2 2 2 2 2 2 2 2 2 2 2 2 2 2 2 2 2 2 2 2 2 2 2 2 2 2 2 2 2 2 2 2 2 2 2 2 2 2 2 2 2 2 2 2
left_child=2 4 12 10 6 7 16 14 58 30 11 15 25 -6 36 20 29 24 -7 -15 45 22 28 -18 31 59 27 -13 -11 41 47 -8 -31 57 -21 51 -5 -16 -33 -9 52 -2 43 44 -19 46 -3 -10 49 50 -12 -32 -24 -22 55 56 -30 -25 -4 -1 -61 -62
right_child=1 3 8 5 13 18 17 39 9 21 48 26 -14 19 37 -17 23 42 -20 34 53 -23 40 33 -26 -27 -28 -29 54 32 35 38 -34 -35 -36 -37 -38 -39 -40 -41 -42 -43 -44 -45 -46 -47 -48 -49 -50 -51 -52 -53 -54 -55 -56 -57 -58 -59 -60 60 61 -63
leaf_value=14912.598339843749 15418.184804600056 15475.165116920125 15281.219978438312 15387.715935607224 15374.834360933397 15417.710332492077 15482.863516158455 15440.711724884848 15165.080706971648 15450.310971943116 15412.010564244929 15568.738296376107 15419.084257064675 15385.749438810997 15303.536135126658 15528.622477254155 15416.651671683576 15356.411672703576 15572.118310546875 15551.000683425556 15284.720354074019 15538.427869681687 15338.699791364053 15221.65760898527 15184.326580064004 15360.333090327591 15617.230280166459 15391.906567330085 15438.113064381359 15327.33483684929 15252.692784671441 15312.815274504672 15510.103704770114 15192.821091012098 15436.663773596052 15248.039326089516 15316.276412298346 15516.425658711662 15495.570588094975 15535.328332693418 15461.207449889231 15280.649585867479 15544.771622151677 15523.803900525232 15517.348364296187 15527.813490071472 15318.232772959893 15289.869502309159 15606.106787109375 15600.051662214571 15496.078087248676 15416.560055846288 15469.481721856195 15429.290329672493 15405.744003496915 15160.386489721495 15231.254242133633 15346.571034997402 15174.323294989625 15113.63623046875 15480.755348656787 15192.668481049908
leaf_weight=17546963.353151321 2207063.4357910156 1476746.2687988281 635453.30635070801 1894760.4575195312 872851.57958984375 1083681.0268554688 2532484.4768066406 637217.8115234375 2550823.7648296356 818961.85278320312 648108.5712890625 1600869.1047973633 863681.93937969208 727294.3623046875 553432.734375 4265619.1430664062 1663682.5933227539 1208093.1173095703 4662820.8638534546 10008013.54284668 738098.33642578125 826540.5478515625 1711743.662109375 885000.62536621094 578425.07287597656 662644.04561424255 11120678.701473236 588910.86157226562 484197.60534667969 481492.99108886719 1012609.0747528076 1238740.5446777344 1410909.9846191406 1485062.5881347656 1330755.1669921875 2328047.7506561279 2054144.4597167969 975655.705078125 555761.3046875 1019001.7854003906 2600128.6794433594 748121.30550384521 1415379.0903320312 950200.5498046875 1539313.9030761719 690861.66015625 550164.06005859375 765751.8949432373 18684461.970832825 990986.6572265625 958950.76513671875 1938728.4613037109 622407.53369140625 512256.126953125 412142.14544487 1589689.0703468323 1052194.7386474609 4157290.0992431641 3249133.9635419846 12786791.125500679 262361.68596172333 769801.58737754822
leaf_count=9947 167 99 73 137 67 75 173 43 357 69 44 104 71 53 50 276 121 99 284 607 66 53 145 94 65 72 611 45 37 43 106 109 91 166 91 258 172 64 37 60 186 71 87 58 105 40 42 99 1032 53 59 158 41 36 45 208 104 356 445 2158 30 128
internal_value=15427.2 15427.2 15427.2 15427.3 15427.2 15427.2 15427.2 15427.2 15427.2 15427.2 15427.3 15427.3 15427.2 15427.3 15427.2 15427.2 15427.2 15427.2 15427.3 15427.3 15427.2 15427.2 15427.2 15427.2 15427.2 15427.2 15427.3 15427.3 15427.2 15427.2 15427.2 15427.2 15427.2 15427.2 15427.3 15427.2 15427.2 15427.2 15427.2 15427.3 15427.2 15427.2 15427.2 15427.2 15427.2 15427.2 15427.2 15427.2 15427.3 15427.3 15427.2 15427.2 15427.2 15427.2 15427.2 15427.2 15427.2 15427.2 15427.2 15427.2 15427.2 15427.2
internal_weight=1.47194e+08 9.17034e+07 5.54908e+07 5.57074e+07 3.59959e+07 1.28807e+07 2.3057e+07 7.13421e+06 2.25986e+07 1.8714e+07 4.28267e+07 2.15442e+07 3.28922e+07 1.29389e+07 5.47799e+06 8.23375e+06 1.30386e+07 1.00184e+07 5.7465e+06 1.20661e+07 3.96813e+06 1.0118e+07 9.29147e+06 8.19104e+06 4.90541e+06 3.20286e+07 1.33105e+07 2.18978e+06 4.35719e+06 4.84759e+06 8.59596e+06 4.32699e+06 1.8924e+06 6.52735e+06 1.13388e+07 5.27939e+06 3.9489e+06 1.52909e+06 1.7945e+06 1.65622e+06 4.93428e+06 2.95518e+06 5.11299e+06 3.69761e+06 2.74741e+06 2.71777e+06 2.02691e+06 3.31658e+06 2.12825e+07 2.59805e+06 1.60706e+06 2.95134e+06 2.33415e+06 1.25035e+06 3.53822e+06 3.12608e+06 1.53639e+06 5.04229e+06 3.88459e+06 3.13659e+07 1.3819e+07 1.03216e+06
internal_count=20842 6052 14790 3392 2660 885 1842 526 2384 1866 2507 1319 12406 818 423 559 1109 733 359 751 283 888 835 737 384 12335 760 149 463 372 978 319 134 616 698 522 309 114 146 103 372 238 349 262 204 181 141 456 1188 156 103 264 186 102 394 349 141 450 518 12263 2316 158
is_linear=0
shrinkage=1


Tree=1
num_leaves=63
num_cat=0
split_feature=177 119 171 15 65 5 44 43 73 44 44 73 86 93 140 151 23 65 157 15 5 73 123 167 59 73 113 5 75 44 52 74 73 138 44 59 72 82 53 25 107 156 97 96 5 73 25 157 15 59 15 93 140 5 140 5 119 148 155 165 113 16
split_gain=9.03468e+06 1.34514e+06 697880 565713 418127 365560 274802 236362 218509 257306 186652 175477 156305 143322 150167 140312 129423 127306 126265 124155 116706 113050 107576 92927 88602.5 86278.7 84954.5 84711.7 80439.3 75606.3 74636.9 74930.1 68379.6 66170.6 65780.4 65120.8 106339 63482.2 63222.4 62952.5 60548.7 60262.9 59404.7 58942.9 130638 58078.7 57041.3 55439.1 51978.4 51783.7 55338.3 48792.8 48334 47348.9 46899.3 45701 48851.6 44727.6 44675.5 43475.9 43335.6 43931.2
threshold=9918.6631037227362 16034.69681579702 6463.4542634972295 -0.14795544250640985 -0.33533982838013981 0.8977101403255705 1.4361874043630631 21.0350710555063 15.708698336566101 2.1160872474292911 2.6511574195925927 14.810264619394564 5.8896471280258895 47.083933500000008 14.7466590594914 2.7931614791641484 0.47847284026095138 -0.15191532519244391 -7.1016366666666491 -0.41386673706713223 -0.74979862697202038 16.977875202617174 6837.8029405945263 1.5650210163928235 12.398282078515786 11.503659979035096 0.26562500000000006 -0.9975933521984367 37.313271619688358 2.0677594784730844 2.9485380258283542 18.767754903120778 17.865807623947394 14.302065031041765 1.385375858669825 20.434516004245097 11.909215229388913 1.8605439831893571 4.3241297959562983 9.1929801397394701 101899.92416666668 0.2358483449727152 6.2912933333333436 1.1460114412591438 0.91925191855388755 10.610330688539429 9.5844866948566452 14.310221666666679 -0.1854649720431357 11.410603634563877 -0.22733751093574778 98.888217000000012 13.391476427860054 0.45207220393230413 17.618640223671111 0.93225468035816128 7244.2556601499682 2.7244997256455759 7.7946136443689644 0.079550527103462512 1.5781250000000002 8.4987148145408167
decision_type=2 2 2 2 2 2 2 2 2 2 2 2 2 2 2 2 2 2 2 2 2 2 2 2 2 2 2 2 2 2 2 2 2 2 2 2 2 2 2 2 2 2 2 2 2 2 2 2 2 2 2 2 2 2 2 2 2 2 2 2 2 2
left_child=2 4 11 8 10 7 19 17 9 24 13 22 37 53 38 40 18 39 28 25 -14 -20 -1 51 -3 -4 34 -10 -6 33 -11 47 48 55 -7 36 -29 -8 -15 -5 -12 -40 -30 54 -45 -43 -26 -32 60 -17 -51 -19 -27 -2 -38 56 -22 -31 -21 -59 -16 -62
right_child=1 3 6 5 16 26 12 -9 27 30 15 -13 20 14 32 49 -18 23 21 58 29 -23 -24 -25 46 52 -28 35 42 57 31 -33 -34 -35 -36 -37 43 -39 41 -41 -42 45 -44 44 -46 -47 -48 -49 -50 50 -52 -53 -54 -55 -56 -57 -58 59 -60 -61 61 -63
leaf_value=-418.69020996093752 -156.96231268672764 -176.73051916914912 -211.94483052952262 -36.50537974465238 61.169706336327181 47.911600996284477 -241.1087692946968 92.404343527818568 10.396177903684737 43.989326159704433 -124.68585769673294 -7.4427138091780485 -158.19911789898234 -91.17123036472951 79.439558495269438 140.21143629214384 80.614068873391645 -82.469834776631899 -160.15315113244179 -270.85131500240135 -16.992498635540553 22.432300418630781 -150.09665729944885 72.596954919721526 -34.025270357242128 -202.57747235372949 -34.63875979559657 169.84522838599707 -139.43508576133456 -39.533618001349993 174.43008755417705 65.205838444332173 114.0751680723111 91.729230074066749 131.84984619140624 173.3437501528596 24.659120164362552 -106.14106749512706 90.230667931973557 133.17213952346623 82.47059136594919 -176.95423565211277 5.7076461679967627 -67.23213290546822 150.47754196934505 6.7128302935402777 79.630303313256789 37.566090008789864 -39.336963223130482 26.07292784069984 136.71798900776955 1.9389574263901836 61.921308896214249 -15.257333617419233 136.82219800012996 8.0516327726620336 -139.7975968473053 -29.364511380670532 -73.773466584976617 57.163243995580537 -70.847732623317512 79.071266083091956
leaf_weight=28906269.728922844 1076420.5319824219 839658.63256835938 1243759.2705659866 1096292.9068603516 1680069.3465576172 972705.22436523438 1492756.9869728088 1391312.40234375 875021.05517578125 1109034.9527587891 545362.29418945312 983393.48919677734 1681761.5375976562 2108713.9495849609 4715032.8698196411 4566872.2703857422 716707.32421875 3740085.8549804688 5162841.1575927734 6005913.0987939835 707610.00254821777 1031628.1222763062 2595211.1939277649 700508.58422851562 1534931.5604248047 668993.36590576172 711066.69207763672 8274936.680639267 716649.47045898438 819149.8720703125 7329205.2744140625 1154449.26171875 1605309.2875976562 607134.44352722168 4995675.94921875 14734978.530281067 776396.77758789062 1067308.7367553711 978548.33520507812 1156098.0698242188 639835.65185546875 503231.11279296875 524839.07592773438 740397.97436523438 696415.51582717896 1683511.5776367188 1290374.017578125 664480.85986328125 780909.28149414062 2076952.876953125 725211.6640625 504836.5263671875 1187439.7309141159 899680.7353515625 2763287.5615234375 886736.21606445312 1832858.1446714401 448010.77563476562 345756.25634765625 3566600.2835693359 711428.27734375 546027.59912109375
leaf_count=11945 98 83 161 84 110 66 200 82 58 80 45 79 160 184 323 269 48 303 515 898 67 74 288 49 113 69 62 466 64 74 412 74 96 49 292 806 53 95 63 69 44 47 37 53 46 121 81 43 63 135 41 32 88 67 159 69 186 34 27 254 59 37
internal_value=4.14443e-05 0.00962412 -0.0159825 0.0142495 0.00172564 0.00598728 -0.00922714 -0.000835251 0.0171982 0.0120533 0.00526294 -0.0206743 -0.00454169 0.00200971 0.00383383 0.0111991 -0.00696697 -0.00448192 -0.00857542 -0.015726 -0.00185227 -0.0126167 -0.0213236 -0.00896952 0.000681728 -0.00752352 0.0147604 0.0196799 -6.93068e-06 0.000437861 0.0161165 0.0176015 0.00800221 -0.00461561 0.0167067 0.0201589 0.0176156 -0.0156246 -0.00277258 0.00537121 -0.00476838 0.00169567 -0.0096583 0.0118399 0.00329892 -0.00291943 0.00491988 0.0193212 0.00579734 0.0137672 0.00841634 -0.0117538 -0.00069611 -0.0105745 0.0153068 -0.0073108 -0.010722 0.00465558 -0.0197295 0.00682815 0.00738349 -0.000863794
internal_weight=1.47095e+08 9.20479e+07 5.50467e+07 5.80522e+07 3.39958e+07 1.52686e+07 2.25618e+07 8.58913e+06 4.27836e+07 1.39221e+07 2.4163e+07 3.24849e+07 1.31099e+07 1.56088e+07 1.36327e+07 8.55423e+06 9.83273e+06 7.19782e+06 9.11603e+06 9.45186e+06 1.05499e+07 6.19447e+06 3.15015e+07 4.94543e+06 3.66496e+06 3.10019e+06 6.67945e+06 2.88614e+07 2.92156e+06 8.8681e+06 1.02572e+07 9.14814e+06 8.35871e+06 4.03434e+06 5.96838e+06 2.79864e+07 1.32514e+07 2.56007e+06 5.274e+06 2.25239e+06 1.1852e+06 3.16529e+06 1.24149e+06 4.9765e+06 1.43681e+06 2.18674e+06 2.82531e+06 7.99369e+06 6.7534e+06 7.36904e+06 2.80216e+06 4.24492e+06 1.85643e+06 1.9761e+06 3.53968e+06 3.4272e+06 2.54047e+06 4.83376e+06 6.35167e+06 4.01461e+06 5.97249e+06 1.25746e+06
internal_count=20849 6106 14743 3566 2540 1039 2431 619 2527 886 1692 12312 1188 1158 993 534 848 537 800 1243 893 589 12233 384 277 318 420 1641 211 733 609 529 578 371 358 1583 777 295 415 153 89 231 101 311 99 168 194 455 482 445 176 335 157 165 212 322 253 362 925 288 419 96
is_linear=0
shrinkage=0.05


Tree=2
num_leaves=63
num_cat=0
split_feature=177 119 177 65 5 44 34 44 14 157 86 86 108 108 86 66 173 44 177 15 15 167 144 56 129 177 124 113 167 108 173 100 77 104 86 91 156 118 42 44 65 139 159 44 75 137 163 86 23 2 69 124 61 5 54 129 178 74 18 2 172 5
split_gain=8.84071e+06 1.16317e+06 790076 491130 430498 361627 346174 264116 249278 201915 221702 198909 151941 144567 139436 137964 129747 123350 111796 109137 107793 102953 99203.1 98880.7 95946.5 92140.1 89004.2 88337.8 86282.2 83538.7 78365.7 74066.6 73877.5 88522.3 72283.2 70907.4 70336.6 69260.1 68812.2 67118.7 66323.1 65784.9 65115.5 64842.4 63403.7 62987.4 62186.5 60895.7 60443.4 57234.8 81863.2 67246.8 56788.1 55080.9 53749.6 51772.9 50925 49695 73516.9 59966.3 55528.2 48834.5
threshold=10195.899801216712 16034.69681579702 6598.2580451207241 -0.22702889131374496 0.8977101403255705 2.5965162636400385 12.09404574835918 1.299550521482389 -0.93554497207091225 13.101453333333327 16.109374820108695 5.2538496511034163 4.4718009657480165e-12 1.6051920414962155e-12 15.806159208858881 2.5468854874464548 6761.5927597065474 1.08602453036748 16285.230990813843 -0.21188279292246501 -0.41386673706713223 0.72272375222801177 15.543986448120867 0.1755456247574729 17.308820291869019 4199.0229695556436 14.48908311882249 0.26562500000000006 0.5122046258126961 6.6492054106294622e-19 13331.284719677007 225.71997333333334 1.8367268926115468 22.57779249999999 14.69435204535618 19.608305000000033 0.66125806743971871 11.298327974492596 -0.4958380516248973 2.0677594784730844 -0.22702889131374496 23.090557635329365 -7.7778516666666624 1.385375858669825 27.081408903881798 15.45147156062499 -0.38654999999999967 13.552382505448586 -0.99197626664970018 -0.6830127018922193 2.6182800879207098 7.1846498892801094 12.304124173741164 0.83824865459667641 4.5307959789318373 12.9867400693285 1155.5373452055785 11.337522456333614 11.990987672006103 -1.0000000180025095e-35 9447.5121405433165 -0.94695267581281539
decision_type=2 2 2 2 2 2 2 2 2 2 2 2 2 2 2 2 2 2 2 2 2 2 2 2 2 2 2 2 2 2 2 2 2 2 2 2 2 2 2 2 2 2 2 2 2 2 2 2 2 2 2 2 2 2 2 2 2 2 2 2 2 2
left_child=2 5 14 9 6 8 12 20 17 18 29 -9 32 24 25 44 -13 22 26 -14 30 35 -2 -17 31 -1 54 43 36 52 38 -10 -5 41 37 57 45 -28 -4 -23 49 53 48 -6 -7 -19 -21 -44 -30 50 -27 -52 -11 -34 -3 -15 -31 -18 59 -59 -61 -12
right_child=1 3 7 4 27 15 -8 11 13 10 61 16 19 55 -16 23 21 28 -20 46 -22 39 -24 -25 -26 40 34 -29 42 56 -32 -33 33 -35 -36 -37 -38 -39 -40 -41 -42 -43 47 -45 -46 -47 -48 -49 -50 -51 51 -53 -54 -55 -56 -57 -58 58 -60 60 -62 -63
leaf_value=-467.52987892312103 -165.26040878278985 56.459057598205064 -168.95254027389251 -161.76108884541659 84.116418221898115 -35.237656117725685 133.652966381559 -241.23909875099781 52.619294909544728 7.2775475184579568 94.072817065432631 -142.08856945237909 98.73082061610809 33.40719465894837 -2.6216829285207153 129.93314191905577 69.793991277849202 0.43900710015326255 184.39798094938834 54.342999416932145 -238.99073223593243 -170.3115898919315 -14.488314398126173 25.653572592911189 77.885408894405828 -275.74678694865565 -93.358262683262808 -8.070567155468316 72.130026707188691 70.484587106161769 99.482521686829998 -99.077457664246552 -81.259536685263427 54.608753757072293 119.52766706458611 -132.8194011252813 -122.12576998639875 60.247428633171353 19.923092654173953 13.000461084752743 -359.83557013507817 34.526700652148222 -105.9865500890196 136.74847385814041 69.769811034630905 89.230029852037546 -49.714312586432115 -0.28759780182283545 -77.153882850787667 -253.25561257264596 47.138280116067918 -251.07935669271455 -105.24944724439106 -22.099692283407268 156.3114663446197 108.8994987526181 -46.910547238079609 36.145995139901999 108.22080495977455 -130.10866300266935 33.592839934532961 121.29771637710583
leaf_weight=18025303.390807152 2148111.5968856812 887546.15405273438 988759.32995605469 749929.19958496094 1238350.0458984375 1782555.2839355469 2044237.193359375 2038495.3341693878 909949.57470703125 623434.419921875 2852163.6682128906 4285751.8664913177 1036777.009765625 681127.95947265625 772245.85332012177 5459538.3900146484 3013167.5248413086 2341599.7250976562 15827959.321279526 1325244.6918945312 5353118.4706106186 2236828.6020812988 1187179.3904418945 2039348.6606445312 984174.51293945312 799118.40103912354 610865.93505859375 898914.19403076172 744939.4091796875 1083348.3818359375 585439.70642089844 1902845.3684082031 2321799.6579589844 1052093.4936523438 2173610.1456298828 563918.5283203125 737837.99633789062 1080340.04296875 398474.46496582031 1613061.5310058594 4011342.3714780807 518880.24926757812 4208952.4951171875 6572116.7996673584 1056577.0815429688 1401812.6508789062 1604745.2312011719 1634640.5674438477 668414.84606933594 7739163.4735803604 743724.50732421875 880343.50162029266 890033.80737304688 788502.44287109375 9545727.5970458984 2761045.7797851562 672276.50512695312 1062839.6186523438 559579.58311748505 1051992.2592391968 475751.1201171875 3002117.7006835938
leaf_count=9945 216 60 105 74 80 131 119 282 63 47 174 438 61 53 64 322 204 169 857 86 750 230 93 130 63 131 50 73 49 68 41 162 188 72 129 48 62 69 39 121 985 37 389 378 68 92 118 124 52 1148 58 121 73 58 546 170 51 82 40 98 34 172
internal_value=0.000212308 0.00980482 -0.0152253 0.0139718 0.00762681 0.00222382 0.00125094 -0.00836997 -0.00135796 0.0172295 0.0107128 -0.00493294 -0.00280519 0.00626809 -0.0202626 0.00995438 -0.00292413 -0.00502042 0.0192031 0.0046339 -0.0162995 4.95682e-05 -0.0135057 0.0135085 -0.000459476 -0.0207661 0.0159984 0.0160033 -0.0026094 0.000282375 -0.00630842 -0.00516094 -0.00823844 -0.00590441 0.00951676 0.00378131 0.00284575 0.0017647 -0.0127824 -0.00647123 -0.0177498 -0.00960642 -0.00597803 0.0177116 0.000567114 0.0056268 -0.000299507 -0.0083073 0.00365249 -0.015601 -0.00889508 -0.00244857 -0.00832616 -0.012356 0.0183994 0.0136891 0.00770352 0.00533404 0.000943041 -0.00260697 -0.008952 0.0165372
internal_weight=1.4925e+08 9.20517e+07 5.71984e+07 5.9401e+07 2.01516e+07 3.26507e+07 1.14422e+07 2.42272e+07 2.23126e+07 3.92494e+07 9.12337e+06 1.69014e+07 9.39797e+06 7.23914e+06 3.29712e+07 1.0338e+07 1.48629e+07 1.50735e+07 3.0126e+07 3.96677e+06 7.32579e+06 1.05771e+07 3.33529e+06 7.49889e+06 3.79697e+06 3.2199e+07 1.42981e+07 8.70938e+06 1.17382e+07 3.26909e+06 1.97267e+06 2.81279e+06 5.43121e+06 4.68128e+06 3.86482e+06 6.72725e+06 4.48125e+06 1.69121e+06 1.38723e+06 3.84989e+06 1.41737e+07 3.62918e+06 7.25695e+06 7.81047e+06 2.83913e+06 3.74341e+06 2.92999e+06 5.84359e+06 1.41335e+06 1.01623e+07 2.42319e+06 1.62407e+06 1.51347e+06 3.1103e+06 1.04333e+07 3.44217e+06 1.75562e+06 6.16333e+06 3.15016e+06 2.59058e+06 1.52774e+06 5.85428e+06
internal_count=21012 6048 14964 3640 1344 2408 813 2512 1757 2296 585 1577 694 511 12452 651 1295 1246 1711 265 935 857 309 452 288 12388 854 531 937 239 185 225 429 355 248 506 323 119 144 351 2443 283 614 458 199 261 204 513 101 1458 310 179 120 246 606 223 119 458 254 214 132 346
is_linear=0
shrinkage=0.05


Tree=3
num_leaves=63
num_cat=0
split_feature=123 169 136 65 65 65 52 55 59 45 73 8 155 97 160 119 86 86 45 108 103 96 162 15 24 164 160 72 162 90 61 52 86 78 65 73 140 107 35 167 106 73 60 45 2 140 144 128 107 141 15 97 149 93 59 52 149 157 52 103 12 59
split_gain=8.2228e+06 1.18734e+06 708750 565507 259754 257859 236891 231379 197675 183277 170902 162839 160264 149956 137947 125795 108722 102768 140486 100114 99680.7 92868.3 90214.6 89572.3 84558.8 112334 81875.7 79222.9 78166.7 78037.8 77361.5 73175.1 72627.2 69139.6 69105.1 68207.4 67495.2 74699.1 66475.8 66240.7 64296.2 94447.6 64605.2 62329.6 94800.4 69537.5 61738.5 56840.6 55123.5 51937.9 51755.6 51522.5 51350.3 50729.9 49807.9 67968.8 55889 47633.7 47481.2 59005.9 61580.6 45585
threshold=9918.7003106275606 6659.4026599128492 18.596054596552168 -0.22022295685446461 -0.26587011689533818 0.10700931547101732 3.2203587585609461 3.9791759282546617 18.8357872617322 8.4201827386894745 8.9627002236170039 10.376622121136757 7.7946136443689644 2.6362300000000123 20.843866666666688 15966.810170911818 16.789976937144615 17.541076830465123 6.4778022718723305 4.9858974919021659e-13 9875.0000000000018 1.0780393834011537 11.023581666666702 -0.40126632056091044 -0.23300198047786608 -8.4554166666666308 4.9889100000000051 13.348206673655795 19.267790000000051 2.366389778082111 13.659714856699935 2.4877709343065066 15.952883278395502 -0.96881765083984772 -0.33208034083013505 13.680131227332465 13.595989720691607 101545.35100000001 10.045248272197602 0.23321595141321036 5380.0155000000004 21.419692155574214 20.234098794424746 11.601482216750641 1.0000000180025095e-35 19.349663997582535 19.015825865776687 8.5935051911137634 102318.09466666669 -1.5479489780452791 0.024183844061352665 0.81716500000001713 8.4827137803936861 76.648065833333348 11.125516204517494 3.7353141842825446 3.728417885831238 13.834250000000027 2.9641819984952327 7000.0040000000008 0.25964295893910166 13.145186998750324
decision_type=2 2 2 2 2 2 2 2 2 2 2 2 2 2 2 2 2 2 2 2 2 2 2 2 2 2 2 2 2 2 2 2 2 2 2 2 2 2 2 2 2 2 2 2 2 2 2 2 2 2 2 2 2 2 2 2 2 2 2 2 2 2
left_child=1 10 3 6 7 8 24 30 11 15 31 -4 35 -11 17 21 26 18 36 43 -18 -8 52 29 28 -26 27 49 61 -20 -3 -1 34 -27 -12 -6 37 -9 -25 -32 41 42 -10 -13 45 -45 -21 -39 -38 -5 -22 -37 -15 -24 56 -56 -23 -42 -40 60 -60 -2
right_child=2 4 5 16 12 -7 9 14 40 13 32 19 -14 22 -16 -17 20 -19 23 46 50 54 53 38 25 33 -28 -29 -30 -31 39 -33 -34 -35 -36 51 48 47 58 -41 57 -43 -44 44 -46 -47 -48 -49 -50 -51 -52 -53 -54 -55 55 -57 -58 -59 59 -61 -62 -63
leaf_value=-467.55525082091003 2.9912329224954619 -184.26018763937657 181.67946419220758 -102.7387247600809 -263.16593273779375 -42.386962875822462 -52.332504132554902 -50.520788011940169 77.92461041839438 104.2267717248735 -155.3996558187979 115.8470426113805 45.680190605795126 77.312323795787506 -156.80661398671444 167.64573723552178 99.832061221464301 84.641362332525318 -112.40022419073307 14.452793335060091 -1.024152816980773 72.775067220224116 -94.376797862426812 -182.74466097247679 56.646272196228317 -92.447328513441903 -170.44705351669541 -105.89620732458577 -86.373848025948917 82.376750682030604 7.0874560859849129 -273.9544887345678 0.41491304298554471 14.920021943663333 -255.76262468936517 15.512882967456285 66.525640003167027 -24.251082743470995 -123.68127688614419 -143.33488571820075 167.44021800448002 114.88301181457824 -29.655781340371313 -29.245900578571096 -46.156277091611969 127.33297990825129 128.15687642470076 47.101938125374637 -63.292094370228895 7.6044166998696561 -59.858184927013376 -159.49549809562299 -33.756615124646594 12.645069243062093 14.507619967206205 105.77164971760152 177.9428674042625 99.969536756748383 74.031206397103034 -167.15120617777109 -54.50310179995563 95.693034874376508
leaf_weight=15974543.338358879 1580013.2153320312 1626902.7825622559 3753854.7901611328 536843.49462890625 4476260.5937242508 1484426.2053222656 698425.89697265625 2139751.9016113281 647515.57421875 4605083.9295043945 5091957.2340250015 872967.27880859375 913782.322265625 2905981.0641479492 1320037.9616699219 7770722.0868530273 1200080.5224609375 1144527.5383300781 630651.53942871094 981079.39166259766 1495056.6281738281 1738052.1513671875 1233461.4956054688 1496575.2626800537 1489705.275390625 1951354.802734375 1416998.9710693359 1346881.5834960938 599845.00732421875 1532371.580078125 1272121.5086364746 8851033.1929159164 643306.80108642578 1186962.439453125 3562319.189909935 558220.03979492188 2803379.4232053757 1364208.4423828125 1216959.0322875977 4065058.5453796387 14819978.471853256 2307365.4315185547 809951.3046875 916776.19140625 2372782.2841796875 1271774.4035644531 3264464.8990325928 2569148.5791015625 600842.96789550781 3286217.4887695312 628380.81640625 834263.87133789062 628395.28466796875 630405.66357421875 1583701.3256835938 1116845.0546875 1858168.6759033203 4115983.34765625 824761.5732421875 536886.88397979736 688316.14501953125 2815817.7631835938
leaf_count=9269 115 191 206 45 688 109 53 172 38 293 574 51 69 191 133 430 71 70 63 68 102 107 105 168 95 169 148 110 47 114 106 2144 50 87 545 46 185 112 114 474 806 140 56 64 180 74 201 172 44 254 49 78 44 45 108 66 102 244 60 53 52 174
internal_value=0.000374651 -0.0126539 0.0109884 0.0067029 -0.00583229 0.0160354 0.00973527 -0.00354587 0.0168744 0.0123218 -0.019174 0.012067 -0.0145405 0.00709637 -0.000671037 0.0158619 -0.00382056 0.000501518 -0.000509177 0.00863889 0.00355212 0.0109978 0.00144216 -0.0059217 0.00307803 -0.0017914 -0.00754053 -0.00462211 0.00758909 0.00251615 -0.0113349 -0.0213395 -0.0133919 -0.00715838 -0.0145968 -0.0175733 0.00344657 0.000287448 -0.00975318 -0.00842538 0.0197193 0.0137515 0.00378705 0.00414442 0.00180182 0.00930732 0.0143918 0.00437744 0.00908243 -0.000948337 -0.00295759 -0.00790886 0.00613606 -0.00745868 0.0129165 0.00778482 0.0167701 0.0209058 -0.0057554 -0.00111104 0.00394203 0.00989947
internal_weight=1.48661e+08 6.67382e+07 8.19223e+07 4.43034e+07 3.2615e+07 3.76189e+07 3.43929e+07 2.58325e+07 3.61345e+07 2.47692e+07 3.41232e+07 1.34337e+07 6.78253e+06 1.00033e+07 1.88684e+07 1.47659e+07 9.91046e+06 1.75484e+07 1.64039e+07 9.67984e+06 3.32352e+06 6.99519e+06 5.39824e+06 6.92652e+06 9.6237e+06 4.62802e+06 6.58694e+06 5.16994e+06 4.99568e+06 2.16302e+06 6.96408e+06 2.48256e+07 9.29758e+06 3.13832e+06 8.65428e+06 5.86874e+06 9.47733e+06 6.07311e+06 4.7635e+06 5.33718e+06 2.27008e+07 3.76483e+06 1.45747e+06 5.4343e+06 4.56133e+06 2.18855e+06 4.24554e+06 3.93336e+06 3.40422e+06 3.82306e+06 2.12344e+06 1.39248e+06 3.53438e+06 1.86387e+06 6.29677e+06 2.70055e+06 3.59622e+06 1.8936e+07 3.26692e+06 2.04996e+06 1.51308e+06 4.39583e+06
internal_count=20993 15746 5247 3010 3164 2237 2231 2283 2128 1544 12582 844 881 678 1512 866 779 1379 1309 638 222 436 385 624 687 351 557 409 336 177 771 11413 1169 256 1119 812 685 456 447 580 1284 234 94 369 318 138 269 284 229 299 151 124 235 150 383 174 209 1050 279 165 112 289
is_linear=0
shrinkage=0.05


Tree=4
num_leaves=63
num_cat=0
split_feature=177 120 171 15 44 97 44 100 34 86 78 4 73 73 44 73 4 140 151 44 93 64 106 23 67 44 59 39 107 66 33 2 52 52 119 60 27 74 60 33 175 52 107 140 113 138 44 163 2 95 95 15 64 87 138 132 95 83 44 94 177 83
split_gain=7.57785e+06 923375 907876 488616 424498 293902 285964 234497 215296 213286 202004 178853 176060 163187 163055 157440 128560 116388 112099 109480 93823.9 91675.9 88754.8 88494.1 87596.5 80209.1 76805.6 74996.6 74782.7 73403.4 71066 78134.2 106834 70986.8 67123.7 65416.2 64805.8 70362 63652.9 78095.1 60297.9 58118.1 57239.4 57193.5 56544.8 55359.6 54190.9 50040.8 48959.9 61672.7 48818.8 47988.7 47220.2 47070.2 46736 51189 46342.2 48647.8 45549.5 45458.7 44438.9 44416.1
threshold=10585.998161936164 16426.520755407593 6761.3241647068389 -0.14144828228741022 2.6806003271962635 3.9504900000000309 2.1007265900975489 280.04307833333343 12.09404574835918 5.8896471280258895 -0.97853878671602013 0.42109697129093554 8.5634696321385917 19.311980671419363 3.1080894168756723 14.365415357809928 0.79877197597864635 15.2434118938961 3.582589455226096 1.1563806316427319 80.735966500000018 -0.90179616403822371 5470.0773750000008 -0.95138614567981195 3.2575800796445451 1.0330945259945585 19.056887637159637 0.27788166790640062 101697.12433333336 2.7258115018631908 -0.2974784955031391 -0.5 2.9893169158187582 2.3518695137293193 4425.0808967465555 13.938366684039101 19.73579235543847 19.54919462485406 5.4954236043452624 -0.25385521829192276 13367.975465328409 2.9641819984952327 101752.81833333334 13.982645805623221 0.078125000000000014 14.518687765236718 1.8071559250110072 -0.78375500000004183 1.0000000180025095e-35 90198.570000000022 89707.795833333352 -0.29962305166345643 -0.97099611018699361 36.042999864507408 15.140034430015477 0.51908329741983572 90164.442333333354 4.6282033007748131 2.4198264205649784 0.015484347250000001 9148.8446831488382 6.5235882388526489
decision_type=2 2 2 2 2 2 2 2 2 2 2 2 2 2 2 2 2 2 2 2 2 2 2 2 2 2 2 2 2 2 2 2 2 2 2 2 2 2 2 2 2 2 2 2 2 2 2 2 2 2 2 2 2 2 2 2 2 2 2 2 2 2
left_child=2 4 12 13 5 10 15 18 11 -8 54 22 33 14 20 19 -13 28 -7 -4 21 27 44 -17 -6 -14 -9 48 38 -22 43 32 -32 -1 -27 -19 37 -24 -12 59 61 -20 -26 -21 46 -41 -5 -18 -3 -50 -49 -42 -36 -44 -2 -56 57 -11 -35 -40 -59 -37
right_child=1 3 6 8 24 7 9 26 -10 56 17 16 25 -15 -16 23 47 35 41 30 29 -23 36 -25 42 34 -28 -29 -30 -31 31 -33 -34 58 52 40 -38 -39 39 45 51 -43 53 -45 -46 -47 -48 50 49 -51 -52 -53 -54 -55 55 -57 -58 60 -60 -61 -62 -63
leaf_value=-454.62928080180166 -81.756483418347869 97.108729784942696 -205.42478340722062 81.453572405574263 5.6936190021326247 -106.72941504780903 -162.81191792851746 -133.09956315334176 112.76004651997744 -101.40367679243298 78.512001636477237 -74.109259977276835 -262.48993891795408 151.10440100094169 182.0134760429971 -177.29160602873031 120.1473752789751 109.24388391421051 -56.945930287731805 -81.366820048266447 -10.517032194805012 109.41904566616734 32.461559649097651 49.312946668493908 66.309224868279173 -253.28348839180819 2.6865708153620873 -54.457049668400401 78.626801942201482 109.91034526163767 -205.55520562117982 -136.45668801433064 100.40753375309335 -303.89993482971391 -257.57469774248767 86.596001644686808 71.487073502876015 -105.71917081607188 53.459815264286185 -159.8883776935418 123.48785814915129 44.943139291569373 155.28470934899153 76.201929960725124 -7.5664444125958106 -11.627431572143998 108.04569311550887 -58.54714235863527 -100.71382017479141 49.668285984316498 27.730572731126035 7.4777486777096236 -86.806347108889085 56.019730626880438 -68.25323929494067 24.604295345407404 49.079292391439196 78.229119502428247 -126.26202370670299 -33.83919155528028 -33.188671642200596 -34.91582849277804
leaf_weight=14415226.883807182 1929385.2680664062 966833.173828125 5830619.6435070038 1813289.49609375 1740265.0161132812 904800.69470214844 1370774.7145690918 4791224.7758789062 2203389.7836914062 549223.95654296875 432274.859375 2119590.2568359375 3491840.2188444138 15619863.458280563 6662959.8875732422 822751.1982421875 516305.80517578125 2576568.1994628906 953353.51782226562 715275.4774017334 815071.26098632812 1547716.9833984375 581766.0654296875 2290313.3729124069 3852912.9638671875 1640165.50025177 598716.884765625 870566.39904785156 780200.58837890625 6605541.1431388855 1067771.5580749512 4428503.2437772751 953165.49163818359 8969124.8564414978 495218.52407073975 495840.44580078125 603287.2470703125 714046.103515625 897178.60888671875 928679.36694335938 2611655.8120117188 4424410.1610107422 6420918.9663085938 647240.77745056152 989901.91644287109 633659.87353515625 2122641.9724121094 514628.08325195312 577875.47045898438 813031.953125 703719.412109375 798800.2099609375 4504348.0448627472 702345.41259765625 511952.40112304688 1693606.8653564453 4786871.3820800781 785956.9287109375 995209.89064025879 599830.54174804688 864535.26611328125 1359580.2315673828
leaf_count=8711 162 57 812 114 122 83 152 466 132 45 26 164 537 856 360 77 31 157 73 74 59 92 39 174 240 237 39 65 49 401 126 510 79 2505 70 33 37 58 57 88 155 299 364 49 72 47 124 43 46 52 49 55 464 46 44 122 336 54 101 46 65 107
internal_value=0.000398053 0.00972272 -0.0133644 0.014467 0.00419348 0.000744804 -0.00613164 -0.00530769 0.00615858 0.00142315 0.00509257 0.00322253 -0.0186275 0.0175713 0.0144408 -0.00989981 -0.00538797 0.00834959 0.00125649 -0.012215 0.0110046 0.00553828 0.00808514 0.000246352 0.0117658 -0.0130877 -0.012959 0.000741793 0.00170919 0.0145228 -0.00834543 -0.0105374 -0.00239068 -0.0209297 -0.00986143 0.0119667 -0.00109782 -0.00740004 -0.00141799 -0.00395564 0.00877237 0.00399603 0.0134182 0.00203012 0.0116255 -0.0117754 0.0143121 0.00470626 0.0053726 -0.00063456 -0.000822075 0.0127188 -0.00698197 0.0160737 -0.00444962 0.000522148 0.00496123 -0.00104592 -0.0176845 0.00420535 0.00324338 0.00151848
internal_weight=1.47624e+08 8.80002e+07 5.96241e+07 4.7362e+07 4.06382e+07 2.79217e+07 2.5113e+07 1.16725e+07 1.28826e+07 8.35736e+06 1.62492e+07 1.06792e+07 3.45111e+07 3.44795e+07 1.88596e+07 1.67556e+07 3.85424e+06 1.21143e+07 6.28256e+06 1.36426e+07 1.21966e+07 4.77602e+06 6.82493e+06 3.11306e+06 1.27164e+07 1.01316e+07 5.38994e+06 3.22831e+06 4.27182e+06 7.42061e+06 7.81196e+06 6.44944e+06 2.02094e+06 2.43796e+07 6.63973e+06 7.84244e+06 1.8991e+06 1.29581e+06 3.49162e+06 3.05935e+06 5.26588e+06 5.37776e+06 1.09762e+07 1.36252e+06 4.92583e+06 1.56234e+06 3.93593e+06 1.73465e+06 2.35774e+06 1.39091e+06 1.21835e+06 3.41046e+06 4.99957e+06 7.12326e+06 4.13494e+06 2.20556e+06 6.98659e+06 2.19972e+06 9.96433e+06 1.49701e+06 1.65049e+06 1.85542e+06
internal_count=20909 5731 15178 2851 2880 2108 2553 960 863 652 1148 731 12625 1988 1132 1901 287 820 455 1650 772 312 444 251 772 1308 505 220 313 460 838 715 205 11317 771 507 134 97 264 238 350 372 650 123 310 135 238 123 155 98 92 210 534 410 328 166 500 164 2606 103 119 140
is_linear=0
shrinkage=0.05


Tree=5
num_leaves=63
num_cat=0
split_feature=171 171 175 100 93 170 100 33 0 86 100 86 86 67 64 56 95 140 86 139 27 86 15 4 167 4 103 83 147 95 54 33 4 170 71 129 97 151 57 100 148 55 174 173 124 133 165 164 74 95 173 171 74 86 32 142 30 130 107 162 0 107
split_gain=7.17701e+06 1.01695e+06 757349 557519 385967 311305 267718 256690 190684 190318 162960 156829 139122 126531 116445 98790.8 96909.4 94836.5 93932.8 91203.7 91188.1 78323.1 78191.1 77428.7 72946.3 69393.5 69267.2 68046.1 72896 67957.8 67214.1 66551.7 65660.4 65376.2 62550 69281.4 61794.6 61266.3 59964.5 59290.6 58623.9 64869.5 56897.4 55358.3 59110.9 54543.1 60662 54427.6 65651.5 77039.8 54204.7 51848 50543.7 52800.8 50828.3 57883.3 49782.7 48967.6 47808.9 56712.4 83816.9 46544.1
threshold=9908.9875471830819 16377.429064054069 6855.407839786315 253.65405333333337 78.018069166666677 11920.376775273036 202.40388166666668 0.054561217744026128 -0.78656609248549303 17.942249549695855 549.46621500000003 6.716197598562557 16.109374820108695 3.037893201303421 -0.96269084144270034 0.18307883429922958 90357.033666666699 13.301103207693338 15.952883278395502 18.303245559603571 12.478021924963244 11.241819046325045 0.26011296831901626 0.34156760613242348 0.43505780902392471 0.79877197597864635 17375.000000000004 9.0029941294015163 5.6325910871221092 89901.795000000027 4.456803826443271 -0.21509728811091047 0.83354805289222267 16203.477318730133 10.804558500000001 15.340590432996054 1.1501366666666686 3.6612047693170635 13.325140000000001 159.64165833333337 4.0255565291167867 2.5417861543591314 -280.01861021734379 14641.83948531534 16.121861287341428 15.493018332906482 0.66444487543793274 10.774876666666684 16.814181778193433 90623.32166666667 10642.175373078209 17918.421427071789 10.450452117344325 9.7802363048539736 -0.90293710953158157 9.9566906510400823 0.27784618592541627 1.766768814729365 99511.947666666689 -6.0850483333333321 -0.60355339059327362 101932.52100000002
decision_type=2 2 2 2 2 2 2 2 2 2 2 2 2 2 2 2 2 2 2 2 2 2 2 2 2 2 2 2 2 2 2 2 2 2 2 2 2 2 2 2 2 2 2 2 2 2 2 2 2 2 2 2 2 2 2 2 2 2 2 2 2 2
left_child=2 3 11 5 19 8 13 9 -2 10 16 -1 20 32 27 39 33 29 22 57 -6 -8 40 51 -19 -25 -12 28 -7 -10 -16 -26 -4 45 50 -36 42 -31 -28 -15 41 -13 -23 -21 -45 -3 -47 48 -32 -50 -22 -9 54 -54 55 -43 -34 -5 -11 60 -60 -52
right_child=1 7 6 4 12 14 21 23 17 58 26 18 -14 15 30 -17 -18 24 -20 43 34 36 -24 25 31 -27 38 -29 -30 37 47 -33 56 -35 35 -37 -38 -39 -40 -41 -42 52 -44 44 -46 46 -48 -49 49 -51 61 -53 53 -55 -56 -57 -58 -59 59 -61 -62 -63
leaf_value=-404.38785278927116 -130.32869843557745 127.96804724895097 -159.20481391305293 -128.76371092045173 -135.47053650235094 0.14510242497322423 -213.66059969784098 -7.2207765012099543 -113.07214447578212 -68.316118423127662 50.906826040056181 -273.98011607893892 73.780877353927906 -74.77027623210644 40.461546373874114 -74.792151827015715 151.71694505095465 87.392207487016634 9.2780473773957333 -77.979142267124473 -46.202646773964773 17.073811046558621 -299.81184567245572 -90.37344678829696 116.61323346553766 -20.283648155275024 -104.85570802103769 -61.427433837113341 96.338833789546527 39.665882153313085 161.67597358360032 -4.1733203132043339 -228.07042479494123 120.54964923613812 -121.95641820415122 -0.89130593630678456 -125.28636407069835 -72.926134279548336 2.6188274949267587 47.708927929466775 -264.25699460421191 40.280105418842432 -110.11498941811857 77.661757879649286 -44.811084259245916 -43.644537131963972 46.192361385994118 37.336583983482676 121.91109065516153 -29.28513403028218 38.00925054115168 104.48772576307908 -212.95656353786867 -99.816151279218985 -205.4651257217408 -162.41251711806609 39.75560967998932 -18.816669857182749 40.714978319642952 141.86562331088621 120.45439026980671 75.88316570199035
leaf_weight=18228828.94601059 1725396.8863525391 1752862.4156951904 2788959.6661987305 5701651.6307067871 1251193.3335142136 1819132.6096191406 4732851.4659461975 1150428.5034179688 606179.87120342255 440649.0341796875 1237091.7504882812 2450550.7066726685 6478583.5551757812 1326719.9322509766 1928893.5197753906 2232171.4738464355 3828340.0389404297 4725128.16015625 609491.93615722656 1556091.1575927734 1400337.4111328125 1407699.1640625 3276859.8349475861 663425.05151367188 1135560.3791351318 527789.55639648438 635771.49267578125 597024.69287109375 977969.80517578125 1209553.8986816406 7314886.7285766602 3239761.8306884766 452624.52392578125 4272865.178440094 605254.23510742188 648759.41235351562 2063053.7750854492 549556.61108398438 621481.8916015625 4598213.9364013672 2961259.2681484222 1229137.0115356445 1099113.2250976562 566926.86059570312 740860.80615234375 873213.15801239014 723664.10205078125 2210867.2458496094 3667726.6830444336 699828.8212890625 4121609.5008544922 1107675.4155273438 1855738.861489296 1997622.4482727051 533704.98712158203 480972.314453125 509305.64001464844 685741.70721435547 1295161.3305053711 12734984.119628906 4132919.6837158203 865055.93188476562
leaf_count=10095 165 111 308 564 126 126 696 77 54 29 81 505 411 109 132 196 207 300 48 126 121 103 704 55 74 37 52 44 57 87 404 251 47 261 52 46 196 48 39 319 477 112 105 36 55 63 49 146 222 49 305 66 292 206 83 52 44 66 86 688 241 60
internal_value=0.000215056 0.00867241 -0.0141329 0.00451901 -0.00115265 0.00882814 -0.00673452 0.0152523 0.00291341 0.0166268 0.0122108 -0.0188 0.00370398 -0.00176955 0.0128883 0.00172547 0.0147335 0.00524541 -0.0150842 -0.00922185 -0.000356284 -0.01309 -0.0158772 0.00228248 0.0075637 -0.00803161 0.000629994 0.00448473 0.0077555 -0.0036742 0.014691 0.00291167 -0.00937019 0.0114737 0.00169262 -0.0085169 -0.008421 0.0013009 -0.00763505 0.00510287 -0.013937 -0.0118366 -0.00314642 -0.00180772 0.00577514 0.00624393 -0.00044063 0.0159053 0.0172667 0.012416 0.00369714 0.00772347 -0.00907521 -0.0125491 -0.00310945 0.0010946 0.0018941 -0.0125461 0.019937 0.0203318 0.0160523 0.00613804
internal_weight=1.47863e+08 9.30279e+07 5.48349e+07 5.70295e+07 2.46221e+07 3.24075e+07 2.12107e+07 3.59983e+07 1.31911e+07 3.2549e+07 1.39453e+07 3.36242e+07 1.53708e+07 1.1908e+07 1.92163e+07 8.15711e+06 1.14509e+07 1.14657e+07 1.53953e+07 9.25127e+06 8.89221e+06 9.30272e+06 1.47858e+07 3.44932e+06 9.10045e+06 1.19121e+06 2.49435e+06 3.39413e+06 2.7971e+06 2.36529e+06 1.58222e+07 4.37532e+06 3.75089e+06 7.6226e+06 7.64102e+06 1.25401e+06 4.56987e+06 1.75911e+06 1.25725e+06 5.92493e+06 1.1509e+07 8.54773e+06 2.50681e+06 2.86388e+06 1.30779e+06 3.34974e+06 1.59688e+06 1.38933e+07 1.16824e+07 4.36756e+06 6.387e+06 2.2581e+06 6.09718e+06 3.85336e+06 2.24381e+06 1.71011e+06 961930 6.38739e+06 1.86037e+07 1.81631e+07 5.42808e+06 4.98667e+06
internal_count=20966 6269 14697 4127 1968 2159 2123 2142 979 1907 863 12574 1121 1023 1180 624 691 814 2479 847 710 1100 2431 235 625 92 172 227 183 189 953 325 399 484 584 98 404 135 91 428 1727 1250 208 217 91 223 112 821 675 271 486 143 745 498 247 164 91 630 1044 1015 327 365
is_linear=0
shrinkage=0.05


Tree=6
num_leaves=63
num_cat=0
split_feature=177 177 73 44 97 44 24 2 140 166 1 73 68 177 64 48 23 48 73 4 4 15 74 33 103 144 140 94 24 73 104 170 94 44 162 2 75 44 44 147 24 104 94 121 106 22 54 129 82 64 107 148 106 87 14 34 107 140 73 4 60 94
split_gain=7.17851e+06 904540 753273 803731 261417 234870 176614 173758 173740 169878 162000 155479 135895 118212 127362 113011 106535 95332.3 92557.5 101702 91797.8 90193.5 89071.9 88442.6 87204.2 87113.6 85437.3 84658.4 80581.4 79777.6 77975.8 96875 134697 74569.7 105808 71482.9 70836.9 69167 68311 65117.3 60855.3 60094.6 59110.8 59107.5 68688.2 59045.8 55550.6 55502 53074.9 52437.6 52380.9 52115.4 51669.9 87317.1 55664 51590.3 73569.2 50746.5 48907.4 48661.1 51387 60223.4
threshold=10825.006123339886 6598.2580451207241 19.122804298999331 2.2884352746203436 3.1398349999999771 1.982841070988911 -0.1088939196555844 1.0000000180025095e-35 15.339385834494085 13.416799000000022 0.25881904510252057 11.729640145383909 2.5948796200993711 15015.628327462668 -0.93388685571447738 10.434216936067537 -0.67626059280742878 9.4056339438111447 4.6680412211250486 0.37371625404731906 -0.5123666674339783 -0.29118003023939665 16.680938303380923 -0.20841823917042415 325.00000000000006 15.770839967694132 15.339385834494085 0.012238317166666667 -0.39228441355797189 12.184558814238786 22.800157499999958 13744.603482101144 0.0061558899166666674 1.6896958556083501 -7.4219249999999866 -0.5 13.281226361039396 0.92408078751502154 1.1491236963338953 3.456995919436658 0.036817793908439693 16.232152500000002 0.0087989070000000016 9.8214050120212395 5501.7340750000012 1.1550246027501492 3.9319849670063909 10.610972860603203 3.7681904868275891 -0.96851689372244665 101111.48000000003 4.1748722232635318 5772.8992250000001 16.015139533620314 -0.92179236173038537 4.3643887833613855 101867.92150000001 14.7466590594914 15.302316607947555 -0.09025077427732299 17.519017436562685 0.0012207054500000003
decision_type=2 2 2 2 2 2 2 2 2 2 2 2 2 2 2 2 2 2 2 2 2 2 2 2 2 2 2 2 2 2 2 2 2 2 2 2 2 2 2 2 2 2 2 2 2 2 2 2 2 2 2 2 2 2 2 2 2 2 2 2 2 2
left_child=1 11 3 4 8 10 25 17 41 13 28 16 -7 14 24 40 18 20 -1 38 -6 29 -15 46 -5 -4 50 42 37 -9 -23 -32 -33 34 -27 48 -37 -3 -20 -16 -8 -2 -11 44 -10 -22 -12 -13 -25 -24 -14 -39 54 -54 -46 56 -40 -29 -51 -41 -61 -62
right_child=2 5 6 9 7 12 15 21 43 27 23 47 26 22 39 -17 -18 -19 19 -21 45 30 49 35 -26 33 -28 57 -30 -31 31 32 -34 -35 -36 36 -38 51 55 59 -42 -43 -44 -45 52 -47 -48 -49 -50 58 -52 -53 53 -55 -56 -57 -58 -59 -60 60 61 -63
leaf_value=-361.21836218848966 69.592954589700867 -129.05129054970857 34.617259482670406 -71.312064269228699 -119.30258921378002 -239.73102533442631 62.704374839882519 -133.10177285098908 -47.9950224144157 20.953572297898212 -101.27890476091432 -155.10625653839253 -72.157421692142449 164.86276158601038 55.339690021345838 93.958404756206377 -416.59939730165354 73.075538633952291 -261.65225400378785 -293.21917005439127 64.255992293442702 -145.51019077951116 14.970311153766279 -98.270277001532065 38.642690826381653 -34.053666356668316 88.394884130324556 -64.534448665122795 -212.82570627952174 20.670878239422677 -140.39195960930277 36.022537475919215 -145.09327404199044 150.79035484019258 105.67899341665451 -28.88784294450096 -159.59972001766863 -99.388462179513084 -127.850966768269 145.46075129843243 -30.928940285217152 -41.220372498142282 -83.065536283625676 84.956342036070453 49.41800006773326 -23.753676576019412 60.712136118313744 -29.32263297566703 74.27360728064302 37.328913150403174 4.4259402472534166 31.893849359257167 59.883263687027096 -35.144985009583287 110.05725983197907 -149.30261049327859 105.83001053290971 58.907363580789301 118.11933801759228 105.65267164008942 114.69578617611067 -40.672615257522544
leaf_weight=7608373.0961780548 507338.6494140625 752951.99829101562 997234.7421875 789861.97680664062 1550363.7452011108 1176013.8410949707 2816540.9000854492 610388.65252685547 1224436.4790039062 561922.611328125 696270.88244628906 2195232.5659484863 2035255.5843505859 7655523.044921875 2753076.5721435547 2205081.9762573242 10204278.473027229 1076304.8200683594 2539050.7617588043 4575347.6935110092 2368472.2731933594 2875550.5881347656 1146349.8924407959 868787.42539978027 2647220.7309570312 686811.97979736328 1265931.2814941406 479685.09350585938 7289851.0154304504 1400626.6735839844 1318880.9016113281 1747308.5598144531 634773.5361328125 12020272.698759079 6625023.0583496094 1066903.7694091797 2126026.3669166565 555443.11791992188 876583.06871795654 3056860.7473144531 1318721.80859375 3852363.3436279297 688822.359375 4504391.4118652344 1660269.2847290039 1770652.1076660156 1511573.5556640625 1572448.991399765 471470.0205078125 745836.123046875 8314406.6672210693 691006.2919921875 1441629.7322998047 1040927.9389648438 1275361.2724609375 2841634.4705810547 636812.85016155243 1166800.80078125 2102856.3741950989 4637018.5833129883 646141.57641601562 578020.1083984375
leaf_count=3394 33 79 64 62 137 151 175 61 94 41 69 239 176 412 182 134 6690 65 508 942 162 278 81 82 174 48 87 38 1028 93 126 122 62 642 377 86 236 52 127 167 94 308 52 275 116 130 106 162 33 46 642 55 95 81 74 370 67 73 124 270 40 40
internal_value=0.000499862 -0.0125254 0.0097433 0.006658 0.0010093 -0.0060516 0.0167441 -0.00361555 0.0055884 0.012536 -0.0100835 -0.0181711 -0.00099881 0.0137812 0.0108629 0.00945831 -0.0194012 0.00237706 -0.0171956 -0.014359 -0.000204384 -0.0083369 0.0175657 -0.00418311 0.00240338 0.0190164 0.000641003 0.00103535 -0.0143654 0.000929561 -0.0111705 -0.00637141 -0.000352155 0.0197598 0.0157782 -0.00817997 -0.0122479 -0.00547323 -0.0105234 0.0133542 0.00458376 -0.00287433 -0.00877101 0.00889826 0.00590006 0.00368259 0.00402334 -0.00861049 0.00151105 0.0115137 -0.000858734 0.00175474 0.00831709 0.00300748 0.0128072 -0.00672308 0.000733959 0.00848471 0.0151476 0.0154293 0.012762 0.00365016
internal_weight=1.49057e+08 6.18717e+07 8.71857e+07 6.0516e+07 3.086e+07 2.88219e+07 2.66697e+07 1.53533e+07 1.55067e+07 2.9656e+07 1.60303e+07 3.30498e+07 1.27916e+07 2.67588e+07 1.51082e+07 6.34034e+06 2.92821e+07 6.76579e+06 1.90778e+07 1.14694e+07 5.68949e+06 8.58753e+06 1.16506e+07 6.74103e+06 3.43708e+06 2.03293e+07 1.16156e+07 2.89723e+06 9.28925e+06 2.01102e+06 6.57651e+06 3.70096e+06 2.38208e+06 1.93321e+07 7.31184e+06 4.53319e+06 3.19293e+06 1.9994e+06 6.89408e+06 1.16711e+07 4.13526e+06 4.3597e+06 1.25074e+06 1.1147e+07 6.64262e+06 4.13912e+06 2.20784e+06 3.76768e+06 1.34026e+06 3.99504e+06 1.03497e+07 1.24645e+06 5.41819e+06 2.48256e+06 2.93563e+06 4.35503e+06 1.5134e+06 1.64649e+06 2.84869e+06 8.91804e+06 5.86118e+06 1.22416e+06
internal_count=21029 15381 5648 4114 2312 2882 1534 1236 1076 1802 1826 12499 1056 1598 935 403 12098 494 5408 2014 429 742 663 612 236 1131 905 204 1214 154 588 310 184 1067 425 437 322 186 1072 699 269 341 93 735 460 292 175 401 115 251 818 107 366 176 190 564 194 111 170 517 350 80
is_linear=0
shrinkage=0.05


Tree=7
num_leaves=63
num_cat=0
split_feature=177 138 177 44 24 73 100 73 97 177 44 5 65 59 171 66 73 64 167 94 5 92 110 90 159 66 92 86 44 61 33 1 151 156 63 177 64 66 33 107 113 65 108 74 87 163 68 58 34 105 4 82 97 44 32 94 107 106 44 87 134 5
split_gain=6.55215e+06 1.01674e+06 613507 582931 242734 224219 220573 193464 186113 184274 157271 156898 159052 150366 125566 120252 119937 115073 110992 108215 98812 95914.4 94342.4 93011.5 84260.3 76093 76069.1 69785.9 67445.7 88402.7 65696.5 65388.3 87044.7 61237.2 59134.7 58762.8 58267.4 64462.6 72064.4 58181.9 57435.8 56274.3 64041.3 60062.2 55364.6 55262.6 60953.5 55135 52679.4 52125.6 87479.8 60104.5 51763.7 64986.1 51103.9 94543.1 52729.9 50400 59324.8 53432.4 49593.3 49298.4
threshold=9918.6631037227362 18.172149732069219 6697.3854810238927 2.5965162636400385 -0.026981075097931118 19.122804298999331 305.05230333333338 10.150768865343048 4.0563616666667039 12595.82249321883 2.2651852581173242 0.84750952922804634 -0.40645076655660223 16.432423624869987 12088.110673657355 2.1376421770360392 23.363211169129858 -0.67322213913229711 0.79708735873623915 0.0021955762333333339 -0.65187484896379921 10.632098333333348 2.6643880333333336 1.7174365967922249 -11.856463333333293 2.5881200545731655 -8.4683166666666221 5.4389433896531161 1.6563467824438485 21.866619317440492 -0.013084375055076154 0.25881904510252057 6.2278716962568375 0.2358483449727152 2.03940379199349 7788.1039016367222 -0.97099611018699361 2.640495077514569 -0.78018340336741654 99818.376666666678 0.32812500000000006 -0.22702889131374496 0.30989222081560913 11.275045702999094 34.781689976601832 -0.16934166666666781 2.6352110353939291 15.037614816177703 9.7422477808758092 16.801410000000036 -0.038721922313638066 1.5460878500269788 1.0979900000000387 1.2481218855754668 -0.995036165109354 0.00096708536666666688 102331.1615 5512.2418000000007 1.0421571448178923 42.618344231146231 2.060702750779472 0.84750952922804634
decision_type=2 2 2 2 2 2 2 2 2 2 2 2 2 2 2 2 2 2 2 2 2 2 2 2 2 2 2 2 2 2 2 2 2 2 2 2 2 2 2 2 2 2 2 2 2 2 2 2 2 2 2 2 2 2 2 2 2 2 2 2 2 2
left_child=2 3 7 8 5 10 15 17 14 20 13 12 21 30 23 45 26 27 35 -15 -5 -10 -8 -2 -13 -11 61 -1 -9 -30 -3 32 -26 -12 44 -17 -16 40 -39 -7 -38 42 43 49 -27 -4 -47 -21 -14 50 51 -29 60 -54 55 -22 -57 58 -41 -60 -25 -6
right_child=1 4 6 9 16 39 22 28 11 25 33 24 48 19 36 18 -18 -19 -20 47 54 -23 -24 52 31 34 -28 41 29 -31 -32 -33 -34 -35 -36 -37 37 38 -40 57 -42 -43 -44 -45 -46 46 -48 -49 -50 -51 -52 -53 53 -55 -56 56 -58 -59 59 -61 -62 -63
leaf_value=-312.62585217967694 66.777931308839669 -29.788584798188527 -236.85069779898583 -67.429667968692954 -100.86086668489307 36.129838299950876 -165.61015762598547 -153.62293581761833 27.891270918887809 27.272671017380368 151.28263005549806 71.94745703381804 -130.21485831165305 -25.071810751992128 -1.0067570690074383 -34.290831844923375 90.874251755251308 -406.61403439980268 -90.226662427546728 113.14904207827733 170.28651344122568 -92.708404774995728 57.32569258252645 9.8887913430256056 -93.112692807621116 136.10994631088545 40.647763727808332 -149.67399764057939 -128.71473063616824 77.629513127805438 114.14930641191502 79.707150681281021 42.203819212813094 116.83089992033318 72.139614698318368 30.142489940433968 78.999783627931052 -15.547650654676573 78.804391666450414 6.2081510524963832 -85.905434497866949 -341.33772029065557 78.770525519838401 -239.34646939446588 29.377636551712982 -249.24401857939981 -17.279093595688511 67.251494402659461 7.7443750886821991 -257.06384266712377 -177.91371788699783 98.892366273870991 -142.83703636467121 -36.599667788685309 74.957135538623604 26.828867664056283 -94.833589138206278 136.66336454409392 138.6167321849114 19.287608942488092 -73.53898170835518 -17.206015893431609
leaf_weight=8271653.530213356 540893.181640625 3165262.0980224609 1007185.3855285645 1034824.4921875 634469.80883789062 763466.7158203125 5764089.1099462509 4560696.5090293884 2236134.375 1681877.2426757812 3099208.861328125 1359956.275390625 5583950.4549560547 1117365.7229003906 2631455.8812255859 2254430.2724914551 826815.345703125 10262087.708952904 3892787.8665237427 3923710.1018066406 669991.3310546875 1486147.3221435547 443758.61254882812 2914644.5045166016 1871142.1271972656 7589093.7685546875 1807764.5708007812 500034.75765991211 890785.90233135223 721407.85363769531 853152.75341796875 932801.3701171875 688446.31640625 5362649.6802711487 3367688.4678955078 6043647.4802246094 1114400.7873535156 634079.30859375 6190173.7136917114 666766.04132080078 910918.61254882812 1723155.0971517563 385558.86630535126 2594386.7922086716 751491.22241210938 974238.31840896606 1209163.3876342773 1165021.8237304688 422150.65234375 779477.43374919891 1834087.5131778717 725312.89990234375 783859.76912689209 1553516.7099609375 1728434.1525878906 2485435.83203125 675067.89111328125 10076843.714599609 6760904.4160442352 718269.34588623047 779289.41259765625 646647.78930664062
leaf_count=3256 32 236 137 75 54 48 785 581 157 111 165 85 553 76 192 210 49 7053 377 229 37 135 33 223 161 422 120 77 94 57 56 59 44 320 206 457 77 44 394 47 75 416 57 441 48 146 114 72 28 131 273 56 76 124 104 167 51 539 372 56 65 46
internal_value=0.0005037 0.00850214 -0.0132368 0.00388414 0.0143449 0.0155764 -0.00667377 -0.0174984 -0.00023415 0.0106094 0.0116882 -0.00443572 -0.00809878 0.00751522 0.00315925 -0.00346307 0.00249653 -0.0193195 -0.00120137 0.0123943 0.00376727 2.22449e-05 -0.014629 -0.00235217 0.0029083 0.0139786 -0.00203084 -0.016773 -0.00951058 -0.000720155 -2.01556e-05 -0.00120326 -0.00533344 0.0167304 0.0154072 0.00206631 0.00631421 0.00825657 0.0105814 0.0194032 0.000423293 -0.0136031 -0.011563 -0.0127493 0.0176651 -0.0121048 -0.00763548 0.0154882 -0.0131318 -0.00877765 -0.00583679 0.00450709 -0.00413345 -0.00995659 0.00640814 0.00318781 -0.000428906 0.0199697 0.0170451 0.0183191 -0.0004488 -0.0113516
internal_weight=1.49044e+08 9.42062e+07 5.48379e+07 5.26179e+07 4.15883e+07 3.76726e+07 2.15893e+07 3.32486e+07 3.2634e+07 1.99839e+07 1.86864e+07 1.45807e+07 9.72838e+06 1.02245e+07 1.80532e+07 1.53815e+07 3.9157e+06 2.70758e+07 1.21909e+07 6.2061e+06 6.59375e+06 3.72228e+06 6.20785e+06 6.5722e+06 4.85235e+06 1.33902e+07 3.08888e+06 1.68137e+07 6.17289e+06 1.61219e+06 4.01841e+06 3.49239e+06 2.55959e+06 8.46186e+06 1.17083e+07 8.29808e+06 1.1481e+07 8.84957e+06 6.82425e+06 1.89863e+07 2.02532e+06 8.54201e+06 6.81886e+06 6.4333e+06 8.34058e+06 3.19059e+06 2.1834e+06 5.08873e+06 6.0061e+06 3.83891e+06 3.05944e+06 1.22535e+06 6.03131e+06 2.33738e+06 5.55893e+06 3.8305e+06 3.1605e+06 1.82228e+07 8.14594e+06 7.47917e+06 3.69393e+06 1.28112e+06
internal_count=20981 6230 14751 3745 2485 2216 2259 12492 2524 1221 1154 1222 873 669 1302 1441 269 11760 1044 377 434 292 818 520 349 787 220 4707 732 151 292 264 205 485 676 667 782 590 438 1062 152 1451 1035 978 470 397 260 301 581 537 406 133 488 200 359 255 218 1014 475 428 288 100
is_linear=0
shrinkage=0.05


Tree=8
num_leaves=63
num_cat=0
split_feature=171 169 73 65 123 102 46 159 73 24 5 68 64 63 163 75 77 1 73 0 106 140 140 93 93 138 52 48 61 73 82 123 96 65 95 88 71 104 129 155 102 106 5 75 70 165 75 107 71 78 74 107 5 163 52 79 176 74 82 141 104 146
split_gain=6.26918e+06 997775 692208 420615 334873 273939 194418 186358 180734 165776 152494 134718 121542 116256 115663 110983 104491 96858 93249.4 88550.9 85851.8 82170.4 81119.8 79864.5 78912.7 78284 72187.9 71913.5 84051.9 70809.8 67222.4 63423.4 61995.1 61820 60903 65051.9 60234.9 60006.3 57880.3 57223.4 55818.5 65768.4 63190.6 55219.9 54841.2 54625.8 54544.8 53852.6 53164.3 51420.2 49984.5 49511.4 49095.8 48919.3 46731.5 46299.7 49527.1 46183.4 51930.4 65608.2 46021.9 45096.8
threshold=11499.346485909755 6761.3241647068389 19.122804298999331 -0.23258939404599507 12562.594539673426 1.7092472735042736 14.829941244485836 12.609429999999977 8.8613700641542916 -0.018222474418179552 0.8977101403255705 3.1867023002156434 -0.82732712546639242 2.6058363750336637 -0.44168333333328741 34.704821638591646 1.847459360889395 0.25881904510252057 14.980307499776922 0.37940952255126054 5509.8260250000012 16.94531604214367 14.842110469469874 62.854981000000002 95.674515 21.461792182987235 2.6980344487817161 9.2053392981633149 12.973042587328891 11.172614558308315 2.1530564511874632 11310.5998838265 1.104395493145425 -0.17725565018757036 90260.449999999997 10.803801673563141 5.9069082500000016 23.298317500000028 10.095132640285991 5.631633174987118 3.3951314529914534 5373.8462250000011 -0.94695267581281539 27.961908746400059 0.25946270133752775 0.47622582990782497 41.105564873320311 102068.34166666669 6.7001836500000005 -0.95074666625317161 6.4644220968656452 100834.96183333336 0.2843486543654084 -0.068238333333368914 3.3031976173775326 -0.072960842919706337 1618.5253861063306 10.234020807102779 2.2074746958884854 0.25455511262874769 16.376874999999959 3.6008647717484039
decision_type=2 2 2 2 2 2 2 2 2 2 2 2 2 2 2 2 2 2 2 2 2 2 2 2 2 2 2 2 2 2 2 2 2 2 2 2 2 2 2 2 2 2 2 2 2 2 2 2 2 2 2 2 2 2 2 2 2 2 2 2 2 2
left_child=1 8 3 4 17 11 45 15 12 22 16 51 26 27 50 30 -5 19 33 23 47 24 -4 -2 -22 53 -1 28 -9 52 54 38 -21 -10 35 -32 -17 -25 -19 -38 46 -42 -43 -12 -16 -7 -24 60 57 -31 -13 -3 -8 -11 -6 56 -53 61 -59 -60 -18 -40
right_child=2 5 9 10 7 6 29 13 18 25 43 14 -14 -15 44 36 20 31 -20 32 21 -23 40 37 -26 -27 -28 -29 -30 49 34 -33 -34 -35 -36 -37 39 -39 48 -41 41 42 -44 -45 -46 -47 -48 -49 -50 -51 -52 55 -54 -55 -56 -57 -58 58 59 -61 -62 -63
leaf_value=-303.42017589749679 -105.1331162875764 -138.99718823150263 20.310926591730993 -156.74599989484577 -19.615404280678597 -115.83906941930084 -196.46788873331707 11.68720883519401 -126.85519153906571 32.451578645697225 100.46008941015792 28.277798381522366 -388.45276627356253 64.307636468190893 47.628479292161771 -31.467605845285018 -143.68349154842267 -38.148817004166951 3.1967268428277054 -16.880587213470228 -133.12902968048255 72.868714714948695 137.78488381688931 24.462180670170572 51.109229021077695 96.403511085879913 -150.69217061589978 41.707616754654303 -87.277749878944576 -73.120502471818568 78.462952094852497 115.64347408924755 72.232362592841625 -213.08866226254665 150.31950038303239 152.04282793631188 52.738344608085313 -115.39374154845233 -21.267750138893703 -4.2741116253809848 13.291157227428693 30.016950684720669 110.40484279952825 20.658148435707052 -98.404392086657339 -190.11765313849267 60.418657913006655 3.4716956286116067 -27.170987097163181 22.732444454252871 -95.29592790908697 -70.984191284191738 -1.9222972091428929 -50.066340109322013 101.84289756565285 -142.39890189455821 28.107422592348843 99.977204952367515 119.68607321579864 -77.208242979411636 -43.282129531788804 51.568195599915704
leaf_weight=7610976.4802589417 1668903.7913818359 735408.19053649902 772665.28735351562 1562295.8540039062 865460.89990234375 4586686.8064117432 988079.564453125 1029154.9196777344 5661545.3107767105 1351914.75390625 1590629.1750488281 509623.83020019531 11618731.910812378 2068173.7348632812 8262888.8960418701 838544.97314453125 672421.13305664062 851735.37353515625 1248893.6832885742 1328990.6613769531 837691.63922119141 1778650.2188720703 11962622.559545517 1854234.69556427 543178.35888671875 1180569.7294921875 5773938.5149259567 845255.87451171875 1038830.7814941406 1385266.7978515625 3841255.6437988281 3063730.7287597656 1693303.1455078125 2606781.7339162827 9016231.39453125 1722894.7587890625 1257152.1435546875 728003.05383300781 1036560.0616455078 909486.75619888306 854367.65814208984 1266336.26171875 7177110.7178344727 2566400.5853118896 574071.65869140625 4199826.2622871399 986922.50592041016 1058963.4946289062 1385295.7259979248 2787643.5124263763 1736215.3255233765 3002233.3869934082 515192.14656925201 722203.32861328125 1614030.5590820312 745243.13842773438 1185053.3005371094 1443365.3083496094 754239.22192382812 785638.73974609375 2249469.4047851562 1216684.2290039062
leaf_count=2710 161 78 50 163 61 540 115 73 670 86 97 37 7854 127 576 58 57 66 100 98 80 117 643 150 37 71 877 56 83 117 245 188 106 430 489 92 73 65 80 64 59 76 404 185 50 552 66 77 103 202 167 283 56 52 95 94 99 91 46 68 178 77
internal_value=0.000405972 -0.0110977 0.00962868 0.00647382 0.00885353 -0.00461938 -0.00966041 0.0125806 -0.0169553 0.0163187 -0.00145695 -0.000266931 -0.0191873 0.00392463 0.00293973 0.0147295 -0.00522005 0.00361232 -0.0110913 -0.000825721 -0.00265731 0.00349675 0.0178121 -0.00547743 -0.00565462 0.00575638 -0.0159394 -0.00251123 -0.00753358 -0.00244778 0.0162902 0.00667572 0.00571734 -0.0130148 0.0175846 0.013471 0.00586961 3.20658e-05 0.00419205 0.0102734 0.0183652 0.0154095 0.0167472 0.00642104 0.00551475 -0.0143198 0.0204874 -0.00754166 0.00577016 0.000904097 -0.00719249 -0.00653707 -0.0117522 -9.39634e-05 0.00867923 -0.00473264 -0.00268899 0.00807449 0.0121554 0.00576858 -0.0110427 0.00267151
internal_weight=1.47726e+08 6.57343e+07 8.19916e+07 5.57169e+07 4.28572e+07 3.12134e+07 1.44627e+07 2.50465e+07 3.45209e+07 2.62747e+07 1.28597e+07 1.67507e+07 2.50036e+07 4.98142e+06 1.10828e+07 2.00651e+07 8.70267e+06 1.78107e+07 9.51722e+06 7.27344e+06 7.14037e+06 3.15952e+06 2.302e+07 4.25114e+06 1.38087e+06 3.25469e+06 1.33849e+07 2.91324e+06 2.06799e+06 5.67618e+06 1.70599e+07 1.05372e+07 3.02229e+06 8.26833e+06 1.45804e+07 5.56415e+06 3.00518e+06 2.58224e+06 7.47352e+06 2.16664e+06 2.22474e+07 9.29781e+06 8.44345e+06 4.15703e+06 8.83696e+06 8.78651e+06 1.29495e+07 3.98085e+06 6.62178e+06 4.17291e+06 2.24584e+06 5.66794e+06 1.50327e+06 2.07412e+06 2.47949e+06 4.93253e+06 4.18729e+06 5.23649e+06 2.98324e+06 1.53988e+06 2.92189e+06 2.25324e+06
internal_count=20920 15607 5313 3806 2815 2966 1582 1516 12641 1507 991 1384 11441 339 830 1177 709 1299 1200 580 546 234 1298 376 117 209 3587 212 156 490 982 719 204 1100 826 337 195 215 531 137 1248 539 480 282 626 1092 709 312 465 319 204 554 171 138 156 476 382 362 205 114 235 157
is_linear=0
shrinkage=0.05


Tree=9
num_leaves=63
num_cat=0
split_feature=177 177 173 65 65 34 44 44 44 4 73 53 64 44 86 161 4 86 4 114 177 158 68 79 75 67 52 104 44 67 86 4 77 89 93 114 143 117 127 86 83 52 107 118 162 107 4 139 156 167 169 170 93 4 134 1 104 44 173 93 65 114
split_gain=5.6339e+06 889415 648278 382206 340134 274058 262050 229485 180025 175852 169868 156651 151387 150745 267646 115393 104631 102806 99209.7 97685.2 84791.7 82581 81386.9 75441.2 75619.5 70683.2 66391.2 63572.8 62898.1 64031.3 60110.6 69481.6 59824.3 58916.1 60788.3 58628.1 57223.1 66424.6 56451.5 54827.7 53522.9 66498.7 68098.8 53274.6 50344.1 68044.5 66843.8 49368.6 48581.4 48457.5 47802.4 47537.4 46236.3 45031.8 44928.8 44540.3 61964.4 83628.5 44300 43550.7 43345.2 49095.8
threshold=9918.6631037227362 14918.219320920294 7368.4535646094901 -0.13599062901508147 -0.3120019328918564 12.09404574835918 1.6792842158439998 1.6563467824438485 2.5965162636400385 0.45206801762443477 12.184558814238786 3.3101843970970113 0.557500437940329 3.1080894168756723 16.109374820108695 12.10053500000001 -0.43664718845046341 19.155562934404639 0.7025209685794126 9.2002880519305624e-18 12327.452532561623 11.584513333333378 3.6737272778370009 0.0093013955460809986 31.569686374401396 3.0576614253460561 2.9485380258283542 27.465334999999985 0.86950084067669742 3.5257786081455529 15.139355473791143 0.93228057993045244 1.7490450385033161 9.1111341777225601 93.775583000000026 1.9379154513560652e-08 0.43269225559597407 16174.723336886505 18.651853470957086 6.7736753567150929 8.6970658133179146 3.7113324720224079 102205.93666666666 12.258169893240966 13.101453333333327 102177.91866666668 0.03872192231363817 16.00246414558265 0.080028707247650696 1.1337344154803326 7567.2363820398587 13412.297882234032 75.336443333333349 -0.96683886033945943 1.166818152247715 -0.5 22.042807500000013 1.8218472628160198 11502.201106292163 93.379786833333355 -0.35694642995702885 0.11003905794358
decision_type=2 2 2 2 2 2 2 2 2 2 2 2 2 2 2 2 2 2 2 2 2 2 2 2 2 2 2 2 2 2 2 2 2 2 2 2 2 2 2 2 2 2 2 2 2 2 2 2 2 2 2 2 2 2 2 2 2 2 2 2 2 2
left_child=2 4 6 13 8 9 10 19 17 16 39 -8 20 14 15 36 38 26 -11 54 59 22 48 43 -25 -9 33 55 -21 58 -20 -32 -22 34 -2 -35 37 -3 -5 -1 41 42 49 -18 45 -27 -47 -38 -10 -34 53 -29 -24 -13 -4 56 -28 -58 -30 -6 61 -41
right_child=1 3 7 5 12 -7 11 25 21 18 -12 50 -14 -15 -16 -17 23 -19 30 28 32 -23 52 24 -26 44 27 51 29 -31 31 -33 40 35 -36 -37 47 -39 -40 60 -42 -43 -44 -45 -46 46 -48 -49 -50 -51 -52 -53 -54 -55 -56 -57 57 -59 -60 -61 -62 -63
leaf_value=-389.68846863137043 -140.01522710885993 -72.302155127232751 -230.64288799408607 -30.802349616802669 -147.35593248205507 118.73582661801743 -239.68915083480351 -72.730211271738014 133.99507368796714 -97.622965363857162 -114.8936799227065 67.154959329177075 66.870853253695984 148.68311272399566 105.35447055989845 -14.05542377804781 52.32288768786654 81.29080980488942 -171.13098623957353 -117.71159476135108 -148.44936705145082 -2.2255102268756888 123.10194086674224 -64.859388202360051 41.673365257584102 65.087597548071571 36.92943470286243 -66.000603491152404 -109.32893690553254 15.239354847022197 -26.859208933962066 102.67429184525332 -6.9370548169240749 -42.627386713564022 -1.171738642319653 58.706036682646562 -2.3311368892153275 31.716778898979229 44.231820697845258 -201.76255068438053 -54.02651689436972 51.637856382989241 54.024702677919322 103.50817573753699 -97.959385578935922 19.006081294525725 -68.929834159423493 109.67001071373802 30.730944962858384 -129.24745541620618 -0.16347828727217462 0.99099595599288726 56.636347824147677 -126.79831001888851 -134.45391881629027 53.283632137544998 -87.933586478752133 56.290120654103184 24.563736914469263 -42.383557351995265 -257.96282003123309 31.732189034209224
leaf_weight=12541871.836892128 1594924.7395019531 682545.34619140625 2334194.5881500244 1332490.7265625 3090632.2136459351 2797767.7264022827 4601685.0855731964 2849907.4145727158 526733.75244140625 1106055.529296875 2278829.6132507324 391430.90502929688 624736.107421875 9337646.1536865234 18561959.014383316 2602442.7783203125 1053019.1296386719 1662482.1533203125 583024.35498046875 1998721.6469860077 1129688.3369140625 1771563.2946777344 5286775.9599609375 703516.9296875 859993.83081054688 3522878.152633667 1061552.4000930786 849782.83959960938 1184330.145485878 2313960.6432094574 1458869.8117675781 618835.1318359375 1443972.7573242188 1893010.4233398438 1231422.1926269531 1202915.3061523438 813031.951171875 660995.24365234375 566782.22802734375 3154212.2596092224 2012577.3636474609 1009788.7529296875 537436.48828125 2220022.4265136719 838284.63635253906 622349.68762207031 572119.13696289062 4435749.2729492188 3717552.2507324219 520557.98132324219 2020879.1917724609 616448.71752929688 2253273.2309570312 5589345.2174015045 2035429.1422805786 6270704.5781860352 1042996.1669921875 584326.03564453125 464021.49362754822 754239.22381591797 4794970.7607460022 316208.02391338348
leaf_count=8932 157 53 348 94 325 169 1076 288 30 92 251 35 38 492 1053 190 68 100 53 235 110 120 294 49 56 256 73 67 146 216 109 36 104 155 95 82 55 43 36 573 158 71 33 130 76 48 51 269 248 48 171 46 146 687 280 425 93 40 39 67 1012 42
internal_value=0.00041977 0.00789157 -0.0123593 0.0123899 0.00258136 0.00511802 -0.0163132 -0.0048279 0.00523072 0.00141363 -0.0194788 -0.0105146 -0.00493696 0.0149973 0.0131486 0.00617256 0.00625184 0.00195487 -0.00723813 -0.00981934 -0.00635984 0.00958306 0.0110962 0.0101569 0.00112185 0.00130672 0.000750226 0.00315172 -0.00565658 -0.00200879 -0.00200635 0.0019747 -0.00294419 -0.00347746 -0.00869691 0.00128751 0.00969189 0.000484423 -0.00369256 -0.0208982 -0.000800282 0.00292547 -0.00144561 0.0144729 0.00459065 0.00659708 -0.00371578 0.0120487 0.00555784 -0.00576014 -0.00628728 -0.00649974 0.0142137 -0.00853373 -0.0154982 0.00473118 -0.000652459 -0.00678287 -0.00953965 -0.0122711 -0.0177366 -0.0134805
internal_weight=1.4751e+08 9.30848e+07 5.44256e+07 5.03947e+07 4.26901e+07 1.33004e+07 3.56894e+07 1.87362e+07 3.15665e+07 1.05026e+07 2.30861e+07 1.26033e+07 1.11236e+07 3.70944e+07 2.77567e+07 9.19476e+06 6.73583e+06 1.80106e+07 3.76678e+06 1.03307e+07 1.04989e+07 1.35559e+07 1.17843e+07 4.83655e+06 1.56351e+06 8.40554e+06 1.63481e+07 1.04258e+07 5.96103e+06 3.96231e+06 2.66073e+06 2.0777e+06 6.65402e+06 5.92227e+06 2.82635e+06 3.09593e+06 6.59232e+06 1.34354e+06 1.89927e+06 2.08073e+07 5.52433e+06 3.51176e+06 2.50197e+06 3.27304e+06 5.55563e+06 4.71735e+06 1.19447e+06 5.24878e+06 4.24429e+06 1.96453e+06 8.00166e+06 1.46623e+06 7.54005e+06 5.98078e+06 4.36962e+06 8.95958e+06 2.68887e+06 1.62732e+06 1.64835e+06 3.84487e+06 8.26539e+06 3.47042e+06
internal_count=20934 6172 14762 3047 3125 892 12779 1983 2171 723 10810 1969 954 2155 1663 610 433 1333 290 1264 916 838 718 303 105 719 1233 744 636 401 198 145 524 489 252 237 420 96 130 10559 414 256 185 198 431 355 99 324 278 152 893 113 440 722 628 631 206 133 185 392 1627 615
is_linear=0
shrinkage=0.05


Tree=10
num_leaves=63
num_cat=0
split_feature=171 171 144 44 44 44 140 73 73 78 14 105 93 69 53 5 39 2 73 94 44 102 5 14 73 114 0 83 78 155 79 74 95 114 42 73 66 42 5 5 73 74 139 0 96 166 14 144 93 129 9 105 44 78 150 95 79 135 74 75 74 56
split_gain=5.58782e+06 787815 645673 324295 319243 299724 280019 184982 168113 166614 144979 140437 134200 116774 103016 96402.5 98746.7 93187.1 89380.7 88568.8 84806.4 83189.4 91674.3 82901.8 80899.3 80484.1 73625.7 72104.6 71048.9 70928.3 81886.9 70055.1 65268.4 64037 61561.2 59759.3 59612.5 56552.1 64693.7 54578.9 53625.9 53615.9 50478.8 50063.2 48274.6 72347.6 57379.6 48199.7 47933 47658.6 47577.3 46415.5 45540.7 45328.4 48143.7 45169.6 45130.5 44540.7 43783.6 64166.2 58633 45858.3
threshold=11083.661379612993 5942.2502553789373 16.986130961678942 2.2651852581173242 1.8847449002029424 2.1007265900975489 20.061600489813333 12.084480555979376 14.365415357809928 -0.69246314644875551 -0.93825228145650008 -10.596219999999958 85.542741000000021 3.2440433951711314 3.2081532502678249 -0.76107606668641947 0.26288933928266217 0.25000000000000011 19.311980671419363 0.00096708536666666688 3.371619703005162 1.8618453846153848 0.91234096280339505 -0.94205777570094396 11.862441778003006 1.1277962675936689e-12 -0.60355339059327362 15.476333703010338 -0.61153308001532192 8.248843763244988 -0.15367289118467542 4.8286519431129671 90677.764166666675 0.00070640526063489855 -0.2443470099191781 13.680131227332465 2.6670914819836016 -0.23668734893758653 0.76663042157996963 -0.99049576193482802 5.1237230227959651 23.301443362553677 19.515986390388608 0.91597561503675362 1.1460114412591438 -12.840176999999976 -0.99881734118287224 14.798676766709036 88.718206666666688 7.7021393533613898 9.4753324035007367 10.13574 1.0929937686410054 -0.98819751873940798 3.9469626518764223 89888.217500000013 -0.05308957328083954 18.598245579236757 5.8360755126946975 14.70408676359675 10.577997424873915 0.15775842040903834
decision_type=2 2 2 2 2 2 2 2 2 2 2 2 2 2 2 2 2 2 2 2 2 2 2 2 2 2 2 2 2 2 2 2 2 2 2 2 2 2 2 2 2 2 2 2 2 2 2 2 2 2 2 2 2 2 2 2 2 2 2 2 2 2
left_child=1 7 5 6 8 10 12 9 29 14 31 17 21 40 33 48 26 -8 20 -15 56 -4 27 -10 -12 28 -17 42 41 30 47 -2 -16 -1 -35 -14 -18 -33 52 -37 -6 -26 57 -34 -40 -46 -47 -3 -7 -42 -38 -25 -39 54 -28 -24 -5 -23 -21 -60 61 -61
right_child=2 4 3 18 13 15 11 -9 23 -11 24 -13 35 19 32 16 36 -19 -20 58 -22 22 55 51 25 -27 53 -29 -30 -31 -32 37 43 34 -36 39 50 38 44 -41 49 -43 -44 -45 45 46 -48 -49 -50 -51 -52 -53 -54 -55 -56 -57 -58 -59 59 60 -62 -63
leaf_value=-321.07407346650734 64.10984275614102 -112.97694809013204 94.511414089499581 86.369255826132061 -128.69363397450797 -32.843136508085841 60.339808805010286 -68.529726636490338 -99.405664136248561 -349.9443199656281 -49.200058636261943 99.032426013577236 -37.450069015881304 102.57822580604096 -163.61499825729891 -49.079004190245755 45.966877716845708 -88.247865080986941 128.46703897559553 50.866907848740993 140.19897686673673 -52.038941562078826 97.299942975300553 67.947469124014631 -23.895794741753623 97.038079518400835 -97.275986790363717 27.655885082625559 -58.618198225799205 12.037450432293554 -194.42980318250125 47.540181809597918 -115.97255315086548 44.591739980573571 -218.0967904816288 -10.678484364667824 111.11277424751175 -126.30426054906843 36.253851856230639 70.028967690986931 -127.19284886410688 79.543154890563017 -79.893842311152738 39.391076872398578 49.667532729014695 15.798839754257569 -77.608943071114467 12.63905602206664 40.541378679347524 -0.52926837654531622 70.862094392248594 -24.99390189580707 -69.803723457962761 75.38870690677193 27.304145665315072 12.729845068130412 -40.698628173060847 33.133905253599693 -79.247591657875518 94.969698554173831 -1.2821602847470661 -1.0313074842306824
leaf_weight=7179887.6039943695 732009.34680175781 6812812.684261322 711992.3330078125 7500145.3232536316 1676598.1986265182 951531.162109375 1180381.7022094727 2935326.8163452148 1275115.3933944702 10288497.434949875 1288537.2019863129 11944977.496398926 717517.26025390625 1083536.4008789062 6497139.7939815521 1024483.3305664062 2367344.1579589844 594652.73681640625 8624033.938041687 1260261.7216796875 4706788.861328125 1707853.0705566406 765346.92504882812 1253247.095703125 1127735.8122558594 2466243.2322874069 512892.50354003906 697746.12890625 876583.07531738281 353653.13720703125 6133449.2338924408 622465.3910369873 1149806.5908842087 393209.87902164459 1157992.7370061874 673939.77099609375 4353497.2971191406 1772431.0739746094 601002.06646728516 5599382.6477050781 785855.67993164062 760574.08178710938 1957790.9100341797 604936.04623985291 565451.62353515625 518388.50537109375 1576932.5626220703 664639.962890625 724329.4150390625 2794788.310760498 1640324.5874633789 1252480.5404052734 4552915.3269042969 4436877.4246826172 880979.87194824219 1143384.9487304688 905147.80947113037 1162042.4194335938 1319632.9893188477 1127200.6733398438 4629685.7784423828 670208.27221679688
leaf_count=2860 54 797 41 448 198 70 85 296 120 7116 122 689 55 65 975 77 151 46 463 84 247 136 47 88 86 160 44 43 72 26 1013 47 172 100 344 44 245 181 42 338 77 46 157 59 36 37 136 51 53 238 103 99 396 276 61 76 64 81 108 70 353 48
internal_value=0.000519539 -0.0107257 0.00889921 0.0124913 -0.00539652 0.00360912 0.00901703 -0.0165642 -0.00996362 -0.0178479 -0.000984454 0.0141905 0.00432786 -0.000115934 -0.014806 0.00835743 0.00961096 0.00106781 0.0171037 0.00303212 0.0145034 -3.3423e-05 -0.00159711 -0.000610722 0.00491772 0.00768199 0.00516262 -0.00486048 0.00182457 -0.0124959 -0.0130703 -0.00450133 -0.0108003 -0.0185918 -0.00937931 0.0094099 0.0132581 -0.00557261 -0.00652082 0.0109733 -0.00615818 0.00728554 -0.00703192 -0.00224377 -0.000801137 -0.00369206 -0.00797508 -0.00955783 -0.00302427 -0.00270267 0.0159114 0.00467088 -0.00947028 0.00733464 -0.000530744 0.00784977 0.0114943 -0.00280908 0.00140738 1.30692e-06 0.00206328 0.00972782
internal_weight=1.48247e+08 6.33e+07 8.49467e+07 5.05931e+07 3.30932e+07 3.43535e+07 2.8857e+07 3.02068e+07 1.77454e+07 2.72715e+07 1.74613e+07 1.372e+07 1.5137e+07 1.53478e+07 1.6983e+07 1.68923e+07 1.52164e+07 1.77503e+06 2.17361e+07 1.00905e+07 1.31121e+07 8.14616e+06 7.43416e+06 3.78084e+06 6.51967e+06 5.23114e+06 6.85523e+06 5.52543e+06 2.76489e+06 1.39646e+07 1.36109e+07 1.09416e+07 8.25188e+06 8.73109e+06 1.5512e+06 6.99084e+06 8.36117e+06 1.02096e+07 9.58712e+06 6.27332e+06 5.25724e+06 1.88831e+06 4.82769e+06 1.75474e+06 3.26177e+06 2.66077e+06 2.09532e+06 7.47745e+06 1.67586e+06 3.58064e+06 5.99382e+06 2.50573e+06 6.32535e+06 5.83075e+06 1.39387e+06 1.90873e+06 8.40529e+06 2.8699e+06 9.00699e+06 7.74673e+06 6.42709e+06 1.79741e+06
internal_count=20912 15357 5555 3060 3435 2495 1838 11922 2194 11626 1415 820 1018 1241 4510 1080 957 131 1222 728 759 581 540 307 486 364 458 417 204 1887 1861 929 1206 3304 444 437 499 875 828 382 513 132 374 231 251 209 173 848 123 315 348 187 577 381 105 123 512 217 663 579 471 118
is_linear=0
shrinkage=0.05


Tree=11
num_leaves=63
num_cat=0
split_feature=177 173 34 45 14 53 15 100 73 120 24 4 163 73 4 106 55 100 108 61 67 165 4 100 146 41 55 73 73 73 113 74 100 41 133 106 173 4 104 137 13 4 108 77 25 64 42 178 4 169 13 66 81 113 73 52 66 106 31 149 64 108
split_gain=5.03711e+06 869390 605837 378262 280158 276419 198231 176823 154249 148205 139768 131603 126472 108461 94587.6 93706 92265.6 91520.6 90320 131325 90186.4 91657.1 84882.9 83555.7 79209 78870.4 76274.1 74682.1 73400 73281.5 71223.1 69104.1 66025.6 63102.4 60640.9 58619.8 66132.9 57763.2 57276.1 57098.6 56404.6 54939.9 54335.7 69127.5 54158 53044.1 75910.3 56586.9 52566.5 51319.4 51038.5 50196.8 55079.9 49435 49359.3 48535.7 47983.8 46221.2 60999.6 45920.6 47235.8 45188.4
threshold=11205.524415550086 7705.0850567592443 9.5869519935431686 8.3539838896500385 -0.94205777570094396 3.080606781781817 -0.17119357179621719 365.79091666666676 14.663035819838294 16335.809844656576 0.18102402597781372 0.10738035228456499 -0.45019666666669872 18.91671362918607 0.78829775591774609 5334.0847500000009 3.834097296529793 378.42535500000002 6.5892442478707151e-14 14.73327948344523 7.5333562795433657 0.66444487543793274 0.45206801762443477 289.41358166666674 3.2975063750953129 -0.95230718464735153 5.1135807246642573 11.609769196862796 11.609769196862796 3.8958852251558582 0.046875000000000007 12.240095042705983 301.85944333333339 -0.99991602066830931 12.430011824710528 5391.0160000000014 17015.220700594578 -0.28435655403991289 22.956385000000015 15.337613134145752 2.1832223255685954 0.63874350706337069 1.3183867251275479e-17 2.3399885865046208 5.9457759570690714 -0.88429648296720853 -0.026996335482885863 1320.1514553569568 0.38962684145003695 14876.816762735458 0.83805117729725576 2.4822425067041478 1.5082659990342362 1.3906250000000002 14.980307499776922 3.4468141150127392 2.1596986236812423 5464.0287500000004 0.97375350393703608 3.106229609587158 -0.92585728873360928 0.49175891729549415
decision_type=2 2 2 2 2 2 2 2 2 2 2 2 2 2 2 2 2 2 2 2 2 2 2 2 2 2 2 2 2 2 2 2 2 2 2 2 2 2 2 2 2 2 2 2 2 2 2 2 2 2 2 2 2 2 2 2 2 2 2 2 2 2
left_child=1 5 3 9 13 27 8 12 23 24 17 57 56 20 22 -15 28 29 19 37 21 39 30 -4 -2 -9 -27 61 -14 55 -13 51 -10 -18 -28 -34 40 -6 -17 -5 -37 -24 43 -21 -33 46 -26 50 -49 -23 -48 -31 59 -36 -12 -7 -3 -8 -59 -53 -61 -1
right_child=2 7 6 4 18 10 11 25 32 -11 54 14 16 15 -16 38 33 -19 -20 42 -22 49 41 -25 45 26 34 -29 -30 31 -32 44 35 -35 53 36 -38 -39 -40 -41 -42 -43 -44 -45 -46 -47 47 48 -50 -51 -52 52 -54 -55 -56 -57 -58 58 -60 60 -62 -63
leaf_value=-324.41745934153096 -12.338088029466451 -216.30418549251968 103.72383564812992 -64.22866446002466 106.75441110643482 -218.85922270068838 79.918260282768685 -171.67712376637235 124.71760482416244 118.27003357366976 -233.92768403185897 60.245679228617611 -94.42082028556122 -65.965069881635358 52.04175604171359 2.0564058474626168 -93.9656923042225 -216.83936269510193 86.892168998432254 -52.117017537864434 -77.857042642941693 -93.833277969090858 -95.450237770327419 -5.2332019179659444 -5.7565548007006395 -147.01715503987805 -91.909740664681237 -121.50336715270656 19.269239386345472 -83.644113418521613 -47.894762080161719 -156.52843907836763 9.9765112601733605 30.85346693630645 -47.073920673150205 66.270650378675597 107.9033894817926 4.103856118053403 82.821915472777448 17.056222618451301 -33.216130764881918 -41.31177225097565 -80.944849491554152 57.025906973764407 -40.19350188212379 85.326615695517035 109.77945096679366 86.196743506481923 -34.261772090606563 -13.185659168155821 10.544346886232418 -29.908557712559151 -213.5246943154863 78.422980724748385 31.341038272248017 -2.0947873779658197 -78.811410444187032 -40.902790777260037 64.575482568777275 -106.03026222721502 41.638980788226633 -245.89214821896954
leaf_weight=16134288.880454063 1854133.4554443359 607481.55465698242 1661122.6112060547 1813130.395324707 1040190.31640625 1982768.7760505676 4872334.1537475586 2639338.3026580811 9457328.7869758606 4980041.3098144531 3270105.542098999 666491.23669433594 2796104.4764137268 541081.19970703125 2185007.1147460938 1122905.1181030273 573941.4928894043 2325198.500002861 4451760.0102539062 825311.18395996094 4032603.2265625 2051772.4990234375 565133.427734375 2090562.6953125 2392567.8957519531 1232911.9028015137 589315.83129882812 1359565.7692871094 960512.78353881836 4919917.958691597 593351.0478515625 3500359.0094242096 1063953.2788314819 11078764.496850014 464845.8974609375 2276891.5634765625 7872644.0006866455 850867.58276367188 1114111.5185546875 4748804.3330078125 672146.33569335938 912292.61376953125 932714.58947753906 636422.33837890625 1475849.5493392944 3865524.8330078125 3382079.3234863281 1671405.919921875 1096047.0279541016 859603.32080078125 1109136.1900634766 722304.57046508789 387164.27548027039 545463.53361606598 152976.8212890625 260756.27125072479 3816971.9931259155 705643.0078125 2001122.5254516602 703676.02172851562 1007358.9441604614 734670.56498432159
leaf_count=9062 130 91 97 149 59 410 294 361 508 272 1023 47 332 41 141 77 52 473 277 65 343 190 45 144 159 154 63 146 79 561 40 475 71 830 38 133 437 57 63 335 46 66 79 41 134 233 198 105 80 64 79 67 69 45 11 35 387 48 122 67 82 491
internal_value=0.000251215 -0.0102596 0.00838976 0.00450049 0.000383222 -0.0149487 0.0130835 -0.00304454 0.015646 0.00956262 -0.0109962 0.00793952 -0.00084923 -0.00349224 0.00157376 0.0055051 0.00129022 -0.00916821 0.00760609 0.00242478 -0.00534295 -0.00267719 -0.00461883 0.00629616 0.00713391 -0.0110018 -0.00520731 -0.019439 -0.00552395 -0.00773387 0.00491608 -0.006264 0.0172895 0.00348698 0.00199593 0.0148089 0.0159099 0.0122738 0.0100213 0.000598744 0.00952354 -0.0127495 -0.00535366 0.000662933 -0.0108609 0.00846327 0.00648099 0.00902683 0.00340288 -0.0100608 0.0124923 -0.00330869 0.00200922 0.00943109 -0.0202268 -0.0160653 -0.00830042 0.0120738 0.00683506 0.00479631 0.00925906 -0.0203475
internal_weight=1.47211e+08 6.42426e+07 8.29682e+07 4.53722e+07 2.50213e+07 3.8937e+07 3.7596e+07 2.53057e+07 2.50946e+07 2.03509e+07 2.07084e+07 1.25014e+07 1.98338e+07 1.6284e+07 4.92228e+06 2.7781e+06 1.54093e+07 1.72854e+07 8.73727e+06 4.28551e+06 1.35059e+07 9.47331e+06 2.73727e+06 3.75169e+06 1.53709e+07 5.47188e+06 2.83254e+06 1.82285e+07 3.75662e+06 1.49602e+07 1.25984e+06 1.27166e+07 2.1343e+07 1.16527e+07 1.59963e+06 1.18856e+07 1.08217e+07 1.89106e+06 2.23702e+06 6.56193e+06 2.94904e+06 1.47743e+06 2.39445e+06 1.46173e+06 4.97621e+06 1.35168e+07 9.65124e+06 7.25867e+06 2.76745e+06 2.91138e+06 4.49122e+06 7.74042e+06 2.8205e+06 1.01031e+06 3.42308e+06 2.24353e+06 4.42445e+06 7.5791e+06 2.70677e+06 2.43334e+06 1.71103e+06 1.6869e+07
internal_count=20873 15538 5335 3096 1840 13106 2239 2432 1436 1256 3407 803 1771 1262 339 181 1293 2373 578 301 1081 738 198 241 984 661 300 9699 411 1900 87 1455 1195 882 146 687 616 116 140 484 179 111 185 106 609 854 621 462 185 254 277 846 285 83 1034 445 478 464 170 216 149 9553
is_linear=0
shrinkage=0.05


Tree=12
num_leaves=63
num_cat=0
split_feature=173 119 136 100 73 97 64 144 95 73 100 57 163 5 27 152 42 95 94 73 156 121 149 41 149 4 74 127 170 133 65 138 95 73 56 90 93 65 100 95 157 52 64 97 7 53 64 50 5 134 156 162 83 66 87 81 56 97 0 112 108 124
split_gain=4.9302e+06 956425 546436 321340 253498 237145 212245 203835 185066 113287 149946 112077 104548 104013 93466.5 92727.5 91748.1 110921 89226 87145.6 107084 86167.5 77869.1 75987.3 88001.7 74976.6 73994.2 73856.5 73325.5 72103.4 70607.2 74577.4 63031.5 60838 74181.9 63993.1 59220.9 57388.7 56928.3 55976.5 54389.8 53783.8 63018.2 53689.1 53430.8 53170.7 51568 51306.3 50572.7 50212 50183.8 49784.6 49387 50469.1 52131.5 49310 63622.4 51801.4 48686.2 46587.7 46414.1 45333.4
threshold=11769.400197589266 9598.3968189674906 20.061600489813333 245.18787 11.609769196862796 2.213261666666654 -0.73256154148485819 15.890550405475661 90209.803333333344 20.52425512367854 751.57020000000023 3.0003016000000007 -0.37224500000002075 0.91234096280339505 12.320862817967976 0.16976074907286401 -0.23668734893758653 90058.753333333341 0.00096708536666666688 4.2236861610390202 0.2378783947582758 8.0524285689360848 6.2278716962568375 -0.99742584866160744 6.15096989605905 0.77214943412548942 6.1353073445568915 12.806112532516535 13076.195039957243 11.088157779381257 -0.4347703086373787 22.679622791836 89937.178333333344 5.8767197231844968 0.18927836440139162 3.0422991428861512 40.922772333333334 -0.57921406430338063 485.33384333333339 89650.288333333345 -7.5925283333332905 2.9485380258283542 -0.93169801333685964 1.0449200000000192 6.325070643267849 4.8516958855416279 -0.98863558687255904 2.4357967713812267 0.87377473702374975 1.2786261263749361 0.2358483449727152 -7.1016366666666491 5.9172964354211794 2.5600036693143067 23.573198914637299 1.792944708391043 0.28224613953905792 0.19696666666663989 -0.60355339059327362 0.00019065000000000003 0.0024598789151748244 10.541113238199385
decision_type=2 2 2 2 2 2 2 2 2 2 2 2 2 2 2 2 2 2 2 2 2 2 2 2 2 2 2 2 2 2 2 2 2 2 2 2 2 2 2 2 2 2 2 2 2 2 2 2 2 2 2 2 2 2 2 2 2 2 2 2 2 2
left_child=1 4 3 7 6 28 19 12 18 10 30 -10 41 16 36 26 -7 -18 -3 -1 -21 37 -15 24 -19 32 -13 -6 55 -16 47 48 44 -28 45 60 -14 49 -23 -11 -33 -2 -43 -17 -9 61 -24 -4 51 -20 -45 -32 53 -22 -55 56 57 -5 -34 -57 -36 -35
right_child=2 8 9 5 27 13 -8 25 11 39 -12 15 14 22 29 43 17 23 21 20 52 38 46 -25 -26 -27 33 -29 -30 -31 31 40 58 34 35 -37 -38 -39 -40 -41 -42 42 -44 50 -46 -47 -48 -49 -50 -51 -52 -53 -54 54 -56 59 -58 -59 -60 -61 -62 -63
leaf_value=-272.18610965933067 -109.54183637731882 82.326421427541916 116.16241620840681 81.922748791475328 -77.860308368654643 46.324256138075391 -296.79187516965686 -43.708042315425068 -206.16874934518725 90.783635193382054 -29.094439192931102 80.295658453600197 -91.719192643628418 -20.09414014970563 98.719105592185585 28.414473962821702 -81.324003576547497 -82.677995987320571 -103.30291105951449 -67.93373319224564 -167.20288386006138 -3.2017039004218186 47.469252630880469 -55.218802123847766 56.154760685083943 139.49770936674071 -96.834850969011242 74.24238757017082 68.302939373519891 42.855071405748532 -47.892084244653802 -0.68629054269570422 36.418176020318732 69.190668525249549 -122.65713801070819 41.510953606811043 23.294915183111062 -105.91114316988508 -118.89512709243964 116.453851943149 102.46424804228998 -64.026914717435304 41.197906955707381 9.007409964804884 64.068986741180524 97.282415031220467 109.49757853258582 49.534342420678549 110.29592910166969 52.141630092416008 -138.60989875639953 41.140826620117295 -281.49881810684076 33.268086926744097 -221.48243911583677 57.459628401076486 -108.07183843287635 -18.082618970486731 97.247125548330246 -22.596165087896694 14.23850958013449 -2.5385035331729999
leaf_weight=6346766.2924032211 1084910.4045257568 640327.39013671875 2842531.1821289062 545304.44323730469 4464314.0312252045 2247864.0010986328 12546514.592411995 833829.9755859375 762193.95893859863 6131684.7252807617 1082017.7666015625 1228081.1959228516 417652.61242675781 952789.45190429688 3597377.8850097656 447735.9765625 4318062.561340332 887603.99450683594 737273.94058227539 6012074.4037380219 4978696.2305784225 6067728.6408691406 1104334.4177246094 2184645.5366210938 1383762.6301269531 3756949.8916015625 799103.92919921875 731662.23120117188 7782712.0562744141 3213221.9388427734 746747.30053710938 558914.27013015747 1823645.1147460938 2878341.9780273438 1136529.4108276367 642641.49533081055 2692678.4180660248 6565492.6912345886 1202886.3828125 6554139.1228027344 2111519.7884521484 664336.23095703125 1574632.9237518311 404201.87658691406 1185458.2746582031 1458826.41796875 743912.52893066406 1050589.3325195312 1985603.5556621552 758809.57446289062 1130107.7676010132 2305702.1796875 2511122.4065113068 734308.98590087891 339811.89755535126 1132291.7021484375 608392.73778057098 1585364.5896072388 6569484.5107421875 627541.96441650391 540661.76463603973 2073264.7612304688
leaf_count=2667 106 41 152 37 479 161 7600 64 112 355 76 79 35 73 207 37 380 80 77 792 876 460 75 180 92 201 78 58 481 211 52 44 111 194 115 50 195 705 118 351 120 56 105 36 73 86 43 65 119 61 125 143 529 89 62 75 52 133 362 46 46 149
internal_value=0.000551798 -0.00929986 0.00906114 0.00619607 -0.0144718 0.00222572 -0.016067 0.00997675 -0.00251509 0.0151052 0.0117637 0.0017942 0.00551737 -0.00226634 0.00808866 0.00290847 -0.00445281 -0.00676181 -0.00615776 -0.0129837 -0.0108544 -0.00692147 0.00633729 -0.00122771 0.00517574 0.0141452 0.00473952 -0.00419673 0.00728153 0.0113683 0.013424 0.0106519 0.0119604 0.00325086 0.00445954 -0.00320207 0.000907222 -0.0104812 -0.00297449 0.0184462 0.017407 -0.00215726 0.00227011 -0.00702946 0.00402926 0.00723216 0.0123229 0.0189127 0.00707138 -0.00164369 -0.0114749 0.00303103 -0.0144451 -0.0119995 -0.0021699 0.00220014 -0.0019957 0.0020763 0.0138686 0.00873069 -0.00834253 0.00476049
