tree
version=v4
num_class=1
num_tree_per_iteration=1
label_index=0
max_feature_idx=178
objective=quantile
feature_names=hour_sin hour_cos month_sin month_cos doy_sin doy_cos lead_h ldaps_g5_ws10 ldaps_g5_ws50 ldaps_g5_ws117 ldaps_g5_ws117_sq ldaps_g5_ws117_cube ldaps_g5_alpha ldaps_g5_ws50_range ldaps_g5_wd50_sin ldaps_g5_wd50_cos ldaps_g6_ws10 ldaps_g6_ws50 ldaps_g6_ws117 ldaps_g6_ws117_sq ldaps_g6_ws117_cube ldaps_g6_alpha ldaps_g6_ws50_range ldaps_g6_wd50_sin ldaps_g6_wd50_cos ldaps_g12_ws10 ldaps_g12_ws50 ldaps_g12_ws117 ldaps_g12_ws117_sq ldaps_g12_ws117_cube ldaps_g12_alpha ldaps_g12_ws50_range ldaps_g12_wd50_sin ldaps_g12_wd50_cos ldaps_g13_ws10 ldaps_g13_ws50 ldaps_g13_ws117 ldaps_g13_ws117_sq ldaps_g13_ws117_cube ldaps_g13_alpha ldaps_g13_ws50_range ldaps_g13_wd50_sin ldaps_g13_wd50_cos ldaps_ws117_mean ldaps_ws117_std ldaps_ws117_min ldaps_ws117_max ldaps_ws117_mean_cube ldaps_ws10_mean ldaps_alpha_mean ldaps_ws50_range_mean ldaps_shear_117_10 gfs_g2_ws10 gfs_g2_ws80 gfs_g2_ws100 gfs_g2_ws117 gfs_g2_alpha gfs_g2_gust gfs_g2_ws_pbl gfs_g2_ws850 gfs_g2_ws700 gfs_g2_ws500 gfs_g2_ws117_cube gfs_g2_gust_factor gfs_g2_wd100_sin gfs_g2_wd100_cos gfs_g5_ws10 gfs_g5_ws80 gfs_g5_ws100 gfs_g5_ws117 gfs_g5_alpha gfs_g5_gust gfs_g5_ws_pbl gfs_g5_ws850 gfs_g5_ws700 gfs_g5_ws500 gfs_g5_ws117_cube gfs_g5_gust_factor gfs_g5_wd100_sin gfs_g5_wd100_cos gfs_ws117_mean gfs_ws117_std gfs_ws117_min gfs_ws117_max gfs_ws117_mean_cube gfs_gust_mean gfs_ws850_mean gfs_ws500_mean src_ws117_diff src_ws117_absdiff src_ws117_ratio t2m_c t_hub_c rh spec_humidity surface_pressure rho_hub dewpoint_depression ws117_rho_corrected rho_ws117_cube blh blh_below_hub blh_ratio_hub gfs_vrate lapse_850_500 t850_c gh500 prmsl icing_score icing_flag precip_ldaps snow_ldaps gfs_prate gfs_tp icing_wet ws_hub_cal_kpx_group_1 pc_pred_kpx_group_1 pc_pred_rho_kpx_group_1 ws_hub_cal_kpx_group_2 pc_pred_kpx_group_2 pc_pred_rho_kpx_group_2 ws_hub_cal_kpx_group_3 pc_pred_kpx_group_3 pc_pred_rho_kpx_group_3 ldaps_ws117_mean_lag1 ldaps_ws117_mean_lead1 ldaps_ws117_mean_lag2 ldaps_ws117_mean_lead2 ldaps_ws117_mean_lag3 ldaps_ws117_mean_lead3 ldaps_ws117_mean_diff1 ldaps_ws117_mean_roll3_mean ldaps_ws117_mean_roll3_std ldaps_ws117_mean_roll5_mean ldaps_ws117_mean_roll5_std ldaps_g13_ws117_lag1 ldaps_g13_ws117_lead1 ldaps_g13_ws117_lag2 ldaps_g13_ws117_lead2 ldaps_g13_ws117_lag3 ldaps_g13_ws117_lead3 ldaps_g13_ws117_diff1 ldaps_g13_ws117_roll3_mean ldaps_g13_ws117_roll3_std ldaps_g13_ws117_roll5_mean ldaps_g13_ws117_roll5_std gfs_ws117_mean_lag1 gfs_ws117_mean_lead1 gfs_ws117_mean_lag2 gfs_ws117_mean_lead2 gfs_ws117_mean_lag3 gfs_ws117_mean_lead3 gfs_ws117_mean_diff1 gfs_ws117_mean_roll3_mean gfs_ws117_mean_roll3_std gfs_ws117_mean_roll5_mean gfs_ws117_mean_roll5_std t_hub_c_lag1 t_hub_c_lead1 t_hub_c_lag2 t_hub_c_lead2 t_hub_c_lag3 t_hub_c_lead3 t_hub_c_diff1 t_hub_c_roll3_mean t_hub_c_roll3_std t_hub_c_roll5_mean t_hub_c_roll5_std pc_pred_kpx_group_1_lag1 pc_pred_kpx_group_1_lead1 pc_pred_kpx_group_1_lag2 pc_pred_kpx_group_1_lead2 pc_pred_kpx_group_1_lag3 pc_pred_kpx_group_1_lead3 pc_pred_kpx_group_1_diff1 pc_pred_kpx_group_1_roll3_mean pc_pred_kpx_group_1_roll3_std pc_pred_kpx_group_1_roll5_mean pc_pred_kpx_group_1_roll5_std
feature_infos=[-1:1] [-1:1] [-1:1] [-1:1] [-0.99999073973619013:0.99999073973619013] [-0.99996295911626554:1] [12:35] [0.037558257400089542:17.220675322428377] [0.0260712023029031:25.061727458783203] [0.032575839325908539:32.058433456313246] [0.0010611853077874094:1027.7431556728645] [3.4569002081497444e-05:32947.835566319911] [0:0.59999999999999998] [0.038194321967669378:21.346620714476806] [-0.9999999999990884:0.99999998522778422] [-0.9999930624617891:0.99999935149962804] [0.038639325694456016:17.583720136881944] [0.020759366711198185:26.524257941753536] [0.02593872682336187:33.574061168891461] [0.00067281754921699256:1127.2175833724655] [1.7452030611103403e-05:37845.272094797168] [0:0.59999999999999998] [0.080057996658672775:22.330746162459988] [-0.9999999915450114:0.99999999842517306] [-0.99999815049566787:0.99999996401345137] [0.072986948134198801:17.304098389288239] [0.06412675495103895:26.947139313037404] [0.080126065591702322:34.346926738509218] [0.0064201863872057827:1179.7113763805194] [0.0005144242755722049:40519.460217127576] [0:0.59999999999999998] [0.05873878328064331:22.209264706569432] [-0.99999999924782734:0.99999999376750892] [-0.99999869477282211:0.99999996583978978] [0.034538255441076131:18.163822238688027] [0.036868704682480019:28.40814358594692] [0.04606726555748842:36.06946604256602] [0.0021221929559441586:1301.0063805958232] [9.7763626465710883e-05:46926.605466062771] [0:0.59999999999999998] [0.11810403775213425:19.715913856805873] [-0.99999999975750087:0.99999865866193915] [-0.99999996589508233:0.99999999856227206] [0.3326534929629808:32.371644545730788] [0.0548712157656722:5.5385063576208529] [0.013095272534408321:28.924557153829497] [0.54409205441525865:36.968141125686742] [0.03681088544897141:33923.002864070048] [0.3716423485156195:16.874287587242044] [0:0.59999999999999998] [0.1091601364604496:20.818955525660911] [-2.1774989712748818:16.174383331454383] [0.037774437800571173:14.904734518377575] [0.04019553644374247:26.120574498686349] [0.02659670900715207:27.639522885973996] [0.027713577866601224:28.998883763146463] [0:0.59999999999999998] [0.20034745000000001:30.501766] [0.029113052466668399:41.094286751142313] [0.039472125629124964:46.762838367986518] [0.097184212619383994:46.473374166654494] [0.081701572931429156:68.730342895930619] [2.12852028064847e-05:24386.183842817805] [0.3894105222128097:10.0113574] [-0.99999999927111594:0.99999998797240108] [-0.99999990971897412:0.99999987349978114] [0.012521724924816607:15.305853350548647] [0.020276552774576212:25.053680583230562] [0.03686404300832806:26.482453600699557] [0.038412065421865177:27.491176084524863] [0:0.59999999999999998] [0.11820969000000001:29.701767] [0.0066121794754045275:37.970386492788634] [0.023925600128816026:39.887524100662219] [0.13501859677040789:45.095540304656126] [0.067553381531406873:71.030052065506865] [5.6676494337324395e-05:20776.862164651197] [0.23641938000000001:8.4000000000000004] [-0.99999999630452618:0.99999994518185786] [-0.99999999605136369:0.99999963822794891] [0.37198347139342786:21.341902811568122] [0.14601816854123834:7.4824371542987187] [0.0013238967968377971:16.139082811857449] [0.75819847110213223:29.402373230666566] [0.051471986420805284:9720.7419318508382] [0.4338447588888889:26.260725999999998] [0.36842358622420651:35.85511413703675] [0.3971437823459627:70.498447382867852] [-6.5242214069418107:20.429860169961664] [0.0008670518882198941:20.429860169961664] [0.12226762224929939:10.883069326007744] [-23.287323333333319:29.128250000000037] [-24.034823333333321:28.380750000000035] [15.389539166666667:100] [0.00027540014666666669:0.020354096666666665] [88397.686666666661:91733.463333333333] [1.0130381363098582:1.2368026626761655] [-0.03714666666667199:23.407499999999999] [0.32591735470690725:31.51457604133952] [0.042409050481237831:38341.623281853295] [29.255926666666667:2892.4791333333328] [0:1] [0.25005065527065529:24.72204387464387] [0:73500] [2.0130750000000148:34.137210000000039] [-22.916699999999992:23.756090000000029] [5116.7941499999997:5970.3056500000002] [98921.498000000007:103380.76466666667] [0:0.99999999956597219] [0:1] [0:57.698569666666664] [-2.3606099999999997e-18:5.0392659999999996] [0:0.0069394000000000001] [0:221.4375] [0:5.9691595805453002] [1.8898799138901121:19.02202829924224] [0:19999.277343749996] [0:19999.277343749996] [1.3401024936052179:21.222436254332877] [0:20558.056179775285] [0:20558.056179775285] [0.26962131786808818:19.407023217579507] [0:18410] [0:18410] [0.3326534929629808:32.371644545730788] [0.3326534929629808:32.371644545730788] [0.3326534929629808:32.371644545730788] [0.3326534929629808:32.371644545730788] [0.3326534929629808:32.371644545730788] [0.3326534929629808:32.371644545730788] [-12.460164866921401:12.168952496122028] [0.56302044731061296:32.007258039286988] [0.0037716681324845534:7.4047298221183775] [0.78999425018133995:31.108417140609525] [0.03821835491357458:7.2479165692707577] [0.04606726555748842:36.06946604256602] [0.04606726555748842:36.06946604256602] [0.04606726555748842:36.06946604256602] [0.04606726555748842:36.06946604256602] [0.04606726555748842:36.06946604256602] [0.04606726555748842:36.06946604256602] [-13.966549926496441:10.974937327952055] [0.3139995962236351:35.676655341397328] [0.0051354214958984172:8.0124365031803837] [0.49523412952687024:35.10058614193202] [0.036305078539123729:7.6946975130382738] [0.37198347139342786:21.341902811568122] [0.37198347139342786:21.341902811568122] [0.37198347139342786:21.341902811568122] [0.37198347139342786:21.341902811568122] [0.37198347139342786:21.341902811568122] [0.37198347139342786:21.341902811568122] [-4.668244762795057:5.2405915238754739] [0.55377982184660501:21.272234079575405] [0.0020498982348987642:4.5548445231127586] [0.60174061482752683:21.180255416874783] [0.011516598478098586:5.7674614868893546] [-24.034823333333321:28.380750000000035] [-24.034823333333321:28.380750000000035] [-24.034823333333321:28.380750000000035] [-24.034823333333321:28.380750000000035] [-24.034823333333321:28.380750000000035] [-24.034823333333321:28.380750000000035] [-5.6523466666666877:3.9559033333333105] [-23.903719999999982:28.13910222222222] [1.9244647931640575e-05:4.3116366323968656] [-23.775195999999983:27.568414666666662] [0.0079681492689853469:5.1678226447816904] [0:19999.277343749996] [0:19999.277343749996] [0:19999.277343749996] [0:19999.277343749996] [0:19999.277343749996] [0:19999.277343749996] [-13668.205301344873:12013.822471968891] [0:19999.277343749996] [0:7820.4096325540941] [0:19999.277343749996] [0:7602.373438911136]
tree_sizes=6675 6895 6905 6932 6878 6945 6894 6919 6925 6935 6896 6946 6916 6905 6893 6924 6926 6897 6951 6923 6902 6937 6925 6945 6955 6924 6930 6926 6952 6918 6940 6929 6964 6942 6954 6937 6957 6918 6934 6934 6947 6923 6944 6949 6907 6933 6940 6957 6962 6956 6938 6956 6992 6981 6968 6951 6967 6943 6960 6923 6955 6965 6919 6971 6958 6945 6931 6977 6960 6957 6930 6942 6956 6956 6966 6990 6968 6937 6938 6991 6953 6982 6965 6983 6981 6946 6930 6939 6971 6962 6968 6977 7011 6924 6960 6946 6994 6954 6984 6954 6946 6949 6953 6978 6955 6971 6955 6954 6962 6955

Tree=0
num_leaves=63
num_cat=0
split_feature=142 24 173 86 1 97 79 89 177 44 65 139 15 55 1 100 149 159 155 144 162 61 82 110 125 172 69 96 88 4 173 125 107 168 155 107 17 50 114 116 7 22 116 86 96 178 107 14 69 22 81 158 173 169 154 90 106 97 7 4 17 88
split_gain=3.30861e+06 708609 392867 354336 226118 175071 119632 101159 100196 87202.4 86129.7 78404.7 77975.8 73246.2 69947.1 67254.6 66974.5 65648.4 85123 61143.3 60870.3 60372.5 60326.9 56374.8 56316 54730.7 50806.7 44631.7 43599 43154.2 57340.8 55448.3 43049.5 45748.5 48791.2 65379.8 40683.5 40279.2 39492.7 38844.5 38589.7 37977.9 37557.2 36612.4 34562.7 34516.4 33428.6 33144.6 31743.9 31465.8 29732.1 29441 27987.5 27984.1 27693 27580.6 30515 27196.2 40252.6 26475.7 26217.9 25275.4
threshold=14.931360597528245 -0.11332559052152842 12095.073151113251 17.947257221010343 0.1294095225512602 2.1316116666666294 -0.16490277719712162 11.845376935760543 14008.221845802904 2.1601166249414869 -0.37467308822643036 16.286499264919726 -0.30793483292786089 5.7601183736223955 -0.60355339059327384 166.11535666666671 4.0551273346675965 -8.7419149999999757 7.2614487214002841 17.240561364823538 -7.0158150000000026 28.921339056522658 1.2752581812807517 1.8575846333333337 13.604167338941265 10936.06891313338 3.1743051449165023 1.0887757670102487 10.922487700084391 0.34964421742355262 16902.233618447364 16.200442778137383 100071.05333333336 14177.086705067884 9.7052484945821735 101102.19083333336 11.377818173622087 0.60055531835673703 0.2777541481899849 15265.159231698299 7.4462876151797994 1.0079134389198332 14789.873663648217 9.0976181390088779 1.1555498351640492 2621.3136038346552 100443.33200000002 -0.97007065075553589 5.8350886473948274 0.79502758683204555 1.0218101912634381 -8.0046649999999584 8352.2437906791474 15951.600764766621 0.2985052535556828 3.6786749625412423 5629.0232000000005 1.5968416666666772 4.9465375943525567 0.89773508019357628 7.4763497006798314 7.4064819537738469
decision_type=2 2 2 2 2 2 2 2 2 2 2 2 2 2 2 2 2 2 2 2 2 2 2 2 2 2 2 2 2 2 2 2 2 2 2 2 2 2 2 2 2 2 2 2 2 2 2 2 2 2 2 2 2 2 2 2 2 2 2 2 2 2
left_child=2 3 9 4 11 8 14 17 -3 23 21 15 28 -5 -4 -2 22 18 42 54 41 25 -16 52 46 50 -11 45 36 30 51 59 -22 -34 -35 -36 -13 43 -10 -17 -21 -15 -7 -28 48 -18 -25 -29 55 -24 -6 -14 -1 -53 -12 56 -27 58 60 -31 -54 -39
right_child=1 5 6 13 10 7 -8 -9 38 26 19 12 29 20 16 39 27 -19 -20 40 32 -23 49 24 -26 44 37 47 -30 31 -32 -33 33 34 35 -37 -38 61 -40 -41 -42 -43 -44 -45 -46 -47 -48 -49 -50 -51 -52 53 57 -55 -56 -57 -58 -59 -60 -61 -62 -63
leaf_value=15435.805297851562 15954.292855936279 15766.672980662925 15757.692524314913 15855.236865234376 15967.399543350517 15812.737584996756 15686.366217287352 16002.900257258707 15977.592493458304 15557.220208033101 15765.890120740733 15992.36778468479 15886.507897271327 15966.205942146864 15940.359175704876 15756.484198190363 15979.882478438843 15711.281844666035 15760.44084239824 15990.985503056279 15954.423778086117 15905.607266174749 15838.24245707053 15870.090696163781 15861.103394327358 16018.130541024972 15920.679165119996 15724.063703918324 15991.100391108886 15753.795904441602 15984.570762004307 15703.363176793384 15953.208955149461 16062.06005859375 16012.368235105465 15873.629588311373 15863.777675002886 15747.973255842831 15873.298700080872 15860.298974609375 15883.766644135585 15864.14058872641 15920.412289521699 15775.329569743097 16084.785125677148 15910.643422462306 15698.305985218227 15894.287402343751 16031.68740234375 15731.359767969761 15845.011151371898 15755.990057876208 15568.742172423739 15880.757042844869 15874.780426335819 16008.400923864647 15903.141892676249 15588.712918487494 15693.323687818991 15921.821657413202 15878.698351133342 15850.017175655723
leaf_weight=15518433.176739693 674243.49755859375 509927.55590820312 1011871.4474334717 553562.9052734375 656858.78002929688 530667.72509765625 1808082.7749938965 503260.04345703125 1041000.2478942871 2016034.0477619171 689502.13330078125 642641.49597167969 511807.76684570312 624591.4755859375 414094.67282104492 1810599.3483886719 779434.04614257812 3060288.5100402832 1322062.7978515625 814955.55742168427 1050574.8648681641 997046.70874023438 723693.0322265625 222399.97685241699 206533.89501953125 770307.79541015625 933408.8193359375 487278.2568359375 750739.1318359375 529149.09503173828 1004365.0673828125 580088.33740234375 839861.11669921875 5426764.8410644531 2079180.197013855 691801.76904296875 757739.30908203125 3105182.1513347626 592338.63500976562 718847.87719726562 632068.92138671875 693869.99844360352 692467.07421875 541630.796875 1049143.0048828125 541905.5989151001 570224.46157264709 977781.78258037567 1648207.0034179688 647746.98919677734 589243.51684570312 717618.50390625 317249.37030029297 591557.62255859375 546707.36828613281 737548.73828125 1217436.3088378906 3612144.7663173676 1527425.1808013916 482953.76416015625 407354.84399414062 404823.78625488281
leaf_count=8420 47 48 94 41 41 44 206 35 71 371 62 40 36 39 37 170 49 307 107 53 73 73 59 38 14 46 76 44 45 51 64 54 56 309 137 46 58 324 50 56 47 53 44 47 56 55 151 76 97 75 45 59 48 42 43 46 85 549 184 35 42 37
internal_value=15851.6 15851.6 15851.6 15851.6 15851.6 15851.6 15851.6 15851.6 15851.6 15851.6 15851.6 15851.6 15851.6 15851.6 15851.6 15851.6 15851.6 15851.6 15851.6 15851.6 15851.6 15851.6 15851.6 15851.6 15851.6 15851.6 15851.6 15851.6 15851.6 15851.6 15851.6 15851.6 15851.6 15851.6 15851.6 15851.6 15851.6 15851.6 15851.6 15851.6 15851.6 15851.6 15851.6 15851.6 15851.6 15851.6 15851.6 15851.6 15851.6 15851.6 15851.6 15851.6 15851.6 15851.6 15851.6 15851.6 15851.6 15851.6 15851.6 15851.6 15851.6 15851.6
internal_weight=7.71083e+07 4.03336e+07 3.67747e+07 3.20816e+07 2.01214e+07 8.25201e+06 7.39189e+06 6.10875e+06 2.14327e+06 2.93828e+07 1.0349e+07 9.77235e+06 6.56866e+06 1.19602e+07 5.58381e+06 3.20369e+06 4.57193e+06 5.60549e+06 2.5452e+06 2.68323e+06 1.14066e+07 7.66579e+06 1.78553e+06 2.23818e+07 999158 6.66875e+06 7.00108e+06 2.7864e+06 2.15112e+06 4.41754e+06 2.82535e+06 1.59219e+06 1.00882e+07 9.03761e+06 8.19775e+06 2.77098e+06 1.40038e+06 4.98505e+06 1.63334e+06 2.52945e+06 1.44702e+06 1.31846e+06 1.22313e+06 1.47504e+06 5.42264e+06 1.32134e+06 792624 1.46506e+06 4.3735e+06 1.37144e+06 1.2461e+06 1.82098e+06 2.13826e+07 1.30918e+06 1.23621e+06 2.72529e+06 1.98774e+06 5.86417e+06 2.25203e+06 1.0121e+06 724604 3.51001e+06
internal_count=13907 2911 10996 2205 1451 706 695 537 169 10301 694 757 484 754 489 273 395 502 195 205 713 489 171 9446 203 416 855 224 143 341 201 140 621 548 492 183 98 484 121 226 100 92 88 123 330 104 189 120 274 134 86 137 9243 101 105 177 131 823 274 86 90 361
is_linear=0
shrinkage=1


Tree=1
num_leaves=63
num_cat=0
split_feature=119 24 59 140 65 74 82 1 105 115 97 177 102 171 59 104 15 107 114 1 93 87 50 136 88 107 24 128 156 151 169 67 59 53 95 104 114 64 42 98 22 16 3 44 128 1 72 57 1 15 59 146 48 112 125 175 119 36 125 104 169 140
split_gain=3.18038e+06 678673 329370 320235 179272 137803 138500 120903 119862 131379 100138 94871.8 90849.2 86781.5 76310.8 75243.5 72816 66724.4 63848.1 61027.2 93286.7 61180.8 60946.1 59282.6 53342.3 51955.1 51910.3 50045.5 49673.1 48355 48282.6 64794.3 49067.8 46473.7 44960.4 42741.7 42265.4 41625 40605 39930 39817.4 46579.3 37317.9 35540 42304.1 35494.4 32825.6 32511 32173.2 32154.2 32079.7 32417.1 31524.2 31056.4 30607.2 28539.3 36747.8 26669.8 26145.1 25571.7 24697.6 22770.8
threshold=13817.259241010661 -0.10758953851236598 16.556554372725056 14.47556514567516 -0.37243631505058689 16.402342089545375 2.7870256214613947 0.1294095225512602 -8.4706999999999919 9.8279602931991707 2.1945999999999803 14008.221845802904 3.3296714387464399 8051.7992896028127 19.065526453962864 24.193867499999985 -0.22736555652311541 102402.85250000002 0.32658038477654089 0.37940952255126048 59.028332500000012 14.98024016695155 2.1556327814390399 15.277253483556139 10.481957332642226 100109.42683333335 -0.25066549268707589 12.307428051939874 0.24964220447680696 4.2319630520652822 18505.247016453806 6.3801268178322799 19.516461374757323 7.5124988792762633 89765.039666666664 22.55776999999998 8.9501234694312665e-12 -0.92026602016991699 -0.066634251776580916 9.0860619898636248 2.4222658621596787 6.7604187250804904 0.93301270189221952 1.9650640974376627 10.495628505180541 0.1294095225512602 10.080818568787025 8.2092185000000004 0.37940952255126048 -0.31063377846393397 6.9569458962798514 3.2126375611817632 6.4604015877501206 0.00093440000000000005 10.184619859795463 9053.8457472646205 12316.749994624439 14.13590919089434 18.489603040337808 21.487685000000017 7544.5249279599129 15.277253483556139
decision_type=2 2 2 2 2 2 2 2 2 2 2 2 2 2 2 2 2 2 2 2 2 2 2 2 2 2 2 2 2 2 2 2 2 2 2 2 2 2 2 2 2 2 2 2 2 2 2 2 2 2 2 2 2 2 2 2 2 2 2 2 2 2
left_child=3 2 4 13 5 6 15 14 48 29 11 -3 24 53 -5 28 22 27 -13 20 -11 -22 55 54 42 -21 36 -6 -2 -10 31 -23 -33 35 58 46 59 60 -8 -18 41 -31 -12 47 50 -25 -29 -39 -4 -43 -45 -52 -47 57 -17 -9 -57 -1 -34 -7 -15 -40
right_child=1 10 8 7 17 26 38 16 9 19 12 18 -14 37 -16 23 39 -19 -20 25 21 30 -24 45 -26 -27 -28 33 -30 40 -32 32 34 -35 -36 -37 -38 43 61 -41 -42 49 -44 44 -46 52 -48 -49 -50 -51 51 -53 -54 -55 -56 56 -58 -59 -60 -61 -62 -63
leaf_value=-377.38117912510916 43.566426726809837 -125.1684505042887 -106.87090530348276 -127.507635837853 -145.40122817052247 33.369908052519833 78.647948226887877 -165.04183786877826 183.68021953009111 15.52807219340542 -48.571010679712444 119.89962309458284 -137.53369008538854 -127.10831591651397 113.76702227499977 28.100848793886229 29.882222572978421 50.326714809839011 -20.865883786258905 66.217838209875993 190.37044330674121 170.96060255368982 100.30908145382321 38.698333775598314 136.75682620799537 187.22285675316917 -81.062395305138637 -160.91447033870756 -100.51387684995007 42.449937621552749 156.82635833858893 -12.970683202720227 99.667657809681756 -142.06918340282061 153.51458328623087 75.825897815718278 90.155247523810246 -187.63351623807819 136.1878442545196 -122.86684032954015 71.80736638021834 27.067379346523548 42.186049732341793 -191.44880138680185 45.582709345478172 71.299102858014223 18.181761144878763 -57.531258307659805 40.99847195997841 -88.440307242911913 31.744711357923315 -118.63491469626159 208.2090419403587 -4.3244808845417824 -58.395843703617246 95.350052616828918 -21.633337738697957 -46.5358272196668 -8.8985397960388504 -113.01363458362175 -231.66193101695191 201.88930194231511
leaf_weight=18353457.992263794 952803.91625976562 809662.0400390625 641253.0325012207 2600808.4425506592 969523.32861328125 495146.2041015625 1185357.0419921875 495261.9154510498 600683.87255859375 933640.23040771484 2313729.2245483398 978924.37768554688 2580907.1347351074 342270.62951660156 393470.20922851562 560563.07080078125 399993.09289550781 771378.0615234375 610967.1787109375 453203.0517578125 1818496.2353515625 998406.24975585938 877393.01089000702 668877.6630859375 478224.31591796875 5731055.2416381836 854512.29229736328 646806.8863401413 761774.52294921875 622132.7421875 2242512.6315917969 725602.166015625 590906.77856445312 668545.01025390625 821709.845703125 692018.71899414062 772245.85073852539 2754971.2446098328 619558.2919921875 826048.802734375 609607.64306640625 701043.728515625 907592.08642578125 601016.52270507812 665015.99621582031 619789.7109375 489520.0390625 814883.23844909668 557757.2255859375 500974.86303710938 547199.11767578125 661212.18481445312 765260.1474609375 274843.3902130127 532779.34594726562 570253.39095306396 632401.57946777344 370459.33078384399 597371.80639648438 487119.15478515625 2289387.7338256836 1878981.158203125
leaf_count=8974 68 78 59 294 98 38 77 62 37 67 200 65 256 46 27 39 35 57 52 31 103 62 71 51 32 340 79 65 70 44 143 55 38 60 50 54 56 386 43 82 39 52 72 70 56 41 34 77 36 43 48 64 43 44 44 44 52 47 44 44 290 104
internal_value=-0.000101538 0.00893318 0.0120742 -0.0114293 0.00662859 0.00995451 0.0130252 -0.00170385 0.0164521 0.0174747 -0.00356531 0.00512308 -0.00688485 -0.0138174 -0.00921827 0.00748438 0.00421517 -0.00212591 0.0122179 0.0194044 0.0167121 0.018501 0.00898994 0.0120755 -0.00186204 0.0232043 -0.000103346 -0.00508553 -0.000942994 0.00799105 0.0160575 0.0125748 0.00859573 -0.00134191 0.0126192 0.00278296 0.00481862 -0.00967409 0.0203377 -0.00581426 0.00485534 0.00115822 -0.00417533 -0.00738885 -0.00278372 0.0170822 -0.00318292 -0.0105809 0.00114634 -0.00458984 -0.00674712 -0.00205195 0.0216499 -0.0157095 0.00266998 0.00346068 0.00762055 -0.0159544 0.0064006 -0.00206232 -0.0149227 0.0239533
internal_weight=7.76893e+07 4.32189e+07 3.45389e+07 3.44703e+07 1.53926e+07 1.11548e+07 8.54574e+06 6.79563e+06 1.91464e+07 1.79473e+07 8.68001e+06 2.39955e+06 6.28045e+06 2.76747e+07 2.99428e+06 4.86185e+06 3.80135e+06 4.23779e+06 1.58989e+06 1.49129e+07 8.72865e+06 7.79501e+06 2.57531e+06 3.14727e+06 3.69955e+06 6.18426e+06 2.60902e+06 3.46641e+06 1.71458e+06 3.03444e+06 5.97651e+06 3.734e+06 2.73559e+06 2.49689e+06 2.00999e+06 1.82835e+06 1.75451e+06 8.67596e+06 3.6839e+06 1.22604e+06 2.43376e+06 1.82415e+06 3.22132e+06 6.0443e+06 2.47444e+06 2.05393e+06 1.13633e+06 3.56985e+06 1.19901e+06 1.20202e+06 1.80943e+06 1.20841e+06 1.38505e+06 1.89988e+07 1.09334e+06 1.69792e+06 1.20265e+06 1.87239e+07 1.18828e+06 982265 2.63166e+06 2.49854e+06
internal_count=13932 3163 2408 10769 1165 797 580 667 1243 1148 755 195 560 10102 321 356 346 368 117 933 562 495 229 218 304 371 217 311 138 215 392 249 187 213 132 153 138 1037 224 117 178 139 272 701 238 135 99 463 95 95 182 112 84 9065 83 158 96 9021 82 82 336 147
is_linear=0
shrinkage=0.05


Tree=2
num_leaves=63
num_cat=0
split_feature=173 79 119 119 108 60 6 46 5 44 86 66 6 173 34 144 107 172 103 113 79 24 44 46 176 100 144 0 53 103 113 100 69 104 100 49 126 159 78 5 44 83 96 129 110 5 49 96 168 65 5 24 86 145 25 112 118 94 167 44 151 172
split_gain=3.06189e+06 532627 363725 289218 172161 153532 131514 113156 107750 105560 100399 195046 88658.1 87659.9 74213.3 73530.4 71028.5 69469 68189.2 62007.9 61503.5 68394.5 60819.2 59167.4 58553.4 56975.6 58628.3 68000.5 56765.1 54374.2 54213.1 53278.3 66906.2 47808.1 45814.9 44347 43659.6 42687.3 56412.1 41515 42284 41167.9 40674.3 40375.6 37339.6 36881.6 36855.1 35890.7 40285.6 35810.2 42892 35708.8 42673 37826.1 32940.5 32212.8 32080.9 30890.7 57331.4 30502.3 29851.3 27661
threshold=11765.702619309011 -0.14747164137059884 16834.216665224241 13817.259241010661 0.00057465958556870403 4.6746904352930159 30.500000000000004 16.818676599089709 0.85651926849515192 2.4233441077138385 16.377931281663692 4.0690977849665932 21.500000000000004 7941.4232774634029 7.5363957282768341 14.76396630907151 100025.69333333334 14305.713300588561 34050.000000000007 0.17187500000000003 -0.032183838146512524 -0.14266139366696803 1.1963757708731901 15.622525154163887 1165.6590030726991 397.07801000000012 16.189472398610054 0.12940952255126045 4.8622974075489331 5875.0000000000009 0.17187500000000003 159.65920333333335 4.5609058291155824 22.49016499999998 443.27203000000009 0.24069247348124048 13.506210548193939 -11.085784999999985 -0.95010115678410179 0.98927755889796032 1.1708514408648616 7.7986162339933358 1.1549257799494197 13.787782295680424 2.6256510333333338 -0.13301470653419609 0.25396832728638946 1.1768782688981065 16905.816983623667 -0.39523925258376957 -0.96227343267549392 -0.11580270822014858 8.3234899520538672 0.93862653206861613 7.153049005423016 0.00085360000000000004 8.0490476524166308 0.007080054750000001 0.441191081965288 2.1984110510191686 4.0265354140340373 13069.287753462007
decision_type=2 2 2 2 2 2 2 2 2 2 2 2 2 2 2 2 2 2 2 2 2 2 2 2 2 2 2 2 2 2 2 2 2 2 2 2 2 2 2 2 2 2 2 2 2 2 2 2 2 2 2 2 2 2 2 2 2 2 2 2 2 2
left_child=3 2 6 13 9 -5 12 61 34 25 11 33 23 55 30 -14 22 -11 39 29 21 -10 -12 31 -17 26 -3 -28 -21 37 60 -2 -33 47 -9 -25 -19 -7 -39 40 -18 -42 45 -34 49 -35 -37 48 -4 50 -15 53 -53 54 56 59 -52 58 -16 -1 -8 -6
right_child=1 4 10 5 7 19 14 8 20 17 16 -13 15 44 57 24 18 36 -20 28 -22 -23 -24 35 -26 -27 27 -29 -30 -31 -32 32 43 42 -36 46 -38 38 -40 -41 41 -43 -44 -45 -46 -47 -48 -49 -50 -51 51 52 -54 -55 -56 -57 -58 -59 -60 -61 -62 -63
leaf_value=-389.17281726444764 76.026790954739752 -120.58482886820741 -56.531240787917653 127.06424336350402 -117.01759965710687 20.178706698438159 -86.307993648707907 162.5723705281257 -18.700056820298453 -114.9821606176932 185.27903849040507 -23.763744745265072 -201.1030215177671 63.137293135025416 171.66517750459735 -32.627255984253637 70.704867677696882 77.055885487905599 11.378310503023922 -89.133277434708589 -70.359849886924778 66.192411902079854 -30.008389228002859 133.55285128052157 75.764417248728193 -149.78462712193166 41.052950263879886 -64.979054657853183 41.447241556678904 -175.99671570219184 87.754092318598509 -65.504211276103973 60.011444142587663 159.49709093110124 57.384849162408472 -40.784032791144597 11.292455331865732 -105.17071032726733 33.921288780479664 94.765303132117253 147.8819123336327 192.43767565877317 203.11792973909718 -19.206516569061733 27.527069130485771 97.155215887456052 61.488293605961729 113.99298114973789 40.037866388163309 -206.24664655468024 -32.972795217255914 -259.49717377470159 60.936536741799969 -189.63536978500571 45.062241388412389 -7.4222805789829298 -157.44427027661388 150.0330884329982 8.0425083332326306 -157.86803440620062 28.179073468862715 0.37870005593009887
leaf_weight=15614974.755984306 1067655.8539733887 1072645.6440916061 595346.9609375 554300.52392578125 712223.74951171875 528483.79077148438 477211.89654541016 1241879.0541992188 540068.77505493164 535238.08471679688 576588.24975585938 1484628.69921875 995990.89613342285 419098.92476654053 815953.50964355469 1338695.4301757812 860138.4619140625 689603.36519622803 717430.48413085938 586712.46267700195 688012.42431640625 547618.54965209961 580927.201171875 933220.79125976562 1000228.6131591797 2385538.8049621582 1132740.0603027344 999606.69506835938 1057141.1354980469 1151412.0027160645 642974.1421585083 1014026.4621458054 587305.44958496094 997451.68798828125 694159.267578125 455227.89877700806 956824.67222881317 1976130.1903076172 643610.525390625 714335.36328125 840699.97497558594 6280047.7625045776 812540.20703125 661414.67437744141 333419.17687988281 1342817.4373779297 1805002.1010742188 733354.41748046875 603518.65283203125 3266417.4423294067 450585.22253417969 387207.6628112793 371023.38940429688 2519511.0383520126 404953.955078125 268204.80031585693 750753.59460449219 1173352.62109375 696632.46350097656 2915049.4811859131 724141.39428710938 504937.76879882812
leaf_count=8589 79 118 46 35 66 41 56 77 47 50 37 112 124 45 51 108 58 50 52 60 56 35 45 60 70 241 79 82 83 126 52 95 42 59 52 38 79 200 51 44 54 355 43 60 28 88 122 49 39 462 51 52 32 341 30 50 84 70 53 435 56 42
internal_value=-8.446e-05 0.00860264 0.0120851 -0.0113196 -4.21997e-05 -0.00182573 0.00622388 0.00726774 0.011606 -0.00467795 0.0170057 0.0121517 0.00298355 -0.0135465 0.0132755 -0.00364819 0.0200226 0.00464985 0.0214599 -0.00417287 0.00271071 0.0101116 0.00833466 0.00637361 0.00119666 -0.00831806 -0.00396326 0.000833072 0.00408669 -0.0073307 0.00555264 0.00171087 -0.00263317 0.0168068 0.0197647 0.0112363 0.00973698 -0.00393027 -0.00654528 0.0226823 0.023716 0.0249809 0.0206021 0.0051146 -0.00945946 0.0172558 0.00745024 0.0106139 0.00528413 -0.0100982 -0.0075615 -0.00887873 0.00109418 -0.0107115 -0.00471558 -0.0154822 -0.0088727 0.0185785 0.0138558 -0.0157312 -0.000718762 -0.0059619
internal_weight=7.84289e+07 4.423e+07 3.15289e+07 3.4199e+07 1.27011e+07 6.49779e+06 1.4389e+07 4.9289e+06 3.71174e+06 7.7722e+06 1.71398e+07 6.56966e+06 9.85877e+06 2.77012e+07 4.53027e+06 3.33491e+06 1.05702e+07 2.18167e+06 9.41265e+06 5.94349e+06 1.7757e+06 1.08769e+06 1.15752e+06 6.52385e+06 2.33892e+06 5.59053e+06 3.20499e+06 2.13235e+06 1.64385e+06 4.29964e+06 1.84433e+06 3.3304e+06 2.26275e+06 5.08503e+06 1.93604e+06 3.19345e+06 1.64643e+06 3.14822e+06 2.61974e+06 8.69522e+06 7.98089e+06 7.12075e+06 3.15281e+06 1.24872e+06 8.90297e+06 2.34027e+06 2.26023e+06 1.93222e+06 1.19887e+06 8.56955e+06 5.30313e+06 4.88403e+06 758231 4.1258e+06 1.60629e+06 1.87982e+07 1.20134e+06 2.68594e+06 1.51259e+06 1.853e+07 1.20135e+06 1.21716e+06
internal_count=14086 3291 2217 10795 1074 596 1136 375 267 699 1081 436 798 10199 338 302 645 179 563 561 138 82 82 496 178 520 279 161 143 418 164 276 197 324 129 220 129 292 251 511 467 409 190 102 1125 147 160 134 85 1097 635 590 84 506 165 9074 135 174 104 9024 112 108
is_linear=0
shrinkage=0.05


Tree=3
num_leaves=63
num_cat=0
split_feature=144 15 59 169 103 97 105 73 140 74 169 79 140 103 88 167 137 156 107 34 165 55 97 45 39 156 18 37 107 146 16 16 57 147 52 156 13 107 97 73 45 121 45 105 128 64 35 127 133 61 107 7 167 63 24 141 57 52 167 64 176 13
split_gain=2.80995e+06 636633 303331 262143 158100 126215 117601 120145 108840 108383 125589 106452 93717.4 89714.6 80532.8 78657.5 69531.5 63035.1 61191.7 57837.9 54969.2 54154.1 77408.5 81256.8 53859 53829 51691.4 66615.8 54919.4 112490 53177.8 51068.5 49486.3 67340.6 45975.5 44632.3 43815.4 43139.6 45124.2 41025 38253.4 37239.8 36965.2 44568.4 36535.7 37704.6 36055.7 46238.2 35366.5 35246.4 34475.7 33241.6 33140.9 31069.8 29765.4 28591.2 28354.9 28904.5 27496.5 27275.4 25904.5 25742.6
threshold=14.673714215060286 -0.13237470334308502 16.964741293183327 9634.3121691296783 2325.0000000000005 2.3499366666666508 -8.4706999999999919 20.295794895447777 15.607973225605411 4.1709671264218953 15020.39807546856 -0.19354393032453687 14.364000117478257 10275.000000000002 6.9355713169276507 0.94951189714900763 16.069176366801582 0.75982334437028631 102430.62300000001 7.1578374158897677 0.97877265856943507 4.1246599444695411 0.80402333333333342 6.9756949210578041 0.251166731833257 0.81598529435498102 12.709438588782925 261.29360166028215 101072.55333333336 7.556854762835707 8.5624353276634668 8.0028230604924993 7.4161157500000003 5.7307873479737959 3.2005015450552863 0.30924527159121368 1.3739351720650557 102227.86916666669 0.097281666666646074 8.6437791720528576 8.2400430372769531 8.0265241750377161 4.8811450251756368 -5.6899074999999746 10.632531621238661 -0.89639454361460025 12.504661978927482 12.074941659388388 16.625537099321058 9.1562798848684004 101834.20566666669 10.095366358942433 0.6389401006646972 2.4403139669007081 -0.18258046507735312 -0.45819988959673758 19.157404500000002 3.8055021108059406 0.2790990455457199 -0.97399564798012783 2037.051402494174 3.7421972584322742
decision_type=2 2 2 2 2 2 2 2 2 2 2 2 2 2 2 2 2 2 2 2 2 2 2 2 2 2 2 2 2 2 2 2 2 2 2 2 2 2 2 2 2 2 2 2 2 2 2 2 2 2 2 2 2 2 2 2 2 2 2 2 2 2
left_child=3 2 4 12 9 8 50 15 -3 -2 18 21 19 14 -7 26 54 -10 31 39 56 60 34 44 -18 -17 -8 -28 58 30 40 46 -26 -34 -23 -12 -35 38 -13 -1 -30 -39 43 -41 45 -24 -11 -48 -16 -45 -4 -15 55 -25 -6 -14 57 -9 -29 -59 -5 -44
right_child=1 5 6 11 16 13 7 20 17 10 35 37 52 51 48 25 24 -19 -20 -21 -22 22 23 53 32 -27 27 28 29 -31 -32 -33 33 36 -36 -37 -38 41 -40 42 -42 -43 61 49 -46 -47 47 -49 -50 -51 -52 -53 -54 -55 -56 -57 -58 59 -60 -61 -62 -63
leaf_value=-391.86822732761169 162.92104317677604 -160.05074873511754 -59.342453571932232 -178.66022782895297 -82.187933654917856 89.356986730343124 182.10027845158771 187.84773791163786 -1.9947852652698588 -28.123193609174287 163.20726210800561 -1.1955119632168392 59.449651841406457 -131.44458346113649 -90.912255220546939 -22.009268462246396 83.097437042207275 88.039490786231511 87.943301594128613 38.337032024828225 128.27660971528266 37.509246295213977 -72.493297387586139 -135.9653187180501 -85.479605805739226 80.180414833466315 2.2734870604925406 123.28783643716781 149.23001384418043 -38.23588448041744 172.81932584310357 90.244151483507551 112.6997432278861 -79.603425681893555 125.33685529658199 123.5913299772228 25.063486169153567 -71.915862023858026 -195.43200062983524 53.254007942046989 -6.7000659357887997 14.277831127389138 -228.04188293095285 53.922546710523704 58.347826916287957 46.945875131226742 80.621608771278858 -50.919608208672713 97.817741432032392 -149.80704112391581 -7.7343980588717844 -42.735991962350283 -246.57765824188502 -65.520579102002813 46.718752150150706 -92.90289322236174 136.16241700062972 78.951843904742645 162.11113082235025 186.01723716940037 -92.864133695473143 -32.081182747417337
leaf_weight=13801612.92735672 903860.5869140625 556021.6416015625 553042.22940063477 736362.76124572754 1542770.5858154297 502580.27490234375 720279.7255859375 877552.10620117188 727453.45129394531 1593131.3071289062 1883320.1030273438 419069.99975585938 523016.71850585938 2695093.7727966309 1497168.2552490234 908763.59619140625 1066686.8199033737 1028894.5916442871 982120.73364257812 264357.59944152832 976060.6689453125 655369.07025146484 635178.50280761719 1011263.9969482422 913131.46942138672 1271571.9081764221 808259.11755371094 854700.31298828125 606845.17626953125 606454.67236328125 1269807.3994140625 485788.54541015625 907085.87487792969 822331.77075195312 586365.34436035156 816069.22058105469 875469.40747070312 534413.69006347656 2880468.0679426193 513528.88220214844 704890.92700195312 471036.12829589844 5604054.2495126724 338408.97323513031 810746.7822265625 1317347.8154296875 1008313.5232772827 525605.62475585938 496476.8232421875 1941678.9447250366 652302.88830566406 815996.9072265625 601869.85346221924 561416.40234375 451597.64086914062 709981.95358276367 667575.97667694092 896108.34155273438 2351810.7125244141 4261540.5446777344 457455.22171020508 589605.09528160095
leaf_count=8252 51 60 45 87 135 35 40 58 57 130 113 40 45 258 144 71 74 71 67 28 69 60 58 112 88 81 61 55 36 43 73 32 66 71 39 57 63 54 368 53 51 36 894 43 62 104 77 46 34 301 51 61 85 51 38 82 58 56 139 236 54 83
internal_value=0.000198243 0.00896849 0.0120211 -0.0100644 0.00664915 -0.0034204 0.0162019 0.0172264 0.00650581 0.0112821 0.00925843 -0.00366562 -0.0129122 -0.00724126 5.44529e-06 0.0136434 0.000875962 0.0126093 0.00422986 -0.0137778 0.0219407 0.000242689 0.00231133 -0.000840839 0.00426616 0.00523351 0.0159577 0.0146806 0.0163901 0.011743 0.0162953 0.00122148 0.00128207 0.0047931 0.0133182 0.0178182 -0.00108308 -0.00981317 -0.0125761 -0.0140475 0.00923465 -0.000746066 -0.0114186 -0.00664389 0.00432292 0.000618147 -0.00112156 0.00435004 -0.00450369 -0.00964103 0.00108793 -0.0123933 -0.00203671 -0.0099138 -0.00691752 0.00265812 0.023555 0.0246366 0.0210105 0.0260639 -0.00942229 -0.0135722
internal_weight=7.80491e+07 4.20845e+07 3.37648e+07 3.59646e+07 1.47773e+07 8.31969e+06 1.89876e+07 1.77822e+07 2.31237e+06 8.19821e+06 7.29435e+06 1.10765e+07 2.48881e+07 6.00732e+06 2.49623e+06 1.01034e+07 6.57907e+06 1.75635e+06 4.59496e+06 2.30532e+07 7.67884e+06 6.77151e+06 5.57769e+06 4.33595e+06 4.58471e+06 2.18034e+06 7.92305e+06 7.20277e+06 6.39451e+06 3.188e+06 2.58154e+06 3.61284e+06 3.51802e+06 2.60489e+06 1.24173e+06 2.69939e+06 1.6978e+06 4.30499e+06 3.29954e+06 2.27889e+07 1.31174e+06 1.00545e+06 8.98728e+06 2.79362e+06 2.76327e+06 1.95253e+06 3.12705e+06 1.53392e+06 1.99365e+06 2.28009e+06 1.20535e+06 3.51109e+06 1.83487e+06 1.57268e+06 1.99437e+06 1.233e+06 6.70278e+06 6.0352e+06 3.20651e+06 5.15765e+06 1.19382e+06 6.19366e+06
internal_count=14042 3051 2331 10991 1108 720 1223 1127 188 573 522 1125 9866 532 213 650 535 128 352 9654 477 627 486 387 362 152 498 458 397 203 160 285 288 200 99 170 134 498 408 9626 87 90 1374 397 224 162 253 123 178 344 96 319 212 163 173 127 408 350 194 292 141 977
is_linear=0
shrinkage=0.05


Tree=4
num_leaves=63
num_cat=0
split_feature=177 79 59 171 79 93 73 6 6 79 129 35 107 74 112 113 103 177 93 53 147 97 34 6 100 75 83 164 66 87 12 4 96 150 151 89 129 4 164 122 107 107 73 100 107 94 113 6 50 56 68 30 166 70 35 44 59 124 85 78 118 106
split_gain=2.58608e+06 581128 327708 221765 152710 160480 143246 136389 129668 113955 113433 104903 98940.2 95523.3 89977.7 84370.5 80451.9 90130.5 77232.3 68368.6 65538.1 72674.9 57362.1 54690 65432.8 54591.8 52934.3 52550.6 51967.4 48844.2 45351.3 45266.8 54179 45082.7 45059.7 44243.2 46490.2 52001.6 43960.3 38934.4 38849.2 59769 38253.2 38200.6 36496.9 51287.7 36061.5 35434.3 33976.5 32382.5 32006 30188.4 29545.7 29030.4 28049.6 27402.5 26624.4 40645.2 24350.7 24241.7 29339.6 34048.3
threshold=11296.687071864992 -0.15483339918849995 20.963507755413545 7803.4621038528803 -0.022536080243059267 98.988776000000016 19.141460009261731 30.500000000000004 20.500000000000004 -0.19935290760301 17.147644056192355 12.504661978927482 102305.07733333336 16.526967154771999 0.00085360000000000004 2.3906250000000004 36025.000000000007 14386.089873311323 98.317130166666672 4.1247934483773392 3.1929233486612034 0.84375499999998749 8.9656392643947562 27.500000000000004 235.14781833333336 21.96837612130696 9.3447300748880036 -8.7109949999999561 2.5661134091839526 28.633033053773264 0.20731275685619602 -0.2760944163666606 1.1416936410726775 5.3188550074662189 4.3378937022897368 8.6071449568770539 12.80330524251765 0.047320950113892181 -4.5830155555555132 7438.0301612112662 102388.51500000003 100659.3 21.261624186930387 308.7925483333334 101503.77400000002 0.014343404833333335 0.046875000000000007 33.500000000000007 2.1749918864824922 0.27352446660523438 4.6265951094850832 0.24700374798677774 -9.5361519999999675 0.26200645920256549 17.189409153393743 2.6996055467335105 8.6900965810114386 9.9407583792608794 2.2754331905555563 -0.97619322451348012 10.994908063426644 5741.2444000000014
decision_type=2 2 2 2 2 2 2 2 2 2 2 2 2 2 2 2 2 2 2 2 2 2 2 2 2 2 2 2 2 2 2 2 2 2 2 2 2 2 2 2 2 2 2 2 2 2 2 2 2 2 2 2 2 2 2 2 2 2 2 2 2 2
left_child=3 2 7 14 6 43 12 8 11 19 35 33 22 44 39 29 17 -4 38 56 -21 28 30 24 -8 -12 46 -25 -22 59 -3 -19 42 40 -14 -10 -37 -38 -15 -1 41 -2 -33 -6 45 -13 -24 58 55 -44 -31 -46 -41 -27 -26 -23 -5 -58 -11 -9 61 -61
right_child=1 4 16 9 5 -7 23 15 10 47 25 13 34 18 -16 -17 -18 31 -20 20 21 48 26 27 54 53 -28 -29 -30 50 -32 32 -34 -35 -36 36 37 -39 -40 52 -42 -43 49 -45 51 -47 -48 -49 -50 -51 -52 -53 -54 -55 -56 -57 57 -59 -60 60 -62 -63
leaf_value=-355.47425070224921 69.578135225395584 4.864392659823773 49.970889850649257 -163.1953654555042 -39.649116923753972 73.405849593220665 71.770139315316001 106.85509667204772 -71.481058407602859 -67.537527206286995 96.688338292650627 19.355290324159526 -3.2555197776052958 124.83568839657102 22.052634117478107 -13.621301919583221 86.716710516231458 171.07023382862621 164.16151751315229 130.37868197277288 -7.8856449399378921 -100.36959332331975 0.96121848915824981 30.154850582690109 -67.867405817200265 18.442423435429639 -49.213006680745963 110.6089982426121 113.02191121099679 -11.650610887797109 -95.132597438359426 70.182384966863523 192.70172729885041 74.672728488905008 123.92309424916834 -81.913378685019509 90.353404745459457 -39.158939170622517 -42.278914281193174 35.308477135354586 127.53534034540908 -68.15156809224716 86.825034404689177 -144.66908971521363 215.60654168949537 139.4324247720659 143.30447060722256 -81.793654855125965 20.447329613795247 148.95306612281513 71.952919714013902 150.93093956118503 -148.43266022110589 -7.8009311268557981 6.3459084349766188 8.968660082038296 6.3892643404716054 -152.78775059431618 -199.1050686394664 75.185759447636215 181.90548243423589 129.57826044419602
leaf_weight=15706917.029036522 479106.56982421875 452465.42736816406 854497.83248901367 1087455.9174499512 1376328.5638427734 780012.56872558594 615016.86157226562 623550.125 2182881.0275878906 345929.80729675293 1223293.9002685547 862886.46655273438 492658.55102539062 665435.42779541016 311984.78031158447 693060.0634765625 877696.7412109375 2888712.0632324219 625661.74350357056 750160.60754394531 477168.50286865234 2255283.5958251953 1175955.9773435593 606122.0263671875 507367.580078125 602347.1318359375 945659.11669921875 751433.37377929688 674778.62408447266 542382.87976074219 2174101.8982772827 1128299.8754882812 1269879.7180175781 570904.232421875 594450.2509765625 701709.03466796875 1007792.8408203125 1052729.8732910156 1015197.9768066406 298201.38989257812 507801.47509765625 1735535.5661621094 650437.1337890625 2964759.3507080078 773721.0986328125 647327.556640625 541269.220703125 531304.10620117188 704413.6432800293 1099547.1117553711 650668.54541015625 1835649.5412597656 2512684.4357423782 584456.21069335938 762005.9375 452827.01062011719 834639.91850280762 1063924.354888916 4302775.0280895233 1159771.7065429688 1439402.3940429688 776801.75390625
leaf_count=8630 34 37 64 149 126 54 43 44 189 46 81 62 43 46 50 59 67 158 41 60 43 238 93 39 40 41 76 43 49 43 206 73 70 37 39 66 68 81 78 27 33 150 42 307 40 37 37 51 67 66 40 111 350 41 64 37 99 126 602 81 78 45
internal_value=0.000167518 0.0077215 0.0115325 -0.0106966 -0.000482229 -0.00745704 0.00323131 0.00839218 0.00612964 -0.00580092 0.00112086 0.00992013 -0.00111946 0.0136389 -0.0142015 0.0149559 0.0197548 0.021352 0.00549134 -0.00216939 0.00123197 -0.00101896 -0.00394301 0.0117888 0.00627675 0.0100152 0.00122824 0.01944 0.00984 0.017143 -0.00918575 0.0232141 0.0198675 0.00266416 0.0126188 -0.00321397 0.000990291 0.00477568 -9.13731e-05 -0.0146501 -1.47568e-05 -0.00287483 0.016072 -0.0112089 0.0182002 0.0120141 0.00645962 -0.0116202 -0.00468457 0.0207004 0.00826403 0.0217805 -0.00923055 0.00237521 -0.000208567 -0.00722907 -0.00822325 -0.00465005 -0.0130183 0.0197915 0.0214645 0.0174459
internal_weight=7.87792e+07 4.64688e+07 3.17291e+07 3.23104e+07 1.47396e+07 5.1211e+06 9.61851e+06 2.29601e+07 1.70744e+07 1.34807e+07 7.35521e+06 9.71923e+06 6.37656e+06 6.42588e+06 1.88298e+07 5.88564e+06 8.76907e+06 7.89137e+06 2.3063e+06 8.30065e+06 5.31463e+06 4.56447e+06 5.28945e+06 3.24195e+06 1.88439e+06 2.4101e+06 2.66288e+06 1.35756e+06 1.15195e+06 5.19258e+06 2.62657e+06 7.03688e+06 4.14816e+06 3.29335e+06 1.08711e+06 4.94511e+06 2.76223e+06 2.06052e+06 1.68063e+06 1.85178e+07 2.72244e+06 2.21464e+06 2.87828e+06 4.34109e+06 4.11958e+06 1.51021e+06 1.71723e+06 5.18001e+06 3.41252e+06 1.74998e+06 1.19305e+06 2.60937e+06 2.81089e+06 1.1868e+06 1.26937e+06 2.70811e+06 2.98602e+06 1.89856e+06 4.6487e+06 3.99953e+06 3.37598e+06 1.93657e+06
internal_count=14037 3413 2166 10624 1247 487 760 1626 1236 1567 567 669 531 415 9057 390 540 473 165 868 494 434 449 229 147 163 206 82 92 331 243 409 251 254 82 404 215 149 124 9007 217 184 181 433 250 99 130 699 342 108 83 151 377 82 104 275 374 225 648 248 204 126
is_linear=0
shrinkage=0.05


Tree=5
num_leaves=63
num_cat=0
split_feature=173 15 135 59 1 139 137 103 97 86 167 54 74 139 103 15 107 97 96 21 25 33 103 4 15 105 163 63 114 175 64 107 39 105 108 88 168 15 61 132 145 114 16 4 100 145 0 107 49 93 139 59 95 56 129 129 85 150 173 114 1 96
split_gain=2.49578e+06 418953 299726 294755 160639 117424 109582 122143 190196 96923.9 93007.9 90674.8 74762.4 131476 74586.8 67972.1 69338 65835.3 115940 62737.9 78471.8 62516.9 62419.5 68453.2 64217.8 63085.2 58048.6 57905.3 50007.9 49078.4 98072.1 67079.3 48446.6 45057.5 44355.3 42692.3 41679.2 41410.2 40644.2 40078.5 38677.4 37218.4 36913.1 36534.4 36425.1 36102.4 35472.6 35414.1 34499.9 34251.2 49582.7 43791.7 33915 33547.6 32285.9 30589.4 30051.2 30024.3 27886 34579.7 36893.7 26871.5
threshold=12377.289529006954 -0.16417493923731727 14.035633585864145 20.963507755413545 1.0000000180025095e-35 14.47597438682166 14.990894236139161 9175.0000000000018 1.4134250000000181 16.702077853416316 0.24351769910029578 3.6122980881153062 16.174629119981834 11.991171961402559 0.030467308000000002 -0.55248480198330341 102205.56416666669 7.5690283333333079 1.1492233415852378 0.22214347440369511 5.3280940033910804 0.017084807168296513 36025.000000000007 -0.28435655403991289 -0.26587321940689029 10.430935000000035 0.29243500000001182 1.266303757036003 0.023293654434758518 16600.911621841544 -0.90450536203539811 101127.65983333335 0.28017673128712733 17.49118250000004 5.0414015243851976e-13 11.631884661902516 8219.6584379875258 -0.26587321940689029 27.366637209897124 0.72659444624288783 0.94519729257491958 0.35210714508407109 6.8398527397183608 0.74409704927257569 260.30098000000004 2.6476024261094131 -0.37940952255126059 100834.87166666669 0.26281575804046103 99.283699000000027 19.104090716732212 17.972002634452945 90697.22500000002 0.27450669749407336 9.9407583792608794 17.738101113772498 8.0703167833333342 9.047864934772285 6900.4957484840697 5.1627158136920248e-15 0.91597561503675351 1.129663112258164
decision_type=2 2 2 2 2 2 2 2 2 2 2 2 2 2 2 2 2 2 2 2 2 2 2 2 2 2 2 2 2 2 2 2 2 2 2 2 2 2 2 2 2 2 2 2 2 2 2 2 2 2 2 2 2 2 2 2 2 2 2 2 2 2
left_child=2 3 11 4 5 55 47 9 41 26 32 56 13 42 -15 -7 29 18 49 20 -13 34 23 -5 25 57 39 36 61 40 31 -31 -4 -29 52 53 -22 -34 54 -8 -17 -9 -6 -26 -42 58 -20 -3 -46 50 51 -14 -12 -10 -36 -2 -1 -25 -21 -60 -61 -16
right_child=1 6 10 22 12 15 7 8 35 -11 21 19 17 14 28 16 -18 -19 46 45 27 -23 -24 24 43 -27 -28 33 -30 30 -32 -33 37 -35 38 -37 -38 -39 -40 -41 44 -43 -44 -45 48 -47 -48 -49 -50 -51 -52 -53 -54 -55 -56 -57 -58 -59 59 60 -62 -63
leaf_value=-389.47649585910722 -87.024166040883017 -9.5324750026834266 113.88171144423495 160.0525143990377 -28.917368536205572 110.52722609377943 61.389413310039586 131.64288438265032 -71.047063856596282 90.941915568957313 -72.087925328467676 -220.55672781230592 20.292487324787231 62.23212230409397 134.73255162269831 -96.339112031938967 85.974890494763969 138.59133873778521 8.8843995013619033 -280.52251605998106 -51.097109252359118 -128.30745375830671 82.800173894602239 188.71788277517024 -16.445484478118519 50.315923054912417 101.5451866255318 -131.27708088724322 118.59720894988291 94.438320382029161 112.36035831357378 -31.427462113730215 43.581748956048102 8.0222469849671203 126.48024900751483 7.3478186633990736 65.068692412330094 -64.846395695798876 -21.861672519942033 -48.702720894558276 97.251531730623867 25.082564477390925 92.298621285995409 101.74622000467785 -100.58426388563512 -77.282832906191814 -64.700801614533972 -129.94157245099811 17.559342852133693 147.32802841985799 -18.013548687870792 144.49020393543978 -35.973954842381481 4.7056360512880175 14.204923985919514 15.048742896265717 -36.405385013240583 120.5680642706979 -197.44590311843808 -80.7623342691831 16.966287280498932 189.74676861893317
leaf_weight=11297563.038150787 1794284.8970184326 464267.36755371094 780258.44302368164 2995493.5581054688 1033537.2673950195 627701.05163574219 816184.92596435547 607640.65283203125 3160662.8266601562 847193.93579101562 2659210.6736068726 1548845.1170778275 856421.42827606201 1209235.7132568359 2437852.0415039062 1156155.9151000977 1121632.3480224609 797426.20407104492 712513.01257324219 3613417.5108623505 649005.28820800781 2509357.9018011093 762005.9404296875 1861741.0590820312 552940.98574829102 1098259.8964233398 591514.2294921875 1358350.8564529419 762642.31494140625 886085.369140625 793477.7734375 937313.86938476562 458380.86389160156 375564.81927490234 758288.90673828125 592034.9033203125 870783.34643554688 557453.49438476562 706640.96899414062 711746.46813964844 660633.66809082031 640558.80151367188 447012.82348632812 529409.43212890625 510419.30749511719 686927.68936538696 1106836.5474920273 1621262.1505126953 523696.48168945312 602072.3310546875 576747.34375 872041.64318847656 396449.62365722656 504807.59985351562 864159.21997070312 451250.52352905273 79851.093872070312 929445.91546630859 3334235.1770629883 2330998.2339935303 399501.34631347656 1775323.6993284225
leaf_count=7650 175 45 56 167 98 39 59 38 270 52 275 313 70 81 147 102 77 51 51 849 72 292 60 102 45 75 40 168 50 55 47 71 38 36 56 43 67 54 60 61 48 48 32 36 46 104 106 170 43 38 41 57 36 41 72 35 8 58 448 271 40 98
internal_value=-0.000128194 0.00817594 -0.00973958 0.0110746 0.00806643 0.00309536 -0.000439764 0.00208755 -0.00231931 0.0102661 -0.0022131 -0.0124871 0.0116328 0.0148284 0.0180322 0.0062022 0.00470456 0.00719838 0.00495636 -0.00995615 -0.00523197 -0.00454966 0.0188806 0.0201882 0.0165907 0.0195884 0.00455219 -0.000822296 0.0207389 0.00238155 0.0073259 0.000940651 0.00805643 -0.00706708 -0.00151216 -0.00735117 0.00630234 0.000859529 0.00368563 -0.000596373 -0.00215693 0.014844 0.00144458 0.00581863 0.00265327 -0.012145 -0.00494276 -0.0107068 -0.00320559 0.0111511 0.00837759 0.0126135 -0.00547403 -0.0093634 0.00804466 -0.00688999 -0.0158612 0.0235828 -0.0129312 -0.0108595 -0.00668746 0.0228716
internal_weight=7.81747e+07 4.19395e+07 3.62352e+07 3.13816e+07 2.26523e+07 9.46265e+06 1.05579e+07 8.47234e+06 5.5057e+06 2.96664e+06 9.6902e+06 2.6545e+07 1.31897e+07 7.6656e+06 6.18505e+06 7.21712e+06 6.58941e+06 5.52406e+06 4.72663e+06 1.51676e+07 4.80255e+06 7.89411e+06 8.7293e+06 7.96729e+06 4.9718e+06 3.88945e+06 2.11945e+06 3.2537e+06 4.97582e+06 5.46778e+06 2.61688e+06 1.8234e+06 1.79609e+06 1.73392e+06 5.38475e+06 4.25751e+06 1.51979e+06 1.01583e+06 2.32909e+06 1.52793e+06 2.85091e+06 1.2482e+06 1.48055e+06 1.08235e+06 1.69475e+06 1.03651e+07 1.81935e+06 2.08553e+06 1.03412e+06 2.90728e+06 2.30521e+06 1.72846e+06 3.05566e+06 3.66547e+06 1.62245e+06 2.24554e+06 1.13774e+07 2.79119e+06 9.67815e+06 6.06473e+06 2.7305e+06 4.21318e+06
internal_count=14033 3068 10965 2201 1658 738 867 652 440 212 939 10026 920 506 376 528 489 414 363 2368 656 791 543 483 316 235 160 343 295 412 173 126 148 204 499 354 139 92 188 120 239 86 130 81 137 1712 157 215 89 206 168 127 311 311 128 210 7658 160 1608 759 311 245
is_linear=0
shrinkage=0.05


Tree=6
num_leaves=63
num_cat=0
split_feature=144 15 59 169 1 104 97 1 97 57 108 25 73 90 162 107 165 140 88 107 135 4 21 107 74 113 44 172 126 31 154 140 2 91 130 15 108 166 63 119 32 170 107 25 165 152 22 88 134 130 104 83 113 64 54 26 146 1 44 53 48 106
split_gain=2.39515e+06 484708 304869 234730 175293 136528 112931 109689 106687 92938.8 91767.4 88857.8 83452 99675.8 78581.4 75984.7 75416.1 72414.9 69392.6 69176.6 68929.9 76636.4 62673.7 61808.7 59449.8 55096.3 53895.9 51506 49488.1 46139.8 41166.2 38944.6 37515.3 37322.1 50445.8 37131.6 37253.3 36254.9 47769.7 43534.8 35554.7 35537.5 34672.1 34531.1 34110.6 33945.8 33724.2 48222.1 34982.6 32236.7 30824.3 37654.4 30720 30078.5 40026.1 32195.9 29973.7 29169.3 29039.5 29896.1 28745 34027.7
threshold=14.255957810029363 -0.12836761445332648 19.516461374757323 7669.0745679716192 0.1294095225512602 23.18960499999999 1.5644316666666784 1.0000000180025095e-35 5.6990916666667042 9.4054175000000022 0.00041071863729921586 6.9753267697838437 11.059439536846957 2.8949192048386698 -7.3324583333333058 100071.05333333336 0.75804226320916068 19.299358285577686 11.631884661902516 101860.26666666669 16.531569838680024 0.42888796625999276 0.19275190044215226 102361.27500000001 16.287504291217207 1.0781250000000002 1.1030645449054444 16198.381294136629 16.967471633190133 0.70139583953603002 0.15272315461832317 15.820137761102439 -1.0000000180025095e-35 8.8685566666666791 0.12078889953757078 -0.22736555652311541 0.0059719917876689304 -9.8234686666666491 2.5872596410662143 16034.944905337203 -0.99637614412173459 8686.4950496455858 101963.66600000003 9.0881338954944049 0.73351646047543839 -0.22309139157430888 1.5059812337023488 6.58521437347492 1.467379681772891 -0.090061159973595636 19.859572499999988 13.304185139554304 7.3906250000000009 -0.96196492079910445 5.3537710355952983 9.6131400406068117 6.4614952352191137 0.37940952255126048 1.9795379176006014 8.7492859373770102 4.6557549689651658 5682.9751750000014
decision_type=2 2 2 2 2 2 2 2 2 2 2 2 2 2 2 2 2 2 2 2 2 2 2 2 2 2 2 2 2 2 2 2 2 2 2 2 2 2 2 2 2 2 2 2 2 2 2 2 2 2 2 2 2 2 2 2 2 2 2 2 2 2
left_child=3 2 4 31 12 16 9 22 14 -3 20 25 -2 23 40 52 17 27 19 57 21 29 -5 46 -19 53 -17 37 33 -7 -21 58 -13 34 -15 -27 -37 -6 39 -39 -4 -34 -32 56 50 -11 47 -14 -48 -49 51 -45 -16 -9 -55 -56 -28 -8 59 -1 -60 -62
right_child=1 6 8 7 5 10 18 11 -10 45 -12 32 13 28 15 26 -18 24 -20 30 -22 -23 -24 -25 -26 35 43 -29 -30 -31 42 -33 41 -35 -36 36 -38 38 -40 -41 -42 -43 -44 44 -46 -47 48 49 -50 -51 -52 -53 -54 54 55 -57 -58 -59 60 -61 61 -63
leaf_value=-332.42431601612526 -71.789980013957134 -40.853762082422001 49.074946394693448 5.8815979044099684 64.881643525956605 -54.438455240120291 -126.02257649634008 -219.09307106885373 44.887693732008366 140.66207176825785 -1.3145025429246158 -20.920117966270823 24.493621163424212 14.619188207575963 -15.864397076520588 42.140066168689316 -114.94031644032407 142.41136597212355 120.14323540986462 21.971177294386862 162.11330392006693 142.20293406053813 -143.61365687530983 87.636848211788518 77.545639501287553 63.100860846128505 58.257303725347562 -71.455118527468628 173.6528897690439 100.90789632681036 24.386433239839704 50.877803738582429 15.587634264466391 -15.646643031702432 142.47532763674866 -144.71055671969961 20.043257383989875 15.81178943928478 68.413806224977876 -65.223001968002791 -17.010411142607676 97.593931571674716 -65.595132620661232 154.05504547806177 128.40274369733089 46.451547651321064 23.087532879029165 -13.871443789952568 -14.354158059047883 -81.605386399021256 163.67068353011851 129.96062972451134 159.79489348926913 -94.058830921369051 44.183874161904164 -57.517257057351394 83.376069637619892 -31.101594970326563 -215.27316867489992 8.6920590677873069 -228.71728910842467 55.990048159090705
leaf_weight=14830348.427305222 2294261.8102645874 704167.77172851562 539012.966796875 408728.8356628418 1018249.6978378296 589012.107421875 2857760.9010314941 813682.80541992188 1980425.7431030273 486381.53588867188 798395.24169921875 724531.89683532715 576270.06396484375 782138.6533203125 561589.96032714844 1386539.55859375 604386.44394302368 650422.6748046875 616593.34814453125 485021.99951171875 2556681.3444824219 1195756.0415039062 5116819.3987026215 596735.43237304688 859878.12780761719 704153.30724334717 601754.14453125 649916.46196269989 746790.69580078125 740687.244140625 492253.5791015625 159340.61015319824 796254.69045257568 612500.27191162109 856566.06201171875 514960.73645019531 388364.7162399292 1136457.0924072266 516652.9287109375 510723.02905273438 501857.11782836914 731141.55786132812 1367694.0703125 635771.494140625 884942.771484375 636740.52389526367 1033378.1645507812 876380.5927734375 1056085.3231201172 1185559.5186157227 3754389.9096679688 755902.49095916748 625734.05908203125 3733230.3245239258 501249.65916728973 468852.19104003906 832788.62890625 1072110.5078125 2673080.8403139114 71867.431396484375 481145.87547588348 324119.37147521973
leaf_count=8410 215 70 36 43 74 45 295 101 138 30 57 74 45 64 40 90 54 36 43 35 148 69 688 41 60 65 39 58 44 51 36 26 69 46 54 56 41 90 37 43 44 53 118 34 62 52 77 69 86 99 205 54 42 404 45 40 52 89 519 8 74 44
internal_value=-0.000361886 0.00727371 0.0098677 -0.0104591 0.00633327 0.0105198 -0.00328961 -0.00578673 0.0159414 0.00776139 0.015922 -0.00249368 0.00166936 0.00399687 0.0178519 0.0192077 0.00517773 0.00707164 -0.00621983 -0.00779261 0.0183977 0.0125387 -0.0113748 -0.000109146 0.0163442 -0.00523021 0.0208008 0.00341704 0.0112891 0.00427904 -0.000996368 -0.0142147 0.00616394 0.00758914 0.0115251 0.00291559 -0.00379377 0.00603679 0.00237567 -0.001785 0.00477479 0.0106087 -0.00437937 0.0224821 0.0241406 0.0166901 -0.00202308 -0.00578128 0.00272212 -0.00935494 0.0256999 0.0193439 0.00733037 -0.00760363 -0.00606805 0.00298036 0.0155097 -0.011848 -0.0144281 -0.0153883 -0.0103145 -0.00203311
internal_weight=7.76652e+07 4.42233e+07 3.55046e+07 3.34419e+07 2.24439e+07 1.18272e+07 8.71872e+06 1.4902e+07 1.30607e+07 1.82729e+06 5.88053e+06 9.37642e+06 1.06167e+07 8.3224e+06 1.10803e+07 1.00394e+07 5.94669e+06 5.3423e+06 6.89143e+06 6.27484e+06 5.08214e+06 2.52546e+06 5.52555e+06 5.32441e+06 1.5103e+06 7.12449e+06 8.85209e+06 3.832e+06 2.998e+06 1.3297e+06 2.34497e+06 1.85399e+07 2.25193e+06 2.2512e+06 1.6387e+06 1.60748e+06 903325 3.18208e+06 2.16383e+06 1.64718e+06 1.04087e+06 1.5274e+06 1.85995e+06 7.46555e+06 6.03101e+06 1.12312e+06 4.72767e+06 2.63821e+06 2.08946e+06 2.06194e+06 5.14606e+06 1.39167e+06 1.18732e+06 5.51701e+06 4.70333e+06 970102 1.43454e+06 3.92987e+06 1.83806e+07 1.49022e+07 3.47835e+06 805265
internal_count=14026 3266 2498 10760 1662 822 768 1679 836 152 370 948 840 625 698 618 452 398 616 573 313 165 731 417 96 752 536 302 208 96 189 9081 196 164 118 162 97 244 170 133 80 122 154 446 355 82 376 213 163 168 293 88 82 590 489 85 91 384 9055 8418 637 118
is_linear=0
shrinkage=0.05


Tree=7
num_leaves=63
num_cat=0
split_feature=173 86 65 34 123 65 1 113 100 65 74 106 173 97 167 5 107 0 4 158 167 103 107 107 73 87 5 44 74 127 63 142 65 33 161 100 24 112 152 107 94 134 105 167 73 44 41 44 169 74 108 81 44 37 135 178 145 80 6 5 82 94
split_gain=2.17403e+06 370217 275833 274820 182798 173007 116512 138663 86781.6 84594.6 84193.2 83639.2 80770.5 78497.9 73957.6 73892 72574.1 70316.9 69746.9 71928.9 71260.6 66263 65216.7 63503 62176.9 82869 60498.1 60266.2 59646.2 54007.7 53774 86343.9 50095.8 48237.2 47885.2 46135.3 43841 43524.8 43451.6 41929.1 40897.8 47662.6 63437.2 45448.4 39788.7 39317.5 39208.7 38939.7 38766.8 37983.1 37635.8 39951.3 37575.3 37329 37113.7 48554.9 35907.6 33661.8 32675.9 32114 33473.1 31991.6
threshold=11765.702619309011 18.785378868889783 -0.20060669044115811 6.7281435415199304 14139.623966039051 -0.23136621559843065 1.0000000180025095e-35 11.703125000000002 324.32433500000008 -0.45075935179128029 5.7258872689746676 5547.8686750000006 8051.7992896028127 0.1534966666666833 0.32933699202208577 0.88999460902669758 102430.62300000001 0.37940952255126054 -0.28435655403991289 7.1080300000000145 0.82790827191144556 75.000000000000014 101081.091 101963.66600000003 17.089705452843685 21.723457815713367 -0.94128245028753155 2.4233441077138385 23.84789641616803 10.24434573065753 1.7665682073983604 19.200498721480084 -0.40766880288613078 -0.0596697183617503 12.078183333333358 443.27203000000009 -0.25066549268707589 0.00085360000000000004 -0.70431167912880921 102197.38316666668 0.0024693409666666668 1.3727359926345513 13.056177500000048 0.64471046163860912 12.905243898798052 2.142784710653812 -0.9634973864228501 1.272328045927537 16902.233618447364 13.206438220299082 0.00020662498376295847 1.4957676649432654 1.5053877708474588 394.18242090923565 15.607232602319568 804.62398391220779 1.4298732420411941 3.6529160356849535 31.500000000000004 0.97690230611205509 2.0902082229411794 0.0031738284500000004
decision_type=2 2 2 2 2 2 2 2 2 2 2 2 2 2 2 2 2 2 2 2 2 2 2 2 2 2 2 2 2 2 2 2 2 2 2 2 2 2 2 2 2 2 2 2 2 2 2 2 2 2 2 2 2 2 2 2 2 2 2 2 2 2
left_child=3 2 4 12 6 18 7 27 22 30 29 16 37 -12 48 17 49 35 20 32 -3 36 -4 24 -16 -26 -14 54 -17 -5 -6 -32 -20 38 -21 -7 -13 52 -15 -35 -23 42 -42 -44 -29 -40 -43 -28 -11 -8 -10 -52 -1 -36 -2 -56 -24 -41 -51 -54 -61 -34
right_child=1 5 8 10 9 15 11 -9 50 14 13 21 26 33 23 28 -18 -19 19 34 -22 40 56 -25 25 -27 47 44 -30 -31 31 -33 61 39 53 -37 -38 -39 45 57 41 46 43 -45 -46 -47 -48 -49 -50 58 51 -53 59 -55 55 -57 -58 -59 -60 60 -62 -63
leaf_value=-344.26547147789125 -84.462765559658521 148.56301950979363 150.42525923931356 105.95103634599695 172.53506138255943 98.213313659357595 50.045524018145187 112.63724026634708 -115.09685931888762 132.05125763711891 37.329928770208397 64.608629435462518 49.313894156950035 57.654660944406423 -26.702626831149662 21.085238453984239 119.01287580340166 -21.848086926128033 169.10926925852064 -19.038499594314267 64.508894184819226 149.80004818026995 9.0669193682789793 120.76049329837218 92.714307255525853 -15.456092182951785 -178.49329334705448 -49.99288218705972 -25.806139389748019 -18.071964725273357 -3.2460181217630395 128.89291125587786 136.83421262340821 -133.21910685288682 114.88009129616772 75.598991801017789 -40.190587789042908 32.757048935908784 -74.876801075430265 -124.62735165438504 -34.437030300186727 127.44113241020462 33.052372793834266 92.711986376248859 60.654379377165164 5.489657440145983 38.325956662869579 -81.265617220699141 23.462190842821613 -83.466619027805876 -110.24870458307694 4.3126871575259571 -203.33917692309819 18.091747496279133 -90.792218934846886 21.746630018880417 -132.77192879654129 11.788287621613312 -2.6315190358269369 -313.36073308868004 118.591753206866 66.639723811490697
leaf_weight=10194660.460061073 2265856.1673736572 2570999.8798828125 531390.88232421875 607221.21728515625 1785100.7954101562 780171.66552734375 687549.60302734375 480842.146484375 2549999.3702392578 1076825.4875488281 582894.1888885498 603345.09838867188 729709.70302581787 497590.47915649414 1640122.1147460938 612268.86572265625 607814.21044921875 699163.51348114014 1527786.7477416992 537855.92138671875 707205.03002929688 739052.90380859375 1312734.0676269531 1237323.1520996094 834046.921875 736362.75479125977 2097100.0457258224 712368.37426757812 974787.9189453125 539200.99133300781 780099.34765625 1612179.2861328125 590227.01171875 2533786.1652336121 988426.66784667969 878376.5087890625 914302.99169921875 305288.33567047119 1741465.450340271 458395.33032226562 934768.36059570312 1132812.3770141602 846846.81799316406 753834.25206279755 599555.75268554688 1447328.2224121094 691729.4524307251 3613374.1331176758 671365.32568359375 996699.60019207001 672233.11474609375 726310.86499023438 7182245.1190414429 649511.4951171875 445132.60815429688 949274.90234375 609477.47216796875 689227.32495117188 610113.85595703125 359120.20776367188 305997.03295898438 693653.04852294922
leaf_count=7090 241 142 36 39 99 44 52 29 250 66 51 45 83 41 125 42 41 67 88 40 47 43 103 79 50 55 347 61 81 54 53 97 35 297 62 56 79 53 186 47 78 74 61 49 45 123 62 428 44 102 60 53 1781 43 42 76 58 56 56 72 28 47
internal_value=0.000175363 0.00751166 0.00466595 -0.00934189 0.0070083 0.0149106 0.0034738 -0.00235382 -0.00460714 0.0121096 -0.00190901 0.00681223 -0.0120698 -0.00373554 0.00840219 0.0062954 -0.000264628 0.0119099 0.0190222 0.0152985 0.0246874 0.00991625 0.00277764 0.00497748 0.00126858 0.00837953 -0.00725234 -0.00483329 -0.00204539 0.0107584 0.0176087 0.0127083 0.0205806 -0.00513295 0.00847266 0.0175162 0.000744671 -0.0137608 -0.00108999 -0.00918137 0.012646 0.0108024 0.00636768 0.0124115 0.00436135 -0.00323434 0.016965 -0.00898467 0.0171155 -0.00433424 -0.009196 -0.0026045 -0.0140776 0.0127232 -0.00812886 -0.00171083 -0.00150838 -0.00125258 -0.00854251 -0.0114768 -0.000965979 0.0133002
internal_weight=7.78425e+07 4.39579e+07 3.17475e+07 3.38846e+07 2.53453e+07 1.22104e+07 1.49719e+07 5.45303e+06 6.40215e+06 1.03734e+07 9.09711e+06 9.51887e+06 2.47875e+07 7.95069e+06 6.19605e+06 3.94477e+06 2.90218e+06 2.35771e+06 8.26567e+06 4.98746e+06 3.2782e+06 6.61669e+06 2.4536e+06 4.44785e+06 3.21053e+06 1.57041e+06 6.44018e+06 4.97219e+06 1.58706e+06 1.14642e+06 4.17738e+06 2.39228e+06 2.81167e+06 7.36779e+06 2.17579e+06 1.65855e+06 1.51765e+06 1.83473e+07 3.68638e+06 3.68141e+06 5.09904e+06 4.35999e+06 2.53545e+06 1.60068e+06 1.31192e+06 3.18879e+06 1.82454e+06 5.71047e+06 1.74819e+06 2.29436e+06 3.94854e+06 1.39854e+06 1.8042e+07 1.63794e+06 3.66026e+06 1.39441e+06 1.92221e+06 1.14762e+06 1.60681e+06 7.84736e+06 665117 1.28388e+06
internal_count=14034 3258 2464 10776 1904 794 1236 494 560 668 894 742 9882 801 419 290 251 167 504 315 189 491 197 309 230 105 858 465 123 93 249 150 170 750 145 100 124 9024 350 400 367 324 188 110 106 309 136 775 110 210 363 113 8971 105 359 118 161 103 158 1881 100 82
is_linear=0
shrinkage=0.05


Tree=8
num_leaves=63
num_cat=0
split_feature=140 175 79 59 1 108 79 52 103 46 64 5 159 41 102 96 5 105 104 102 121 5 107 93 73 41 96 10 74 5 59 80 171 23 93 135 61 75 2 167 129 132 135 105 68 79 165 135 23 75 64 95 125 82 12 74 50 42 70 165 52 108
split_gain=2.04266e+06 366135 362985 207986 148574 111241 96722.6 109116 95161.3 91397.9 89975.2 85829.3 89442.7 85062.4 79258.2 73789 71155.9 83382.6 70661.6 60881.7 109954 56080.9 61830.2 55279.7 51576 51533 50424.6 85157.5 71421.6 66729.7 49749.7 70561.2 49467.5 48724 48273.8 48060.6 47781.2 43131.6 43066.1 42806.1 39541.8 38001.3 48789.8 53729.4 37472.6 35759.1 35752.3 32565.7 31637.9 31364.8 31213 30193.5 29888.1 29830.2 34111.6 28849.5 29916.3 28001.5 27229.4 26585.7 26201.6 25871.3
threshold=15.089036443231642 8013.2917570665313 -0.15812636421140971 20.963507755413545 0.1294095225512602 0.0014608359009240593 -0.076802826315191974 3.5872445791913652 34050.000000000007 18.290203111380006 0.36846488766796465 0.85651926849515192 -9.207406666666655 -0.99857018447624502 3.2967738034188039 1.162807622530394 0.97690230611205509 -9.1324199999999944 23.18960499999999 3.3938291452991463 10.060572981895593 -0.9523422988233432 102044.36750000002 98.065975666666688 15.868489569780911 -0.99951577126217372 1.1742840329318065 235.69150890836659 15.251084564866153 0.74407637760383738 24.446285917027073 9.4451389801882879 7116.4513620186617 -0.9630698956760414 97.99178000000002 13.267384710765628 13.566760630930611 12.813368007961779 -1.0000000180025095e-35 0.97303937737463697 10.118791116443804 0.24193965035085604 13.348569400038786 14.868232500000035 9.7434616962355101 -0.022536080243059267 0.26110089298619271 17.78160399834643 -0.96663301665847112 27.008922906773204 -0.85163518566815821 90208.034666666674 13.195753249525483 2.3790368560838124 0.24268199878193841 24.919908010825267 0.84426275180233545 -0.31800982329279015 0.19776963357431934 0.21389138421944251 3.7048811347085295 3.2586159780795805e-07
decision_type=2 2 2 2 2 2 2 2 2 2 2 2 2 2 2 2 2 2 2 2 2 2 2 2 2 2 2 2 2 2 2 2 2 2 2 2 2 2 2 2 2 2 2 2 2 2 2 2 2 2 2 2 2 2 2 2 2 2 2 2 2 2
left_child=1 32 3 4 9 16 7 21 30 15 -8 13 -13 -7 41 37 17 -4 26 20 59 40 38 36 -16 -18 27 29 -28 33 31 47 52 -6 -15 -20 -11 -2 -23 -40 -3 -9 -43 49 -32 -14 -29 -5 53 58 -38 -21 -1 -24 -55 56 -39 -49 -44 -19 -34 -37
right_child=2 6 5 8 18 11 10 14 -10 23 -12 12 45 34 24 -17 25 19 35 51 -22 22 48 -25 -26 -27 28 46 -30 -31 44 -33 60 -35 -36 61 50 55 39 -41 -42 42 43 -45 -46 -47 -48 57 -50 -51 -52 -53 -54 54 -56 -57 -58 -59 -60 -61 -62 -63
leaf_value=-310.94536509635265 17.002244862172979 -19.047986073700038 -107.74359235144988 73.198701901701895 -9.4654311333071757 127.605088216928 -176.98151843729215 85.897831377796507 47.59721044780121 80.140404064417069 8.4534432396048995 32.264556534218528 -4.5109074790058861 -12.739119081805891 -123.18547026499971 63.806367531446952 -78.704671659862314 1.807942525455885 28.05382978474745 -152.20378077624096 93.57163808628917 -132.373802794228 -114.50423092851652 136.27824374159499 16.38337935327915 25.034992204054134 165.39720167233264 69.065414134574951 8.6187052819223169 -88.865721460976047 131.67685851855558 1.0542371001373982 -166.29208241120975 81.040771032219382 74.66358556559662 147.91389870306833 -2.3180389789107738 -53.846979454228361 -29.160824787245048 -154.9856117728973 74.432387124382075 -65.958310604082456 -49.206229497524717 91.826299974125092 147.81956214929536 -119.49044161885004 122.39466235339438 142.41652810806718 56.809035326249401 47.140955123299491 96.204588148211187 -0.12330256421752486 6.1814646448313884 30.515476630328038 -162.13808481313006 -3.8925922755781652 -87.056209888413989 141.03769967497973 23.944992941853741 -137.05901270205104 6.1584112989017079 58.821023267534862
leaf_weight=14406635.752752304 817414.28991699219 472207.65121459961 1711179.5983991623 1073093.9957275391 838443.72509765625 1035750.1274414062 3559773.667090416 766518.4404296875 975337.51782226562 743247.2236328125 800188.67308616638 565379.30908203125 1054407.6010742188 831342.3212890625 781849.39270019531 673592.65472412109 530653.26293945312 425231.30444335938 807319.01177978516 1321122.7001037598 1005724.6052246094 2181159.9163551331 893461.57507324219 700045.76831054688 422324.20809936523 1267927.2060546875 653691.3486328125 748280.39697265625 637246.73510742188 766460.58703231812 897641.43359375 719787.97875976562 3758237.1267089844 722449.19834899902 564800.77075195312 3942396.505859375 1849244.8950195312 449818.673828125 3308837.8587646484 944849.18309307098 607929.90502929688 587652.56268310547 620165.75 644348.15014648438 2108815.2010421753 509479.19873046875 1014142.1689453125 606093.1005859375 453622.48425292969 576096.505859375 884364.2490234375 417334.42297363281 102370.23262023926 839774.333984375 604762.48388671875 649106.52828979492 1630489.6343231201 1653471.5866699219 568590.126953125 775876.10797119141 438219.22221374512 760371.6044921875
leaf_count=8446 61 45 159 69 65 63 477 53 70 46 84 40 84 70 85 48 42 34 65 140 67 257 106 43 30 88 35 52 48 79 53 50 595 63 41 230 128 38 318 115 50 59 51 44 121 44 61 35 36 49 56 38 15 67 59 51 163 92 41 85 57 51
internal_value=-4.40452e-05 -0.0082571 0.00796044 0.0111456 0.00833008 0.000718074 -0.00348789 -0.00161294 0.0179049 0.00333255 -0.0100564 0.0068685 -0.000461555 0.0132864 0.00447434 -0.00185685 -0.00304489 -0.00579939 0.0121834 -0.00180138 0.0037114 -0.00454686 -0.00580881 0.00857602 -0.00669082 0.0056179 0.00810781 0.0053884 0.0167231 -0.000890092 0.0199276 0.0163121 -0.0132631 0.00504267 0.00523207 0.0161633 0.00599497 -0.004738 -0.00850476 -0.00557569 0.00623262 0.00804688 0.00550585 0.00865668 0.0248009 -0.00662317 0.0136794 0.0193783 0.000405509 0.00414492 0.00293861 -0.00879942 -0.0146459 -0.0019391 0.0025026 -0.00775541 -0.0106268 0.0227844 -0.000495304 -0.00650127 -0.00848202 0.0180981
internal_weight=7.76781e+07 3.83396e+07 3.93386e+07 2.73224e+07 1.92881e+07 1.20162e+07 1.96341e+07 1.52742e+07 8.03424e+06 8.39732e+06 4.35996e+06 4.56116e+06 2.12927e+06 2.43189e+06 4.96755e+06 4.22042e+06 7.45505e+06 5.65647e+06 1.08908e+07 3.94529e+06 2.20683e+06 1.03066e+07 9.22647e+06 4.1769e+06 1.20417e+06 1.79858e+06 5.38071e+06 4.08978e+06 1.29094e+06 2.32735e+06 7.0589e+06 4.05245e+06 1.87055e+07 1.56089e+06 1.39614e+06 5.51009e+06 3.47686e+06 3.54683e+06 6.43485e+06 4.25369e+06 1.08014e+06 3.76337e+06 2.99685e+06 2.4092e+06 3.00646e+06 1.56389e+06 1.76242e+06 3.33266e+06 2.79162e+06 1.76485e+06 2.73361e+06 1.73846e+06 1.4509e+07 2.338e+06 1.44454e+06 2.72941e+06 2.08031e+06 2.25956e+06 1.18876e+06 1.20111e+06 4.19646e+06 4.70277e+06
internal_count=14007 11139 2868 1873 1383 995 2026 1465 490 634 561 342 168 174 412 361 653 523 749 364 186 1053 958 273 115 130 403 320 83 207 420 246 9113 128 111 346 230 313 690 433 95 297 244 185 174 128 113 196 268 141 184 178 8461 232 126 252 201 127 92 119 652 281
is_linear=0
shrinkage=0.05


Tree=9
num_leaves=63
num_cat=0
split_feature=173 79 59 168 4 44 93 107 93 57 104 106 59 44 113 65 88 44 67 165 44 178 131 113 156 59 6 59 69 81 1 95 105 77 162 161 13 173 105 4 134 100 94 112 139 104 106 161 74 104 132 87 94 156 136 75 104 64 149 141 174 77
split_gain=1.80157e+06 390233 323152 298980 143046 129421 119406 102526 91880.1 87731.5 87377.7 83038 100201 80244 78865.4 76259.1 70170.6 73658.9 68490.8 66695.9 67967.3 63762.9 63439.9 62552.4 60324.9 57434.8 51576.9 58273.1 51451.8 59368.5 50576.5 66050 54477.6 50343.5 51269.2 50044.1 48190.5 45040.6 43719.4 43582.9 42994.3 42141.6 41733.9 40901.4 40273.8 53700.1 38150.2 34833.7 33484.7 32093.3 31301.7 31262.9 31111.6 31419.1 30926.2 30878.9 29964.9 29937.1 41110.9 29925.1 29533.1 29377.3
threshold=11765.702619309011 -0.047440541366054668 20.963507755413545 10372.288383833684 -0.86095304316285715 3.1085389297059138 86.632039000000006 102661.82066666668 93.512721666666678 7.8008470500000007 23.18960499999999 5566.9898250000015 13.035581840174066 1.7097536129894439 0.51562500000000011 -0.40566830119825026 11.631884661902516 1.9795379176006014 3.0038279575386357 0.73351646047543839 1.7627406156820518 1562.1563417121386 17.274229858532387 0.046875000000000007 0.64414314301681685 16.964741293183327 31.500000000000004 19.516461374757323 4.2346389494174437 1.4957676649432654 0.1294095225512602 90418.385833333348 14.868232500000035 0.9482728880672171 3.0842550000000135 -5.5088449999999787 1.9333784467069275 13569.24064822103 -5.6899074999999746 0.25118773779856129 1.0975522964875792 529.36463000000015 0.0043945331000000013 0.00093440000000000005 13.448313452745497 23.501749999999991 5626.9115500000016 -8.9429633333332941 16.526967154771999 21.924260000000022 0.69728030663086271 22.734342532989366 0.00083451601666666684 0.40071221045553906 15.707707051794939 26.4862557149137 27.146429999999985 -0.90572728915359302 5.959064905076942 -0.098857843401265896 -579.23529705733119 1.1281707645677794
decision_type=2 2 2 2 2 2 2 2 2 2 2 2 2 2 2 2 2 2 2 2 2 2 2 2 2 2 2 2 2 2 2 2 2 2 2 2 2 2 2 2 2 2 2 2 2 2 2 2 2 2 2 2 2 2 2 2 2 2 2 2 2 2
left_child=3 2 4 9 -2 6 7 16 51 13 35 12 -8 43 15 30 17 25 -15 20 24 22 -10 -14 -4 50 27 41 61 57 55 32 -32 34 -20 48 -25 -12 -35 49 -27 59 -16 54 -44 -46 -39 -17 -7 -11 -6 -3 -53 -54 -1 60 -49 58 -30 -13 -5 -19
right_child=1 8 19 14 5 10 11 -9 21 39 37 26 23 18 42 47 -18 28 33 -21 -22 -23 -24 36 -26 40 -28 -29 29 -31 31 -33 -34 38 -36 -37 -38 46 -40 -41 -42 -43 44 -45 45 -47 -48 56 -50 -51 -52 52 53 -55 -56 -57 -58 -59 -60 -61 -62 -63
leaf_value=-292.34086380641907 -72.960197527962592 -3.4513859968035612 40.011369985120325 -108.3123122576458 -79.412522058407163 91.087977325476388 -112.1539194122541 137.52953740254421 93.552944931031021 39.246855229542859 50.376461601800671 43.457748327552736 -15.759507837742774 -225.53310583688909 -102.69811117650544 -44.632505364986073 107.7532310972654 3.8461679256998567 113.81006151624614 62.075965450374269 138.11198053347968 -123.04409051061053 -7.5807256724415799 125.34456536079922 105.26782527281738 29.686733620233294 97.911073669235833 126.55099256711533 -15.633895430873451 -21.194529209068222 -84.268792478633657 101.66500616131317 45.196782975645384 33.41216265946872 -83.493132218970388 -6.5342106123287422 -8.4181396198568166 174.35015795833394 -129.21737421481009 -174.24216220082769 -28.988699987951264 92.108166322664545 -24.427342445542109 61.543078641592643 10.706746384594593 159.94329694942246 75.69142359003574 -134.52292165943399 0.051799729206240389 -128.28317047001858 -152.59567952061093 -27.198279069401224 -16.121696147905713 -124.38164062029887 8.5161598227041164 32.971410832176844 -18.560708673043376 102.40286274442809 24.469259368893187 -2.0467820931950302 -32.472940676840842 -84.366670231381576
leaf_weight=13541391.821783066 977275.57250976562 588129.85510253906 1070461.7028198242 965242.23034667969 1230583.3307218552 989786.2060546875 735986.71337890625 644941.138671875 576183.28881835938 446043.79058074951 723418.228515625 1098578.0858154297 1221804.1884155273 3964756.5431270599 502001.75 830329.90258789062 1082538.4482421875 800434.5478515625 469474.10620117188 1876392.248626709 4393487.9312667847 503129.87149047852 592830.38012695312 1195018.4180259705 2413669.6456298828 661024.1689453125 1522565.5588531494 925338.37280273438 843274.42279052734 1017425.3100585938 758259.98083496094 710618.33935546875 631475.93688964844 616810.29570579529 465091.76879882812 891986.32971191406 585685.57873535156 1788166.9921875 2287666.6088380814 666737.11877441406 919770.06372070312 718442.90289306641 731156.0205078125 290839.64001464844 856016.45843505859 594956.4609375 999679.00927734375 2555741.24604702 758925.28173828125 483040.54357433319 1296188.2047729492 421065.91186523438 551407.89739990234 2518484.1512451172 72865.389038085938 417638.14660644531 627455.18011474609 795444.75830078125 636827.30615234375 1537795.258354187 656482.7373046875 1090594.4204101562
leaf_count=7953 93 56 73 107 120 60 73 42 36 51 49 78 99 977 53 80 70 61 39 133 261 55 48 76 145 44 103 56 65 78 74 50 49 69 50 70 47 97 318 99 73 52 72 44 81 37 63 318 59 59 145 34 49 250 8 34 60 48 42 125 60 98
internal_value=-0.00027876 0.00650595 0.00836851 -0.00886242 0.00561162 0.00629901 0.00439526 0.000849586 -0.00562024 -0.0120531 0.0126615 0.00849012 0.00267881 -0.0128849 -0.00200112 -0.00444842 -0.000352954 -0.00175657 -0.00882707 0.0161947 0.0182126 0.00425039 0.0106558 0.00673156 0.0129973 -0.00675782 0.0122341 0.00942263 0.00220619 0.00598098 0.000312908 0.00575868 -0.000581655 -0.00406682 0.00602708 0.00579021 0.0127095 0.0178291 -0.00731471 -0.000738171 0.000717166 0.00635862 0.00543274 -0.0151622 0.00842311 0.013245 0.0207138 -0.00935946 0.0107061 0.00626163 -0.0114343 -0.00966652 -0.0114632 -0.0132113 -0.0155585 -0.00529573 -0.0117385 0.0104701 0.00626582 0.00343322 -0.00841796 -0.0043671
internal_weight=7.73368e+07 4.31947e+07 3.74435e+07 3.41421e+07 2.76895e+07 2.67122e+07 2.05603e+07 1.1019e+07 5.75123e+06 2.33047e+07 6.15196e+06 9.54122e+06 3.73849e+06 2.17089e+07 1.08374e+07 8.15324e+06 1.03741e+07 9.29157e+06 7.8038e+06 9.75401e+06 7.87762e+06 1.67214e+06 1.16901e+06 3.00251e+06 3.48413e+06 4.10757e+06 5.80272e+06 4.28015e+06 5.184e+06 3.29297e+06 4.13972e+06 2.10035e+06 1.38974e+06 3.83904e+06 934566 2.6407e+06 1.7807e+06 3.51126e+06 2.90448e+06 1.59582e+06 1.58079e+06 3.35482e+06 2.68413e+06 1.39051e+07 2.18213e+06 1.45097e+06 2.78785e+06 4.01353e+06 1.74871e+06 929084 2.52677e+06 4.07909e+06 3.49096e+06 3.06989e+06 1.36143e+07 2.03936e+06 3.1832e+06 2.27555e+06 1.4801e+06 2.63637e+06 1.62172e+06 1.89103e+06
internal_count=13968 3226 2698 10742 2086 1993 1595 886 528 9667 398 709 295 9458 1075 832 844 774 1453 612 479 139 84 222 218 382 414 311 392 233 374 173 123 476 89 189 123 209 387 209 117 255 243 8005 190 118 160 458 119 110 265 389 333 299 7961 201 378 155 107 203 167 159
is_linear=0
shrinkage=0.05


Tree=10
num_leaves=63
num_cat=0
split_feature=144 24 173 73 1 79 87 120 73 107 93 105 93 159 115 161 1 105 140 45 23 119 52 73 67 2 56 5 161 105 67 107 94 60 170 85 6 2 44 107 129 85 79 129 40 98 91 66 73 42 90 167 83 84 93 135 107 151 17 94 42 114
split_gain=1.89643e+06 415055 225725 211895 114090 112800 99474.6 95466.6 87200.1 89746.6 83684.6 77111.4 83561.3 74201.7 70730.6 69841.6 72906.8 67287.4 60333.2 59144.6 63669.2 66925 57664.3 54293 49790.2 49769.5 63840.8 49489.8 55612.9 59985.9 67564.6 55700.9 57338.5 78557.4 49100.7 47947.5 46387.5 45623.8 54803.3 54056.3 95754.9 58475.3 44021.8 43990.7 43125.6 46150 41997 40984.1 39851.4 38725.5 41918.1 38643.8 37915.4 36218.6 33711.8 34396.6 33279.1 32718.5 48120.1 32582 32143.9 30886.3
threshold=14.255957810029363 -0.14266139366696803 6135.003067399306 20.295794895447777 -0.5 -0.037497993374959813 6.8345359907589947 16055.810554502557 14.674333369665009 102376.02666666667 97.791280833333346 -7.8301999999999898 99.408260833333358 -14.392068333333325 8.2449988819267848 -8.1678966666666195 0.1294095225512602 -8.4706999999999919 15.820137761102439 6.0672729587693235 -0.92925887264157814 17227.641796955995 3.6155295818619417 15.32222781525533 6.7101431780810126 -0.5 0.12056095150004027 0.98927755889796032 -3.8720483333333102 0.9868575000000136 7.11050043732451 101694.55666666669 0.01222436466666667 20.898008221172741 14647.779505786179 3.0037308277777779 31.500000000000004 -1.0000000180025095e-35 0.82034831883791604 100834.87166666669 9.8051311568365236 3.0190866833333336 -0.17118880720921234 13.194956301979689 1.2142915658425648 17.037526424612079 -8.0051133333332967 2.593922610256318 13.965109654353025 -0.38729106460856461 2.6242548223662072 0.43280799393238056 3.9228513423892513 69.100502493723937 92.843713166666674 24.244547741030853 102227.86916666669 2.9790842699251323 8.6825495999055686 0.0062530731333333344 -0.13087177215355089 9.6305301940160882e-14
decision_type=2 2 2 2 2 2 2 2 2 2 2 2 2 2 2 2 2 2 2 2 2 2 2 2 2 2 2 2 2 2 2 2 2 2 2 2 2 2 2 2 2 2 2 2 2 2 2 2 2 2 2 2 2 2 2 2 2 2 2 2 2 2
left_child=2 3 14 6 48 7 -2 23 19 11 -7 -10 27 -9 -1 -15 -17 -5 22 35 21 -21 37 56 43 -24 -27 28 -13 30 -30 32 36 -34 -19 -8 49 46 -39 40 -40 52 -28 -23 -36 -46 -6 -42 -4 -31 59 -20 -41 -37 -47 -56 -3 -54 -59 -51 -53 -22
right_child=1 5 4 17 18 10 8 13 9 -11 -12 12 -14 15 -16 16 -18 34 51 20 61 24 25 -25 -26 26 42 -29 29 31 -32 -33 33 -35 44 53 -38 38 39 41 47 -43 -44 -45 45 54 -48 -49 -50 50 -52 60 57 -55 55 -57 -58 58 -60 -61 -62 -63
leaf_value=-288.6461654718525 153.96864380447497 -130.64480565267831 -198.74697701313616 -16.277182010828046 -0.23470882169971788 -84.193925120247172 100.77925297647855 -55.47827642778234 -43.284755635527944 118.36520516203991 52.042243350851528 162.10324979527425 146.92860472157844 119.73958012594909 -1.0456362871518425 -5.0750189017733733 70.341858043169211 45.401540716934392 69.405036358105647 -33.592392529741737 2.8388288192250162 -9.6252870471316019 19.621465417950436 60.263509209992947 -38.218085604884969 99.427499713634148 -1.315569502568334 -14.6351185766001 -58.859816685108115 61.286281530151633 67.66747787963881 164.36192696879721 116.52130540164711 -5.5880698642799214 146.14439826111592 -51.526542855917853 63.804124292171153 -191.43008495220462 -153.1836156564456 -183.46935123986628 28.452212596459244 -97.509452321382753 -201.85865565983542 83.736913290419366 139.88331355724236 39.996444033173475 -142.40038292047697 109.04282391537465 -12.731352981070458 -10.86113239254572 26.093679112583988 18.105756670614223 69.989893960595097 84.313358510315027 79.397996449752227 130.5821452443673 -4.4551888172183416 -82.408319166392602 29.770279699095454 -68.661292591293176 -114.12064535181992 78.392997827040901
leaf_weight=13234830.716047287 622884.82006835938 1327602.197265625 4042438.1727657318 499470.69384765625 518099.23962402344 4104600.8280029297 1091028.3208007812 539200.99188232422 992534.21097183228 1145265.15625 659303.05187988281 879620.32958984375 1047016.9228515625 1298270.9077148438 839253.67047119141 1609648.2281188965 1143818.8395996094 1059643.2602539062 996583.8928527832 4206117.7167816162 538347.66296386719 554662.10972881317 665232.9462890625 890887.13385009766 581780.52880859375 478933.01171875 916978.67053222656 849522.5068359375 631678.41967773438 771537.1533203125 718515.22021484375 1103336.4638671875 1833205.2616271973 725298.4345703125 2305297.2000732422 734930.90380859375 594479.17431640625 718601.99503421783 443570.58917236328 598818.12690353394 612673.82747554779 1272381.8559713364 671828.15231323242 1117568.2152099609 1178139.9150390625 1159063.0183105469 3190153.2037725449 612500.2685546875 539909.68637084961 572321.6220703125 942433.837890625 400065.40539836884 895790.14539337158 793709.171875 1137469.5200195312 656699.68852996826 431493.85400390625 938789.11999511719 633717.72326660156 551162.0205078125 377040.06509399414 752185.4482421875
leaf_count=8126 37 137 736 38 50 393 72 44 86 65 55 50 61 79 103 127 78 66 84 366 46 46 52 68 47 34 83 59 53 51 47 62 113 55 137 59 38 126 55 93 70 169 97 72 67 79 439 43 48 40 63 39 95 53 72 43 36 108 51 45 41 48
internal_value=0.000299632 0.00708749 -0.00866077 0.0100341 -0.0051812 -0.000852249 0.00771523 0.00307901 0.00719746 0.00986814 -0.00682759 0.0086131 0.00979477 0.00744085 -0.0134878 0.00975974 0.0052521 0.0170964 -0.00306454 0.00375737 0.00156212 -0.000463367 -0.00423061 -0.00447762 0.00648857 0.00223476 -0.00159237 0.00841049 0.00946317 0.00821682 -0.00144284 0.0100554 0.00815393 0.0138195 0.0182803 0.0102523 0.00393028 -0.0059239 -0.00346921 -0.00190844 0.00573949 -0.00484944 -0.00641599 0.0108718 0.0199222 0.016865 -0.0103768 0.0129462 -0.012083 0.00126953 -0.00230013 0.00559251 -0.00111108 0.00453761 0.0135272 0.0178209 -0.00957077 0.0016271 -0.00271775 -0.00882326 -0.00276521 0.0117013
internal_weight=7.79499e+07 4.43518e+07 3.35982e+07 3.23469e+07 1.95241e+07 1.20048e+07 2.43511e+07 7.24092e+06 2.37283e+07 1.33579e+07 4.7639e+06 1.22127e+07 1.12201e+07 4.59094e+06 1.40741e+07 4.05174e+06 2.75347e+06 7.99578e+06 1.49418e+07 1.03703e+07 7.75066e+06 6.46013e+06 1.31681e+07 2.64998e+06 2.25401e+06 2.73297e+06 2.06774e+06 1.01731e+07 9.32359e+06 8.44397e+06 1.35019e+06 7.09377e+06 5.99044e+06 2.5585e+06 7.49631e+06 2.61967e+06 3.43193e+06 1.04351e+07 6.72684e+06 6.00824e+06 1.66874e+06 4.3395e+06 1.58881e+06 1.67223e+06 6.43667e+06 4.13137e+06 3.70825e+06 1.22517e+06 4.58235e+06 2.83745e+06 2.06592e+06 1.77369e+06 3.06712e+06 1.52864e+06 2.95323e+06 1.79417e+06 1.7591e+06 2.4683e+06 1.57251e+06 1.12348e+06 777105 1.29053e+06
internal_count=13995 3253 10742 2236 2513 1017 1734 569 1697 888 448 823 737 328 8229 284 205 502 1729 809 625 531 1565 241 165 266 214 676 617 567 100 467 405 168 464 184 237 1299 810 684 168 516 180 118 398 261 489 113 784 199 148 164 347 112 194 115 173 254 159 85 80 94
is_linear=0
shrinkage=0.05


Tree=11
num_leaves=63
num_cat=0
split_feature=177 15 59 55 4 140 104 144 110 93 148 64 120 87 165 53 100 120 74 87 74 128 66 173 51 64 14 159 4 6 73 63 105 100 144 59 31 30 160 4 52 137 36 59 64 45 139 73 6 110 59 152 82 6 113 64 147 140 58 13 117 100
split_gain=1.69766e+06 374586 231738 165061 151108 112132 113337 106112 101771 93717.4 102003 78488.7 75223 73854.7 65905.9 67922.7 62396.2 56112.1 54580.5 50183.8 50170.8 47797.9 72569.6 53352.5 50918.9 47199.7 49383.4 45850.8 45397.2 44781.3 50053.7 55340.6 52414.8 48319.9 44362.7 47025.5 44014.8 49743.5 40420.7 56823.1 40039.1 39000.6 38776.2 55512.7 38240.7 37687.3 52554.9 37298.3 37128 36793.8 35676.4 35538.2 35356.7 35300.1 34695.6 34439.2 37509.8 46730.8 42152.8 55292.3 34218.7 33861.7
threshold=10652.331155793379 -0.16951326160089972 23.320263195827106 3.6389693613951626 -0.86095304316285715 15.187395989820827 16.501632500000003 15.947667233912822 1.9742330000000001 97.320699333333366 8.0387541879752202 -0.96196492079910445 7569.0264935688547 7.8485951407864638 0.82952848528859724 3.7576723084386674 382.14430333333343 18369.116592766175 27.912317477840237 24.481842450481437 5.2751743965475599 22.233739643260019 6.1019837257614622 17096.693301236326 4.8796500694024312 -0.90450536203539811 -0.95919484827509016 -11.529763333333277 -0.5123666674339783 29.500000000000004 15.584802120876873 1.3308114087636833 -5.4019624999999669 159.65672000000004 21.971424433066488 19.516461374757323 2.6524399665509031 0.27190427121300903 6.7243483333333538 -0.33346569090932177 3.0107647385359351 14.244589745004085 15.707707051794939 10.082401884349514 -0.93820515498702672 5.271084229438185 10.075301090041231 12.280938839566401 20.500000000000004 10.224121000000002 16.556554372725056 0.58199235008864936 2.6681298638660924 16.500000000000004 1.0000000180025095e-35 -0.94754919207370036 4.0551273346675965 16.776631195259043 5.1041089678848666 0.63212873418786508 15627.874760099088 177.57719833333337
decision_type=2 2 2 2 2 2 2 2 2 2 2 2 2 2 2 2 2 2 2 2 2 2 2 2 2 2 2 2 2 2 2 2 2 2 2 2 2 2 2 2 2 2 2 2 2 2 2 2 2 2 2 2 2 2 2 2 2 2 2 2 2 2
left_child=3 2 4 18 -2 20 -7 19 11 10 16 -5 45 -8 15 -15 53 -12 49 47 -6 22 23 24 -17 26 -25 -22 -19 30 31 32 -14 52 35 -30 37 40 44 -40 -29 54 43 -42 -4 46 -13 -3 -16 -1 -47 -50 -31 -9 -26 -43 57 -57 -58 -60 -61 -35
right_child=1 7 38 8 5 6 13 9 -10 -11 17 12 29 14 48 21 -18 28 -20 -21 27 -23 -24 25 41 -27 -28 36 34 33 -32 -33 -34 61 -36 -37 -38 -39 39 -41 42 55 -44 -45 -46 50 -48 -49 51 -51 -52 -53 -54 -55 -56 56 58 -59 59 60 -62 -63
leaf_value=-300.52292334695494 -60.166546722805947 -86.7269130617874 77.738348483280632 -213.7574303231961 71.259426217019197 -11.900632278577188 146.954712616509 83.561304934276308 42.722943705863599 70.437748335526678 -94.612201131192037 -161.39128621434853 79.043128106060038 -23.491081560195383 87.297971970926724 112.615428957812 -96.978680810394181 26.578751994042854 -0.71059976903073907 -120.14879170403786 51.084434977893444 131.70346694061863 -7.2140511525640933 -7.6876833085827059 -74.790450176564065 143.39826299722395 107.98392962222836 -57.26475048698822 -86.573423828872933 -81.720516787490297 52.098618445646913 -125.48188321424735 -50.97575134779742 66.398020802709198 -39.911120440758459 17.812713003715285 38.464037902488627 -34.148683541418848 117.03323670797823 29.289347547352197 34.365664003008263 -1.3717281433760911 82.371618765095107 -93.858381278402433 142.73942748098543 -237.28137591153609 22.510945589436997 14.382058950166233 -31.095705922327841 129.27422719221369 -31.930992874733889 41.616015313686958 13.777326590331937 13.335474523348433 32.214916100259394 104.13224461752634 94.587026693369168 -18.9490110672653 -13.324517291172086 48.452304264251062 34.508981968733046 -3.3973710518082587
leaf_weight=11464930.668626785 950721.22021484375 965068.6796875 1291256.2753829956 1952367.2393188477 979589.68591308594 1855247.1176490784 753024.31591796875 917455.95092773438 747253.51411724091 1497717.8454589844 1355935.5183105469 1593333.7884244919 426504.06396484375 636639.28332519531 872374.29370117188 1218824.7825927734 1043936.2722167969 557323.326171875 154958.27490234375 2264858.2092323303 547661.93701171875 610316.33288574219 1030803.7258300781 618401.2395324707 750825.91455078125 2687008.8549804688 923501.55517578125 696834.94348144531 748627.51733398438 889599.91442871094 528339.15753173828 3646292.2571802139 1921184.6611862183 613093.25830078125 966804.25180053711 643480.3583984375 724575.28454589844 2655045.2818222046 841741.3232421875 1054624.5510864258 737592.12451171875 756090.50451660156 763148.5224609375 642511.32757568359 2052510.1296386719 2549160.5088968277 1043198.6545219421 816445.26147460938 1242052.6098632812 100576.79846763611 326592.56530761719 588216.630859375 446217.34814453125 1572839.4943237305 613628.40051269531 702764.84423828125 1362284.8391113281 636639.28662109375 504286.92483520508 1601780.2685546875 1029328.4877929688 1159511.3745708466
leaf_count=7580 82 100 91 335 67 144 42 64 75 103 128 349 33 53 62 75 95 37 18 252 47 34 72 44 62 155 56 67 63 102 45 496 214 47 80 45 59 235 47 70 51 62 48 58 117 660 143 65 99 26 35 42 39 117 46 45 83 44 39 107 67 125
internal_value=0.000207244 0.00598501 0.00870765 -0.00922898 0.0069968 0.00764554 0.00954269 -0.00113882 -0.00620096 0.00180085 -0.000397171 -0.00699045 -0.00577396 0.0106865 0.0100579 0.0113006 0.00588671 -0.00559562 -0.0138387 -0.00789822 0.00250433 0.0119775 0.011398 0.0123811 0.0102397 0.0170276 0.0100544 0.000973446 -0.00168827 -0.00310786 -0.0054616 -0.00676202 -0.000774603 0.00183091 -0.00472057 0.00099364 -0.000247805 -0.00177515 0.0184017 0.0125705 0.00282444 0.00878208 0.00620957 0.00120847 0.0217087 -0.010432 -0.00611421 -0.00161988 0.00284661 -0.0142336 -0.0143906 -0.00119934 -0.00535026 0.0101881 0.00108755 0.0103745 0.011675 0.00433018 0.0138623 0.0106717 0.0135786 0.00724257
internal_weight=7.78455e+07 4.82823e+07 3.49319e+07 2.95631e+07 2.96917e+07 2.8741e+07 2.0994e+07 1.33505e+07 1.78426e+07 9.30412e+06 7.8064e+06 1.70954e+07 1.5143e+07 1.91388e+07 1.83858e+07 1.56831e+07 3.53423e+06 4.27217e+06 1.17205e+07 4.04637e+06 7.74696e+06 1.50465e+07 1.44362e+07 1.34054e+07 9.17645e+06 4.22891e+06 1.5419e+06 6.76737e+06 2.91624e+06 9.63074e+06 6.52232e+06 5.99398e+06 2.34769e+06 3.10842e+06 2.35891e+06 1.39211e+06 6.21971e+06 5.49513e+06 5.24013e+06 1.89637e+06 2.84009e+06 7.95763e+06 2.14325e+06 1.3801e+06 3.34377e+06 5.51229e+06 2.63653e+06 1.78151e+06 2.70264e+06 1.15655e+07 2.87575e+06 1.83027e+06 1.33582e+06 2.4903e+06 1.36445e+06 6.59318e+06 5.83708e+06 1.3394e+06 4.49768e+06 3.1354e+06 2.63111e+06 1.7726e+06
internal_count=13943 3621 2472 10322 2147 2065 1433 1149 2698 732 629 2623 2288 1289 1247 1044 276 353 7624 417 632 991 957 885 630 255 100 565 225 1101 788 743 247 313 188 108 518 459 325 117 224 555 157 109 208 1187 492 165 203 7606 695 141 141 181 108 447 385 89 296 213 174 172
is_linear=0
shrinkage=0.05


Tree=12
num_leaves=63
num_cat=0
split_feature=171 65 59 115 93 173 74 96 167 64 64 81 9 5 90 138 4 1 73 97 65 87 136 163 148 4 13 152 115 65 3 21 97 51 59 63 56 5 93 163 57 4 171 107 52 52 127 93 21 73 40 124 96 0 162 5 30 41 30 134 61 172
split_gain=1.60081e+06 250199 256078 210141 133439 99121.4 96237 105549 91070.2 81038.4 78951.2 71931.8 80131.1 73173.9 101922 63173 98245.2 61619 60898.6 59565.6 58259.1 56523.1 54493.4 63195.4 53077.5 51733.7 51468.1 50428.4 47135.2 45954.3 44986.6 44096.6 59776.9 42369.6 40274.4 40063 39646.8 40186.7 40658.8 39533.2 42714 37922.9 46783.5 37836.9 37556.1 62519.9 43342.9 35548.3 35239.7 34866.1 37543.1 34838.2 33837.1 49118.1 36867.7 33476.1 31221.8 31117.3 35884.2 30829.3 30368.2 35237
threshold=11765.702619309011 -0.069548603494535122 16.556554372725056 8.2449988819267848 98.988776000000016 5214.0193863802133 16.287504291217207 1.1733420500314067 1.1361072936324061 -0.89470830631992893 -0.90902709994016651 3.4581632138147049 9.5395617590148252 0.85651926849515192 2.8949192048386698 15.820137761102439 0.30081702196488996 0.25881904510252057 19.141460009261731 11.169518333333373 -0.30536198084930316 26.775810279441124 19.645626744712242 -0.016664999999989046 3.2936458078674375 0.96460524310950191 4.1120128696569633 -0.059344157600514251 12.719945457966604 -0.53136162747828408 0.93301270189221952 0.22214347440369511 1.0686183333333477 10.83562161325988 16.734755949014012 1.572251283889128 0.22854055747497545 0.99370977118463066 95.421415333333343 -0.40482999999994712 3.0132592000000007 -0.5123666674339783 17171.450923436718 101986.92833333336 3.3865204369634632 4.438860442493076 11.191296944218747 61.799671333333343 0.26480860208567497 11.276209880743055 1.0429326784460655 12.803555226876691 1.1409748453556399 0.78656609248549325 3.6657283333333912 0.998148560797531 0.25843209324236399 -0.99837938244327351 0.26498567321300887 0.9507855299275757 14.614107759601179 2323.0276608411264
decision_type=2 2 2 2 2 2 2 2 2 2 2 2 2 2 2 2 2 2 2 2 2 2 2 2 2 2 2 2 2 2 2 2 2 2 2 2 2 2 2 2 2 2 2 2 2 2 2 2 2 2 2 2 2 2 2 2 2 2 2 2 2 2
left_child=3 2 6 5 18 -1 7 9 11 21 -9 12 -4 22 36 -8 30 34 -3 24 31 44 23 57 -11 41 39 -25 -20 35 43 -5 -33 -13 55 -26 -15 38 -38 -19 -41 -10 -43 -17 59 46 -46 -24 -18 -34 -51 -52 53 54 -49 -7 -48 -14 -59 -2 -42 -62
right_child=1 4 8 20 -6 17 15 10 25 19 -12 33 13 14 -16 16 48 26 28 -21 -22 -23 47 27 29 -27 -28 -29 -30 -31 -32 32 49 -35 -36 -37 37 -39 -40 40 60 42 -44 -45 45 -47 56 52 -50 50 51 -53 -54 -55 -56 -57 -58 58 -60 -61 61 -63
leaf_value=-288.79289021721723 -94.913789534795285 -104.56542233204345 152.35450531196713 60.975794935314084 69.571687482518968 -181.99078258001879 -69.501854125603245 42.947575642349712 76.047527352697202 -31.943908424231683 142.18501227294388 120.5086381733438 108.92238341860036 17.045882712657452 112.94847416357685 3.1262325355962903 -119.46623294148282 -149.6444242244965 17.597169509172399 -44.656572982113524 -99.148868253315513 -141.42114563929212 3.6839577169188886 116.23668253623566 99.56614577482685 100.32396355805751 35.673774522015243 -13.992183026106398 -26.788895558530299 106.82441923469224 49.019655185649697 58.17969223488582 -74.809095581304092 88.575203736059109 34.036114275943277 -8.3983730750079957 -12.193375705535054 -25.362277188387218 83.969099570245291 -158.22987382245367 -66.584674538617691 20.313840911696211 -37.381793307593895 -48.42874546845939 -54.492387480034907 -29.534741941383842 28.468457117736065 38.4969066067843 -17.844252903414869 -63.787336966548338 90.969132246717123 -32.529482178596602 133.13088076018343 50.065181768064008 128.55590899040331 43.043145339175453 133.03520351219078 72.882605044065258 36.672868356139048 15.17472674131767 89.321070854240702 -5.6013988562276129
leaf_weight=10818268.425605774 718978.04626464844 2739813.8549804688 1315467.5971679688 636538.04541015625 1010164.7988739014 6151311.2249126434 1761858.5067138672 1109295.2779417038 826931.052734375 844576.10229492188 725095.9599609375 1234025.5518188477 753183.40673828125 739327.701171875 1098592.5390625 1523881.7027282715 825065.30465984344 1313905.5823631287 1153118.6511230469 677888.21044921875 2410574.5288314819 542845.70886230469 374566.86865234375 680173.38720703125 893100.00732421875 781849.39099121094 409596.62999725342 1287871.8944702148 768760.23129272461 1973425.5750732422 718110.25341796875 1594418.5213928223 1570322.9191160202 659881.58203125 343442.14672851562 826150.04052734375 846109.20263671875 720568.98828125 620758.73626708984 1350439.5165309906 1324362.4477767944 1256819.4921607971 938977.13858032227 548500.79449462891 604892.64819335938 838718.53076171875 800275.45336914062 554155.8984375 625039.830078125 526487.8720703125 641788.17175292969 499933.52121353149 821955.728515625 672695.93926239014 2159060.2080078125 268118.02348327637 801143.24560546875 1024729.1970214844 1505036.2125244141 510708.56811523438 336181.64133262634 2742315.9697628021
leaf_count=7546 67 274 77 50 72 1246 171 77 57 75 39 70 44 48 64 124 89 202 86 57 286 58 27 44 57 49 43 97 63 123 47 135 168 46 35 68 61 51 41 247 167 89 78 45 48 67 59 39 50 49 48 49 43 49 121 35 50 67 99 45 38 309
internal_value=0.000268462 0.00646275 0.00789865 -0.00808402 -0.00334528 -0.0103236 0.00350529 0.00611491 0.0116599 0.00409858 0.0171427 0.0132192 0.0120724 0.010953 0.00527449 -0.00165402 0.00165228 -0.00758261 -0.00691532 0.00841761 -0.000962303 -0.000576899 0.0132775 0.00980044 0.0104831 0.00466454 -0.00445447 0.00271598 -9.19442e-05 0.0130694 0.00713848 0.00189183 0.000262511 0.022407 -0.011041 0.00709346 0.000400028 -0.0029832 0.00176672 -0.00545318 -0.00366607 0.00169926 -0.00173758 0.0034014 0.00135309 0.00433131 0.00874863 0.0172619 -0.00890501 -0.00363922 0.00139424 0.00648783 0.0185758 0.0163667 0.0193653 -0.0119334 0.0130557 0.0140474 0.0113913 -0.00602179 -0.00128009 0.00144353
internal_weight=7.73522e+07 4.44141e+07 3.87423e+07 3.2938e+07 5.67186e+06 2.50579e+07 1.78695e+07 1.18671e+07 2.08727e+07 1.00327e+07 1.83439e+06 1.70682e+07 1.51743e+07 1.38588e+07 4.02536e+06 6.00246e+06 4.2406e+06 1.42397e+07 4.66169e+06 5.21514e+06 7.88006e+06 4.81756e+06 9.83343e+06 5.25099e+06 4.53725e+06 3.80458e+06 7.4768e+06 1.96805e+06 1.92188e+06 3.69268e+06 2.79049e+06 5.46949e+06 4.83295e+06 1.89391e+06 6.76287e+06 1.71925e+06 2.92676e+06 2.18744e+06 1.46687e+06 7.06721e+06 5.7533e+06 3.02273e+06 2.1958e+06 2.07238e+06 4.27472e+06 3.04503e+06 2.20631e+06 4.58243e+06 1.45011e+06 3.23853e+06 1.66821e+06 1.14172e+06 4.20787e+06 3.38591e+06 2.71322e+06 6.41943e+06 1.60142e+06 3.28295e+06 2.52977e+06 1.22969e+06 4.40286e+06 3.0785e+06
internal_count=13925 3272 2777 10653 495 9868 1416 890 1361 774 116 1088 972 895 265 526 355 2322 423 380 785 394 630 351 323 273 1006 141 149 248 216 499 449 116 1316 125 201 153 102 963 761 224 167 169 336 224 157 279 139 314 146 97 252 209 160 1281 109 210 166 112 514 347
